{"learner":{"attributes":{"scikit_learn":"{\"_estimator_type\": \"classifier\"}"},"feature_names":[],"feature_types":[],"gradient_booster":{"model":{"cats":{"enc":[],"feature_segments":[],"sorted_idx":[]},"gbtree_model_param":{"num_parallel_tree":"1","num_trees":"300"},"iteration_indptr":[0,1,2,3,4,5,6,7,8,9,10,11,12,13,14,15,16,17,18,19,20,21,22,23,24,25,26,27,28,29,30,31,32,33,34,35,36,37,38,39,40,41,42,43,44,45,46,47,48,49,50,51,52,53,54,55,56,57,58,59,60,61,62,63,64,65,66,67,68,69,70,71,72,73,74,75,76,77,78,79,80,81,82,83,84,85,86,87,88,89,90,91,92,93,94,95,96,97,98,99,100,101,102,103,104,105,106,107,108,109,110,111,112,113,114,115,116,117,118,119,120,121,122,123,124,125,126,127,128,129,130,131,132,133,134,135,136,137,138,139,140,141,142,143,144,145,146,147,148,149,150,151,152,153,154,155,156,157,158,159,160,161,162,163,164,165,166,167,168,169,170,171,172,173,174,175,176,177,178,179,180,181,182,183,184,185,186,187,188,189,190,191,192,193,194,195,196,197,198,199,200,201,202,203,204,205,206,207,208,209,210,211,212,213,214,215,216,217,218,219,220,221,222,223,224,225,226,227,228,229,230,231,232,233,234,235,236,237,238,239,240,241,242,243,244,245,246,247,248,249,250,251,252,253,254,255,256,257,258,259,260,261,262,263,264,265,266,267,268,269,270,271,272,273,274,275,276,277,278,279,280,281,282,283,284,285,286,287,288,289,290,291,292,293,294,295,296,297,298,299,300],"tree_info":[0,0,0,0,0,0,0,0,0,0,0,0,0,0,0,0,0,0,0,0,0,0,0,0,0,0,0,0,0,0,0,0,0,0,0,0,0,0,0,0,0,0,0,0,0,0,0,0,0,0,0,0,0,0,0,0,0,0,0,0,0,0,0,0,0,0,0,0,0,0,0,0,0,0,0,0,0,0,0,0,0,0,0,0,0,0,0,0,0,0,0,0,0,0,0,0,0,0,0,0,0,0,0,0,0,0,0,0,0,0,0,0,0,0,0,0,0,0,0,0,0,0,0,0,0,0,0,0,0,0,0,0,0,0,0,0,0,0,0,0,0,0,0,0,0,0,0,0,0,0,0,0,0,0,0,0,0,0,0,0,0,0,0,0,0,0,0,0,0,0,0,0,0,0,0,0,0,0,0,0,0,0,0,0,0,0,0,0,0,0,0,0,0,0,0,0,0,0,0,0,0,0,0,0,0,0,0,0,0,0,0,0,0,0,0,0,0,0,0,0,0,0,0,0,0,0,0,0,0,0,0,0,0,0,0,0,0,0,0,0,0,0,0,0,0,0,0,0,0,0,0,0,0,0,0,0,0,0,0,0,0,0,0,0,0,0,0,0,0,0,0,0,0,0,0,0,0,0,0,0,0,0,0,0,0,0,0,0,0,0,0,0,0,0,0,0,0,0,0,0],"trees":[{"base_weights":[-6.618287E-3,1.5834644E0,-9.528514E-1,-1.5196269E0,1.7011455E0,-1.237301E0,4.6584132E-1,-1.7988439E0,2.1549086E-1,1.2177609E0,1.8604164E0,-2.7518573E-1,-1.5952876E0,1.1856643E0,-4.3479538E-1,5.11148E-2,-1.8591931E0,1.4320427E0,-3.690811E-1,1.0740921E0,1.6411726E0,1.7373686E0,1.9847888E-1,-5.88951E-1,3.6568055E-1,-1.7645079E0,-1.1371835E0,1.466896E0,6.77295E-1,-9.102545E-1,4.8221314E-1,8.984171E-1,-1.5E-1,-1.8753952E0,1.0869954E-1,1.6338524E-1,1.19457856E-1,1.5625267E-1,-6.532723E-1,6.960434E-1,1.2890352E0,1.6763558E0,7.5147456E-1,1.9906978E-1,1.6892768E0,-1.20982796E-1,-1.0392103E0,7.0517606E-1,-3.5831984E-2,-1.7952619E0,-6.6526514E-1,-4.4455186E-1,-1.4586092E0,1.2433285E0,1.702204E0,2.9465422E-1,1.4253584E0,-1.017999E0,4.355039E-1,1.0313007E0,7.100418E-2,-1E-1,1.3612548E-1,-1.9221161E-1,-8.627871E-2,-1E-1,1.0869954E-1,-1.1783337E-1,3.565916E-2,1.4739017E-1,5.222261E-2,1.9672965E-1,1.223644E-1,1.8001126E-1,1.4108041E-1,-1.3333334E-1,1.0107126E-1,1.7396232E-1,1.4907993E-1,-3.9318454E-2,2.918574E-2,-1.270451E-1,-6.825158E-2,4.9413767E-2,8.876567E-2,-3.2273374E-2,3.9730757E-2,-1.5670323E-1,-1.8974158E-1,-1.8283278E-1,-3.2634088E-3,-7.19939E-2,1.4414762E-2,1.3859043E-1,-1.481723E-1,1.522324E-1,9.769364E-2,1.7103887E-1,-1E-1,8.0332905E-3,1.0333544E-1,1.1081266E-1,1.6839163E-1,1.7259572E-1,-1.0740433E-1,-9.646563E-2,7.551527E-2,6.7063086E-2,1.1669125E-1,-4.648375E-2,8.306174E-2],"categories":[],"categories_nodes":[],"categories_segments":[],"categories_sizes":[],"default_left":[0,0,0,0,0,0,0,0,0,0,0,0,0,0,0,0,0,0,0,0,0,0,0,0,0,0,0,0,0,0,0,0,0,0,0,0,0,0,0,0,0,0,0,0,0,0,0,0,0,0,0,0,0,0,0,0,0,0,0,0,0,0,0,0,0,0,0,0,0,0,0,0,0,0,0,0,0,0,0,0,0,0,0,0,0,0,0,0,0,0,0,0,0,0,0,0,0,0,0,0,0,0,0,0,0,0,0,0,0,0,0],"id":0,"left_children":[1,3,5,7,9,11,13,15,17,19,21,23,25,27,29,31,33,35,37,39,41,43,-1,45,47,49,51,53,55,57,59,61,-1,63,-1,-1,65,-1,67,69,71,73,75,-1,77,79,81,83,85,87,89,91,93,95,97,99,101,103,105,107,109,-1,-1,-1,-1,-1,-1,-1,-1,-1,-1,-1,-1,-1,-1,-1,-1,-1,-1,-1,-1,-1,-1,-1,-1,-1,-1,-1,-1,-1,-1,-1,-1,-1,-1,-1,-1,-1,-1,-1,-1,-1,-1,-1,-1,-1,-1,-1,-1,-1,-1],"loss_changes":[3.760539E4,3.4076738E3,6.3238516E3,1.6570447E2,6.8942773E2,4.495174E3,1.6975817E3,3.2922424E1,3.480124E1,1.3385986E2,9.993945E1,7.12207E2,7.354258E2,2.0705212E2,5.077457E2,1.4834959E1,1.5632019E1,4.0023727E0,1.932605E1,1.3460645E2,1.6361694E1,3.81084E1,0E0,5.0081152E2,1.5874646E2,2.3358203E2,5.712571E2,4.7125366E1,1.4846646E2,1.1159888E2,8.977928E1,7.742317E0,0E0,1.1757996E1,0E0,0E0,4.5427566E0,0E0,1.6207855E1,8.124783E1,4.4691895E1,1.5230591E1,1.3901134E1,0E0,2.6061035E1,1.3124742E2,9.906018E1,2.3860474E1,6.654044E1,1.5452344E2,1.4018193E2,1.323439E2,1.17385254E2,3.446222E1,1.1736572E1,5.4597973E1,1.2550446E1,1.1105084E2,2.6475002E1,7.548538E0,9.344036E1,0E0,0E0,0E0,0E0,0E0,0E0,0E0,0E0,0E0,0E0,0E0,0E0,0E0,0E0,0E0,0E0,0E0,0E0,0E0,0E0,0E0,0E0,0E0,0E0,0E0,0E0,0E0,0E0,0E0,0E0,0E0,0E0,0E0,0E0,0E0,0E0,0E0,0E0,0E0,0E0,0E0,0E0,0E0,0E0,0E0,0E0,0E0,0E0,0E0,0E0],"parents":[2147483647,0,0,1,1,2,2,3,3,4,4,5,5,6,6,7,7,8,8,9,9,10,10,11,11,12,12,13,13,14,14,15,15,16,16,17,17,18,18,19,19,20,20,21,21,23,23,24,24,25,25,26,26,27,27,28,28,29,29,30,30,31,31,33,33,36,36,38,38,39,39,40,40,41,41,42,42,44,44,45,45,46,46,47,47,48,48,49,49,50,50,51,51,52,52,53,53,54,54,55,55,56,56,57,57,58,58,59,59,60,60],"right_children":[2,4,6,8,10,12,14,16,18,20,22,24,26,28,30,32,34,36,38,40,42,44,-1,46,48,50,52,54,56,58,60,62,-1,64,-1,-1,66,-1,68,70,72,74,76,-1,78,80,82,84,86,88,90,92,94,96,98,100,102,104,106,108,110,-1,-1,-1,-1,-1,-1,-1,-1,-1,-1,-1,-1,-1,-1,-1,-1,-1,-1,-1,-1,-1,-1,-1,-1,-1,-1,-1,-1,-1,-1,-1,-1,-1,-1,-1,-1,-1,-1,-1,-1,-1,-1,-1,-1,-1,-1,-1,-1,-1,-1],"split_conditions":[1E0,1E-1,8E0,8E0,5.25E-1,1E1,2.26E1,4.5E0,8.021006E-1,1.7E1,8.5714287E-1,3E0,4E0,1.3E1,1.6E1,2.55672E-1,1.0208334E0,9.302326E-1,1.0333333E1,3.75E-1,1.480672E0,6.666667E-1,1.9847888E-1,5E0,6E0,3.030303E0,2.1E1,1.3E1,1.6E1,8.865371E1,3.6E1,5.4980698E1,-1.5E-1,6E0,1.0869954E-1,1.6338524E-1,6.741999E-1,1.5625267E-1,1.2909944E0,6.5384614E-1,4.6153846E-1,9.285714E-1,1.9E1,1.9906978E-1,1.5644746E0,1.03625E2,9.0329346E1,8.728616E1,5E0,2.1E1,4.002278E-2,8.802864E1,4E0,6.5E0,1.8559215E0,9.708738E-1,2.2E1,8E0,9E0,1.9E1,2.6E1,-1E-1,1.3612548E-1,-1.9221161E-1,-8.627871E-2,-1E-1,1.0869954E-1,-1.1783337E-1,3.565916E-2,1.4739017E-1,5.222261E-2,1.9672965E-1,1.223644E-1,1.8001126E-1,1.4108041E-1,-1.3333334E-1,1.0107126E-1,1.7396232E-1,1.4907993E-1,-3.9318454E-2,2.918574E-2,-1.270451E-1,-6.825158E-2,4.9413767E-2,8.876567E-2,-3.2273374E-2,3.9730757E-2,-1.5670323E-1,-1.8974158E-1,-1.8283278E-1,-3.2634088E-3,-7.19939E-2,1.4414762E-2,1.3859043E-1,-1.481723E-1,1.522324E-1,9.769364E-2,1.7103887E-1,-1E-1,8.0332905E-3,1.0333544E-1,1.1081266E-1,1.6839163E-1,1.7259572E-1,-1.0740433E-1,-9.646563E-2,7.551527E-2,6.7063086E-2,1.1669125E-1,-4.648375E-2,8.306174E-2],"split_indices":[1,5,0,0,5,14,14,14,7,0,5,0,0,14,0,7,8,1,14,5,7,1,0,14,14,12,14,0,0,11,14,11,0,0,0,0,3,0,3,1,1,1,0,0,3,11,11,11,0,14,10,11,4,14,3,12,0,4,0,0,0,0,0,0,0,0,0,0,0,0,0,0,0,0,0,0,0,0,0,0,0,0,0,0,0,0,0,0,0,0,0,0,0,0,0,0,0,0,0,0,0,0,0,0,0,0,0,0,0,0,0],"split_type":[0,0,0,0,0,0,0,0,0,0,0,0,0,0,0,0,0,0,0,0,0,0,0,0,0,0,0,0,0,0,0,0,0,0,0,0,0,0,0,0,0,0,0,0,0,0,0,0,0,0,0,0,0,0,0,0,0,0,0,0,0,0,0,0,0,0,0,0,0,0,0,0,0,0,0,0,0,0,0,0,0,0,0,0,0,0,0,0,0,0,0,0,0,0,0,0,0,0,0,0,0,0,0,0,0,0,0,0,0,0,0],"sum_hessian":[2.4991795E4,9.323534E3,1.5668261E4,3.4022937E2,8.983305E3,1.305154E4,2.6167214E3,2.9303683E2,4.7192524E1,2.2284973E3,6.7548076E3,3.5398098E3,9.5117295E3,1.454174E3,1.1625475E3,9.262278E0,2.8377457E2,1.4846262E1,3.2346264E1,1.6665525E3,5.6194476E2,3.4030105E3,3.3517969E3,2.376411E3,1.163399E3,6.943865E3,2.5678647E3,9.350277E2,5.1914624E2,7.655996E2,3.9694785E2,6.262277E0,3E0,2.8258398E2,1.1905693E0,1.2655693E1,2.1905694E0,3.5717077E0,2.8774555E1,6.0561523E2,1.0609373E3,5.397174E2,2.22274E1,5.3650616E2,2.8665044E3,1.1659119E3,1.2104989E3,6.299738E2,5.3342523E2,6.754265E3,1.8960017E2,8.146914E2,1.7531733E3,4.826973E2,4.5233038E2,3.443845E2,1.7476173E2,7.090731E2,5.652651E1,1.6933148E2,2.2761636E2,1E0,5.262277E0,2.6926227E2,1.3321708E1,1E0,1.1905693E0,1.8821709E1,9.952847E0,1.09245544E2,4.9636972E2,9.073327E1,9.7020404E2,3.6420566E2,1.7551173E2,2E0,2.02274E1,2.2803096E3,5.8619476E2,7.026649E2,4.6324695E2,7.3284375E2,4.7765515E2,2.9384766E2,3.3612613E2,3.2103433E2,2.1239091E2,2.0934583E3,4.660807E3,6.613114E1,1.2346903E2,5.5489484E2,2.597966E2,1.3655693E1,1.7395176E3,2.3346849E2,2.492288E2,4.5133038E2,1E0,2.677966E2,7.65879E1,8.0850174E1,9.391156E1,1.3596262E1,6.9547687E2,1.0131139E1,4.639537E1,4.789537E1,1.2143611E2,1.3369447E2,9.392188E1],"tree_param":{"num_deleted":"0","num_feature":"16","num_nodes":"111","size_leaf_vector":"1"}},{"base_weights":[-5.61213E-4,1.4359456E0,-8.48808E-1,-1.4261895E0,1.5432657E0,-1.108505E0,4.3374035E-1,-1.673743E0,-1.1427289E-1,1.1121917E0,1.6874572E0,-1.3055159E0,-4.2054582E-1,1.1850982E0,5.229159E-2,-1.7181724E0,1.14918515E-1,8.924404E-1,-9.409037E-1,9.754886E-1,1.5135326E0,1.5600139E0,1.7951546E0,-1.4605826E0,-8.8424134E-1,-7.218031E-1,1.9642118E-1,1.0311627E0,1.6052439E0,-4.5135683E-1,6.759752E-1,-1.733477E-1,7.079125E-2,-1.331349E-1,1.0439439E0,-1.3175833E-1,1.1681839E0,9.455733E-1,-1.3120927E0,6.946875E-1,1.2279949E0,1.6949984E0,1.3417035E0,1.8097E-1,1.5118134E0,1.7300594E-1,1.8181619E-1,-1.5022341E0,-4.5947888E-1,-4.437227E-1,-1.2553743E0,-1.0065163E0,2.5963268E-1,-1.3529626E-1,4.8699927E-1,1.3687226E0,7.4564004E-1,1.7142028E-1,1.4188331E0,-7.9089403E-1,1.3926592E-1,9.337845E-1,1.786056E-1,1.21151745E-1,4.2917103E-2,4.198815E-2,1.3993514E-1,1.838709E-2,1.3836831E-1,-1.4708804E-1,1.0678013E-1,1.3486315E-1,5.402366E-2,1.7834666E-1,1.1753239E-1,9.130329E-2,1.7326348E-1,1.594042E-1,1.1518607E-1,1.4600435E-1,1.7030078E-1,-1.413018E-1,-1.726127E-1,-1.9680928E-2,-1.1373623E-1,1.41418455E-2,-6.711709E-2,-1.2903057E-1,2.9456694E-2,-1.1309121E-1,1.9444106E-2,-3.2360684E-2,7.158684E-2,5.252241E-2,-3.546938E-2,-4.560564E-2,5.6337107E-2,1.5956286E-1,1.1991856E-1,7.937827E-2,-1.6135266E-2,1.1425751E-1,1.5914734E-1,-9.132224E-2,3.226849E-2,-1.5111838E-3,8.2579784E-2,1.0432642E-1,1.6487464E-2,-1.8286055E-2,7.43904E-2],"categories":[],"categories_nodes":[],"categories_segments":[],"categories_sizes":[],"default_left":[0,0,0,0,0,0,0,0,0,0,0,0,0,0,0,0,0,0,0,0,0,0,0,0,0,0,0,0,0,0,0,0,0,0,0,0,0,0,0,0,0,0,0,0,0,0,0,0,0,0,0,0,0,0,0,0,0,0,0,0,0,0,0,0,0,0,0,0,0,0,0,0,0,0,0,0,0,0,0,0,0,0,0,0,0,0,0,0,0,0,0,0,0,0,0,0,0,0,0,0,0,0,0,0,0,0,0,0,0,0,0],"id":1,"left_children":[1,3,5,7,9,11,13,15,17,19,21,23,25,27,29,31,33,35,37,39,41,43,45,47,49,51,53,55,57,59,61,-1,-1,-1,63,-1,65,67,69,71,73,75,77,-1,79,-1,-1,81,83,85,87,89,91,93,95,97,99,-1,101,103,105,107,109,-1,-1,-1,-1,-1,-1,-1,-1,-1,-1,-1,-1,-1,-1,-1,-1,-1,-1,-1,-1,-1,-1,-1,-1,-1,-1,-1,-1,-1,-1,-1,-1,-1,-1,-1,-1,-1,-1,-1,-1,-1,-1,-1,-1,-1,-1,-1,-1],"loss_changes":[3.0418832E4,2.8490605E3,5.2283115E3,1.0876404E2,5.534199E2,1.7685977E3,7.57635E2,2.262024E1,4.6051094E1,1.2154028E2,8.905664E1,6.615488E2,5.405129E2,5.591638E1,5.5143555E2,1.1451965E1,1.1837905E1,1.677989E1,2.2471561E1,1.17933716E2,1.5432617E1,3.4246094E1,2.2783203E0,3.0850293E2,4.4618848E2,5.4617377E2,9.2083374E1,6.2038574E1,2.3793945E0,1.9488853E2,1.0039618E2,0E0,0E0,0E0,2.5559425E-2,0E0,3.350422E0,1.6030326E0,1.130275E1,7.962076E1,2.3673706E1,6.4345703E0,1.2366455E1,0E0,2.3067871E1,0E0,0E0,1.3975293E2,5.2771847E1,1.6659193E2,8.0646484E1,2.264873E2,1.17342636E2,6.489832E1,3.692318E1,9.574036E0,1.5701309E1,0E0,2.6262207E0,8.432761E1,3.7679276E1,4.328894E1,5.5097103E1,0E0,0E0,0E0,0E0,0E0,0E0,0E0,0E0,0E0,0E0,0E0,0E0,0E0,0E0,0E0,0E0,0E0,0E0,0E0,0E0,0E0,0E0,0E0,0E0,0E0,0E0,0E0,0E0,0E0,0E0,0E0,0E0,0E0,0E0,0E0,0E0,0E0,0E0,0E0,0E0,0E0,0E0,0E0,0E0,0E0,0E0,0E0,0E0],"parents":[2147483647,0,0,1,1,2,2,3,3,4,4,5,5,6,6,7,7,8,8,9,9,10,10,11,11,12,12,13,13,14,14,15,15,16,16,17,17,18,18,19,19,20,20,21,21,22,22,23,23,24,24,25,25,26,26,27,27,28,28,29,29,30,30,34,34,36,36,37,37,38,38,39,39,40,40,41,41,42,42,44,44,47,47,48,48,49,49,50,50,51,51,52,52,53,53,54,54,55,55,56,56,58,58,59,59,60,60,61,61,62,62],"right_children":[2,4,6,8,10,12,14,16,18,20,22,24,26,28,30,32,34,36,38,40,42,44,46,48,50,52,54,56,58,60,62,-1,-1,-1,64,-1,66,68,70,72,74,76,78,-1,80,-1,-1,82,84,86,88,90,92,94,96,98,100,-1,102,104,106,108,110,-1,-1,-1,-1,-1,-1,-1,-1,-1,-1,-1,-1,-1,-1,-1,-1,-1,-1,-1,-1,-1,-1,-1,-1,-1,-1,-1,-1,-1,-1,-1,-1,-1,-1,-1,-1,-1,-1,-1,-1,-1,-1,-1,-1,-1,-1,-1,-1],"split_conditions":[1E0,1E-1,8E0,6E0,5.25E-1,9.0935E1,1.0388294E1,1.0710429E2,4.788179E-1,1.7E1,8.235294E-1,4E0,3E0,1.7E1,1.4E1,1.0208334E0,3.913E-1,-3.5933334E-2,6.554713E1,4.1666666E-1,8.8E-1,6.666667E-1,9.285714E-1,3.030303E0,1.5599874E1,1.18175E2,9.665E1,4.549725E0,3.1140983E-1,8.189166E1,3.5169907E1,-1.733477E-1,7.079125E-2,-1.331349E-1,1.196975E2,-1.3175833E-1,2.054E-1,7.420022E-1,5.5E1,6.5384614E-1,4.6153846E-1,2E-1,3.69328E-1,1.8097E-1,2.4E1,1.7300594E-1,1.8181619E-1,7.8065E-1,7.707E-1,5.1234756E0,2.7777777E0,3.8461537E0,6.137091E-1,4.2426405E0,1.4886428E-1,1.7320508E0,5.072965E-1,1.7142028E-1,2.2E1,1.0893416E0,1.1494253E0,6.321143E-1,2.5E1,1.21151745E-1,4.2917103E-2,4.198815E-2,1.3993514E-1,1.838709E-2,1.3836831E-1,-1.4708804E-1,1.0678013E-1,1.3486315E-1,5.402366E-2,1.7834666E-1,1.1753239E-1,9.130329E-2,1.7326348E-1,1.594042E-1,1.1518607E-1,1.4600435E-1,1.7030078E-1,-1.413018E-1,-1.726127E-1,-1.9680928E-2,-1.1373623E-1,1.41418455E-2,-6.711709E-2,-1.2903057E-1,2.9456694E-2,-1.1309121E-1,1.9444106E-2,-3.2360684E-2,7.158684E-2,5.252241E-2,-3.546938E-2,-4.560564E-2,5.6337107E-2,1.5956286E-1,1.1991856E-1,7.937827E-2,-1.6135266E-2,1.1425751E-1,1.5914734E-1,-9.132224E-2,3.226849E-2,-1.5111838E-3,8.2579784E-2,1.0432642E-1,1.6487464E-2,-1.8286055E-2,7.43904E-2],"split_indices":[1,5,0,0,5,11,15,11,10,0,5,0,0,0,0,8,9,9,11,5,1,1,5,12,15,11,11,15,10,11,15,0,0,0,11,0,9,10,0,1,1,5,7,0,0,0,0,9,9,15,12,12,9,15,9,15,10,0,0,12,12,9,0,0,0,0,0,0,0,0,0,0,0,0,0,0,0,0,0,0,0,0,0,0,0,0,0,0,0,0,0,0,0,0,0,0,0,0,0,0,0,0,0,0,0,0,0,0,0,0,0],"split_type":[0,0,0,0,0,0,0,0,0,0,0,0,0,0,0,0,0,0,0,0,0,0,0,0,0,0,0,0,0,0,0,0,0,0,0,0,0,0,0,0,0,0,0,0,0,0,0,0,0,0,0,0,0,0,0,0,0,0,0,0,0,0,0,0,0,0,0,0,0,0,0,0,0,0,0,0,0,0,0,0,0,0,0,0,0,0,0,0,0,0,0,0,0,0,0,0,0,0,0,0,0,0,0,0,0,0,0,0,0,0,0],"sum_hessian":[2.4961912E4,9.267202E3,1.5694709E4,3.3448486E2,8.932718E3,1.3052008E4,2.642702E3,2.81156E2,5.3328842E1,2.2411892E3,6.691528E3,1.0145688E4,2.9063186E3,8.891648E2,1.7535372E3,2.7437994E2,6.7760506E0,2.400938E1,2.9319462E1,1.6743197E3,5.668695E2,3.0718955E3,3.6196326E3,7.4141504E3,2.7315383E3,1.9526797E3,9.53639E2,6.5327026E2,2.3589452E2,9.7027734E2,7.832599E2,2.7294363E2,1.4363223E0,2.4808726E0,4.295178E0,2.2442133E0,2.1765167E1,4.566077E0,2.4753386E1,7.945202E2,8.7979956E2,2.713923E2,2.954772E2,4.9114484E2,2.5807507E3,9.651397E2,2.6544927E3,7.117521E3,2.966294E2,1.2500176E3,1.4815208E3,1.5135695E3,4.3911014E2,4.4554694E2,5.0809204E2,2.9761758E2,3.556527E2,1.4370303E2,9.219148E1,6.158808E2,3.5439658E2,5.1528613E2,2.6797372E2,2.612416E0,1.6827617E0,5.8015523E0,1.5963614E1,2.1856952E0,2.3803818E0,2.3563194E1,1.1901909E0,1.5032281E2,6.441974E2,7.3353264E1,8.064463E2,1.3622296E1,2.5777002E2,1.2368234E2,1.7179488E2,2.0376501E3,5.431006E2,5.0947056E3,2.0228156E3,2.1471925E2,8.191016E1,3.499926E2,9.0002496E2,1.449031E3,3.2489746E1,1.3715609E3,1.4200862E2,1.9285727E2,2.4625287E2,1.107445E2,3.3480243E2,3.769195E1,4.704001E2,1.23677605E2,1.7393997E2,3.3784494E2,1.7807774E1,3.838548E1,5.3806004E1,5.5508386E2,6.079693E1,2.901334E2,6.426318E1,4.5075018E2,6.4535965E1,1.6386853E2,1.0410519E2],"tree_param":{"num_deleted":"0","num_feature":"16","num_nodes":"111","size_leaf_vector":"1"}},{"base_weights":[-1.4806469E-3,1.3154677E0,-7.7135587E-1,-1.2762337E0,1.4108733E0,-2.6388604E-2,-1.1703172E0,-1.5354303E0,4.4813547E-1,9.939044E-1,1.5520394E0,-4.9484065E-1,8.09882E-1,-1.3667619E0,2.6808681E-2,-1.5766602E0,3.0018726E-1,-1.483989E-1,1.1580604E0,6.769265E-1,1.1721832E0,1.4059951E0,1.6427993E0,-4.152205E-2,-9.149803E-1,4.1312116E-1,1.2472813E0,-1.6408943E0,-1.1325736E0,4.7510126E-1,-5.6122965E-1,-1.5908579E0,6.682761E-2,-1.1498622E-2,9.942528E-2,1.1093311E0,-5.733473E-1,1.3375812E0,2.7342057E-3,5.147876E-1,1.3137866E0,1.0763339E0,1.4534543E0,1.6724911E-1,1.3528674E0,1.5609335E0,1.6788182E-1,-4.1013625E-1,1.0814487E-1,-1.1900858E0,-3.326248E-1,7.6541334E-1,1.8161602E-1,1.0272515E0,1.3913383E0,-1.6649634E0,-1.2638683E0,-5.323137E-1,-1.3641118E0,-5.1727584E-3,9.334906E-1,-9.8653483E-1,1.0828138E-1,8.84314E-3,-1.6061501E-1,-1.0953774E-1,5.197571E-2,1.284375E-1,3.7817225E-2,-1.3028494E-1,6.363216E-2,3.5273854E-2,1.4207444E-1,1.2418485E-1,-1.0818585E-1,1.1270791E-1,3.9316338E-2,1.5038556E-1,1.0502559E-1,1.21476255E-1,8.248909E-2,1.6500358E-1,1.2447804E-1,1.3101067E-1,1.5906797E-1,1.6888197E-1,1.5222098E-1,-6.4745866E-2,1.9265963E-3,1.6497856E-2,-1.1140561E-1,-1.0509952E-1,-1.4451526E-1,-6.364232E-2,-1.592513E-4,-3.748981E-2,7.99767E-2,-1.7586058E-3,6.571564E-2,1.2301686E-1,7.206921E-2,1.5335077E-1,1.2515347E-1,-1.5028751E-1,-1.6775706E-1,-1.3087747E-1,8.990858E-2,-6.6857606E-2,2.2184884E-2,-1.377914E-1,1.5750618E-1,-3.1603295E-2,4.1864496E-2,6.884744E-2,1.20452516E-1,-1.0737623E-1,5.3982604E-2,-2.5950303E-2,6.13499E-2],"categories":[],"categories_nodes":[],"categories_segments":[],"categories_sizes":[],"default_left":[0,0,0,0,0,0,0,0,0,0,0,0,0,0,0,0,0,0,0,0,0,0,0,0,0,0,0,0,0,0,0,0,0,0,0,0,0,0,0,0,0,0,0,0,0,0,0,0,0,0,0,0,0,0,0,0,0,0,0,0,0,0,0,0,0,0,0,0,0,0,0,0,0,0,0,0,0,0,0,0,0,0,0,0,0,0,0,0,0,0,0,0,0,0,0,0,0,0,0,0,0,0,0,0,0,0,0,0,0,0,0,0,0,0,0,0,0,0,0],"id":2,"left_children":[1,3,5,7,9,11,13,15,17,19,21,23,25,27,29,31,33,35,37,39,41,43,45,47,49,51,53,55,57,59,61,63,-1,65,-1,67,69,71,73,75,77,79,81,-1,83,85,-1,87,89,91,93,95,97,99,101,103,105,107,109,111,113,115,117,-1,-1,-1,-1,-1,-1,-1,-1,-1,-1,-1,-1,-1,-1,-1,-1,-1,-1,-1,-1,-1,-1,-1,-1,-1,-1,-1,-1,-1,-1,-1,-1,-1,-1,-1,-1,-1,-1,-1,-1,-1,-1,-1,-1,-1,-1,-1,-1,-1,-1,-1,-1,-1,-1,-1,-1],"loss_changes":[2.4910969E4,2.2430752E3,4.6083936E3,1.447644E2,5.1308594E2,2.119301E3,2.3747012E3,2.1698853E1,1.8338394E1,1.2432617E2,8.424512E1,6.603546E2,3.3656787E2,5.550176E2,3.7575775E2,9.810913E0,1.5259697E0,1.3568255E1,4.082302E0,8.1867615E1,3.6602783E1,3.326953E1,9.236328E0,9.2116234E1,2.8790247E2,8.304878E1,2.7838745E1,3.4140625E1,6.498794E2,1.780598E2,1.756876E2,7.1533813E0,0E0,3.92056E0,0E0,3.3995962E-1,1.7370655E1,8.951988E-1,6.2508974E0,4.7128693E1,6.51355E0,3.5884644E1,1.2589294E1,0E0,1.9247559E1,3.5844727E0,0E0,4.914627E1,8.268753E1,4.1826538E1,5.8201042E1,1.6132614E1,5.8442436E1,2.2078033E1,9.115845E0,5.145508E0,2.4860077E1,1.3422324E2,1.3918555E2,5.2298786E1,2.6651886E1,5.0797638E1,4.4835842E1,0E0,0E0,0E0,0E0,0E0,0E0,0E0,0E0,0E0,0E0,0E0,0E0,0E0,0E0,0E0,0E0,0E0,0E0,0E0,0E0,0E0,0E0,0E0,0E0,0E0,0E0,0E0,0E0,0E0,0E0,0E0,0E0,0E0,0E0,0E0,0E0,0E0,0E0,0E0,0E0,0E0,0E0,0E0,0E0,0E0,0E0,0E0,0E0,0E0,0E0,0E0,0E0,0E0,0E0,0E0,0E0],"parents":[2147483647,0,0,1,1,2,2,3,3,4,4,5,5,6,6,7,7,8,8,9,9,10,10,11,11,12,12,13,13,14,14,15,15,16,16,17,17,18,18,19,19,20,20,21,21,22,22,23,23,24,24,25,25,26,26,27,27,28,28,29,29,30,30,31,31,33,33,35,35,36,36,37,37,38,38,39,39,40,40,41,41,42,42,44,44,45,45,47,47,48,48,49,49,50,50,51,51,52,52,53,53,54,54,55,55,56,56,57,57,58,58,59,59,60,60,61,61,62,62],"right_children":[2,4,6,8,10,12,14,16,18,20,22,24,26,28,30,32,34,36,38,40,42,44,46,48,50,52,54,56,58,60,62,64,-1,66,-1,68,70,72,74,76,78,80,82,-1,84,86,-1,88,90,92,94,96,98,100,102,104,106,108,110,112,114,116,118,-1,-1,-1,-1,-1,-1,-1,-1,-1,-1,-1,-1,-1,-1,-1,-1,-1,-1,-1,-1,-1,-1,-1,-1,-1,-1,-1,-1,-1,-1,-1,-1,-1,-1,-1,-1,-1,-1,-1,-1,-1,-1,-1,-1,-1,-1,-1,-1,-1,-1,-1,-1,-1,-1,-1,-1],"split_conditions":[1E0,1E-1,1.3E1,8E0,5.25E-1,4E0,9E0,1.0710429E2,7.757835E1,3.6363637E-1,7.777778E-1,5.75E0,8E0,9.535023E0,3.5E1,1.0208334E0,1.2122E2,4.1572428E-1,2.230672E0,2.2E1,1.7E1,6.666667E-1,9E-1,6.87888E1,3.6968455E0,6E0,1.1E1,4E0,2.45E1,1.4E1,1.6E1,2.5E0,6.682761E-2,2.5E0,9.942528E-2,2.8092965E-2,1.2909944E0,3.5355338E-1,3.809524E-1,6.5384614E-1,1.294786E0,7.8571427E-1,8.888889E-1,1.6724911E-1,3.1E1,8E-1,1.6788182E-1,2E0,2.230672E0,9.666667E0,3E0,1.7445E1,9.019819E0,8E0,6.5E0,1.4333333E1,1.0208334E0,2.2627417E1,1.0208334E0,8.300923E1,2E1,8.7945E1,2.6E1,8.84314E-3,-1.6061501E-1,-1.0953774E-1,5.197571E-2,1.284375E-1,3.7817225E-2,-1.3028494E-1,6.363216E-2,3.5273854E-2,1.4207444E-1,1.2418485E-1,-1.0818585E-1,1.1270791E-1,3.9316338E-2,1.5038556E-1,1.0502559E-1,1.21476255E-1,8.248909E-2,1.6500358E-1,1.2447804E-1,1.3101067E-1,1.5906797E-1,1.6888197E-1,1.5222098E-1,-6.4745866E-2,1.9265963E-3,1.6497856E-2,-1.1140561E-1,-1.0509952E-1,-1.4451526E-1,-6.364232E-2,-1.592513E-4,-3.748981E-2,7.99767E-2,-1.7586058E-3,6.571564E-2,1.2301686E-1,7.206921E-2,1.5335077E-1,1.2515347E-1,-1.5028751E-1,-1.6775706E-1,-1.3087747E-1,8.990858E-2,-6.6857606E-2,2.2184884E-2,-1.377914E-1,1.5750618E-1,-3.1603295E-2,4.1864496E-2,6.884744E-2,1.20452516E-1,-1.0737623E-1,5.3982604E-2,-2.5950303E-2,6.13499E-2],"split_indices":[1,5,14,0,5,0,0,11,11,5,5,14,0,15,14,8,11,10,7,0,0,1,5,11,15,14,0,0,14,0,0,14,0,14,0,12,3,3,1,1,3,1,1,0,0,1,0,0,7,14,0,11,15,14,14,14,8,15,8,11,0,11,0,0,0,0,0,0,0,0,0,0,0,0,0,0,0,0,0,0,0,0,0,0,0,0,0,0,0,0,0,0,0,0,0,0,0,0,0,0,0,0,0,0,0,0,0,0,0,0,0,0,0,0,0,0,0,0,0],"split_type":[0,0,0,0,0,0,0,0,0,0,0,0,0,0,0,0,0,0,0,0,0,0,0,0,0,0,0,0,0,0,0,0,0,0,0,0,0,0,0,0,0,0,0,0,0,0,0,0,0,0,0,0,0,0,0,0,0,0,0,0,0,0,0,0,0,0,0,0,0,0,0,0,0,0,0,0,0,0,0,0,0,0,0,0,0,0,0,0,0,0,0,0,0,0,0,0,0,0,0,0,0,0,0,0,0,0,0,0,0,0,0,0,0,0,0,0,0,0,0],"sum_hessian":[2.4567797E4,9.063341E3,1.5504456E4,3.2135406E2,8.741987E3,5.4077705E3,1.0096686E4,2.7945734E2,4.1896736E1,2.2130984E3,6.5288887E3,3.466408E3,1.9413625E3,8.673284E3,1.4234016E3,2.734563E2,6.001037E0,2.3196333E1,1.8700403E1,7.9838135E2,1.414717E3,2.5086465E3,4.020242E3,1.6678955E3,1.7985125E3,1.0189905E3,9.2237213E2,3.993099E3,4.680185E3,8.077803E2,6.1562134E2,2.7202725E2,1.4290286E0,4.819958E0,1.1810788E0,5.4513454E0,1.7744987E1,1.6048891E1,2.6515126E0,6.378092E2,1.6057217E2,1.058751E3,3.5596606E2,4.1192047E2,2.096726E3,1.2419032E3,2.7783389E3,4.811449E2,1.1867506E3,1.2207738E3,5.777387E2,4.0316666E2,6.158238E2,3.6816904E2,5.5420306E2,3.7502686E3,2.4283055E2,1.303688E3,3.3764973E3,3.9495636E2,4.128239E2,3.761803E2,2.3944109E2,2.411665E0,2.696156E2,1.2361255E0,3.583833E0,3.787876E0,1.6634696E0,1.10214E1,6.723587E0,1.6578369E0,1.4391054E1,1.1699218E0,1.4815909E0,1.0432751E2,5.334817E2,9.055422E1,7.001795E1,6.803575E2,3.7839343E2,1.7973715E2,1.7622891E2,1.7826915E3,3.1403464E2,2.787407E2,9.631625E2,3.0955307E2,1.7159184E2,1.1348441E3,5.1906467E1,7.932997E2,4.2747406E2,3.007806E2,2.7695807E2,1.1500892E1,3.9166577E2,4.346948E2,1.8112901E2,2.1971982E2,1.4844922E2,2.6983414E2,2.8436893E2,2.793202E2,3.4709482E3,2.3827843E2,4.5521193E0,1.1042798E3,1.9940816E2,3.3612441E3,1.5253093E1,2.2798738E2,1.6696898E2,2.186782E2,1.9414569E2,3.561252E2,2.0055079E1,1.3884912E2,1.00591965E2],"tree_param":{"num_deleted":"0","num_feature":"16","num_nodes":"119","size_leaf_vector":"1"}},{"base_weights":[5.0916243E-3,1.226166E0,-7.023829E-1,-1.2816801E0,1.3190513E0,-1.5466568E-2,-1.0804728E0,-1.4446356E0,2.0995128E-1,9.649207E-1,1.4648911E0,-3.235344E-1,9.8596966E-1,-1.2843467E0,-7.605376E-2,-1.4824364E0,2.1239004E-1,1.0069426E0,-3.6305892E-1,1.1037397E0,6.5829843E-1,1.363394E0,1.5685494E0,1.5645872E-1,-6.188914E-1,7.4855924E-1,1.27486E0,-1.5369297E0,-1.0608405E0,4.3234506E-1,-4.873866E-1,-1.4955314E0,6.317167E-2,-1.2221169E-1,1.0873178E0,6.873893E-3,1.1780152E0,-8.417859E-1,1.1699666E0,1.0257959E0,1.4512774E0,4.801783E-1,8.9372796E-1,1.5712404E-1,1.3242155E0,1.5701354E-1,1.1641895E0,-7.11292E-1,3.3959252E-1,-9.367454E-1,-1.2886906E-1,1.0640812E0,5.240501E-1,1.2912266E0,2.122162E-1,-1.5433623E0,4.4398177E-1,-4.9970376E-1,-1.2662412E0,1.0916508E-2,9.090877E-1,-7.9343677E-1,1.7292926E-1,-1.2163433E-1,-1.592207E-1,1.3267611E-1,3.7684992E-2,3.3075612E-2,1.286515E-1,-1.5938644E-1,4.1261137E-2,1.3838862E-1,4.609496E-2,1.5368484E-1,9.746503E-2,1.5395908E-1,1.24872126E-1,-1.634789E-2,5.9031792E-2,9.151384E-2,-8.440121E-2,1.3696404E-1,1.1139399E-1,-4.000225E-3,1.3266675E-1,-8.307296E-2,4.84063E-3,-7.3934174E-3,4.5507114E-2,-3.970873E-2,-1.0676439E-1,-5.548195E-2,1.0958659E-2,2.0888498E-2,1.0982827E-1,3.9888103E-2,1.1709043E-1,1.4140147E-1,1.1617501E-1,-1.5810052E-1,9.345066E-2,-1.2701392E-1,-1.5715371E-1,8.475938E-2,-1.13410406E-1,-7.164544E-2,1.0723552E-2,-1.3194557E-1,-6.286381E-2,-1.582898E-2,7.540392E-2,6.5428115E-2,1.3158655E-1,-9.680521E-2,-3.2124557E-2,-4.285973E-2,4.0424924E-2],"categories":[],"categories_nodes":[],"categories_segments":[],"categories_sizes":[],"default_left":[0,0,0,0,0,0,0,0,0,0,0,0,0,0,0,0,0,0,0,0,0,0,0,0,0,0,0,0,0,0,0,0,0,0,0,0,0,0,0,0,0,0,0,0,0,0,0,0,0,0,0,0,0,0,0,0,0,0,0,0,0,0,0,0,0,0,0,0,0,0,0,0,0,0,0,0,0,0,0,0,0,0,0,0,0,0,0,0,0,0,0,0,0,0,0,0,0,0,0,0,0,0,0,0,0,0,0,0,0,0,0,0,0,0,0,0,0],"id":3,"left_children":[1,3,5,7,9,11,13,15,17,19,21,23,25,27,29,31,33,35,37,39,41,43,45,47,49,51,53,55,57,59,61,63,-1,-1,65,-1,67,69,71,73,75,77,79,-1,81,-1,83,85,87,89,91,93,95,97,99,101,103,105,107,109,111,113,115,-1,-1,-1,-1,-1,-1,-1,-1,-1,-1,-1,-1,-1,-1,-1,-1,-1,-1,-1,-1,-1,-1,-1,-1,-1,-1,-1,-1,-1,-1,-1,-1,-1,-1,-1,-1,-1,-1,-1,-1,-1,-1,-1,-1,-1,-1,-1,-1,-1,-1,-1,-1,-1,-1],"loss_changes":[2.079985E4,2.059171E3,3.9592788E3,7.710431E1,4.384873E2,1.6703052E3,2.0133789E3,1.8164612E1,1.4975554E1,1.05153564E2,6.1316406E1,5.8707385E2,8.64032E1,4.597959E2,3.4737524E2,8.661743E0,1.0403872E1,2.1091537E0,1.5182783E1,4.4854004E1,3.2183044E1,2.2795898E1,8.0566406E-2,2.5100917E2,3.991372E2,4.9139557E1,9.693848E0,4.9551758E1,4.9953857E2,1.4926521E2,1.8568147E2,5.548462E0,0E0,0E0,3.540764E-1,0E0,6.297293E-1,1.5114168E1,1.2380886E-1,3.51167E1,3.640625E0,3.1635788E1,1.319162E1,0E0,2.3087402E1,0E0,3.0855503E0,2.5021423E1,6.2289276E1,1.0939819E2,1.0261618E2,8.273041E0,3.2880577E1,7.3276978E0,1.4287317E1,2.7430664E1,9.362126E0,1.532698E2,1.0693408E2,4.9835182E1,3.5271484E1,5.143033E1,4.0747154E1,0E0,0E0,0E0,0E0,0E0,0E0,0E0,0E0,0E0,0E0,0E0,0E0,0E0,0E0,0E0,0E0,0E0,0E0,0E0,0E0,0E0,0E0,0E0,0E0,0E0,0E0,0E0,0E0,0E0,0E0,0E0,0E0,0E0,0E0,0E0,0E0,0E0,0E0,0E0,0E0,0E0,0E0,0E0,0E0,0E0,0E0,0E0,0E0,0E0,0E0,0E0,0E0,0E0,0E0],"parents":[2147483647,0,0,1,1,2,2,3,3,4,4,5,5,6,6,7,7,8,8,9,9,10,10,11,11,12,12,13,13,14,14,15,15,16,16,17,17,18,18,19,19,20,20,21,21,22,22,23,23,24,24,25,25,26,26,27,27,28,28,29,29,30,30,31,31,34,34,36,36,37,37,38,38,39,39,40,40,41,41,42,42,44,44,46,46,47,47,48,48,49,49,50,50,51,51,52,52,53,53,54,54,55,55,56,56,57,57,58,58,59,59,60,60,61,61,62,62],"right_children":[2,4,6,8,10,12,14,16,18,20,22,24,26,28,30,32,34,36,38,40,42,44,46,48,50,52,54,56,58,60,62,64,-1,-1,66,-1,68,70,72,74,76,78,80,-1,82,-1,84,86,88,90,92,94,96,98,100,102,104,106,108,110,112,114,116,-1,-1,-1,-1,-1,-1,-1,-1,-1,-1,-1,-1,-1,-1,-1,-1,-1,-1,-1,-1,-1,-1,-1,-1,-1,-1,-1,-1,-1,-1,-1,-1,-1,-1,-1,-1,-1,-1,-1,-1,-1,-1,-1,-1,-1,-1,-1,-1,-1,-1,-1,-1,-1,-1],"split_conditions":[1E0,1E-1,1.3E1,1.1E1,5.7575756E-1,6E0,8E0,1.0710429E2,1.030672E0,8.30672E-1,8.666667E-1,5E0,1.1E1,9.535023E0,2.9E1,1.0208334E0,3.913E-1,2.732E-1,7.420022E-1,2.7E1,3.6363637E-1,6.666667E-1,1.4078859E0,2.0025E-1,3.6968455E0,5.75E0,4.8468816E-1,1.0208334E0,2.4E1,1.3E1,1.6E1,3E1,6.317167E-2,-1.2221169E-1,5.953E-1,6.873893E-3,3.0151135E-1,1.3451854E0,5E-1,5E-1,9.3333334E-1,1.4125E-2,1.1040853E-1,1.5712404E-1,1.5782614E0,1.5701354E-1,2.867219E-1,8.9871705E-1,4.786325E-2,6E0,4.0093787E-2,3.08E-2,1.1870832E1,6.5E0,1.4E1,1.5E1,4.2E1,4.9250748E-2,5.063101E-2,2.404163E1,2.2E1,8.189166E1,7.375411E1,-1.2163433E-1,-1.592207E-1,1.3267611E-1,3.7684992E-2,3.3075612E-2,1.286515E-1,-1.5938644E-1,4.1261137E-2,1.3838862E-1,4.609496E-2,1.5368484E-1,9.746503E-2,1.5395908E-1,1.24872126E-1,-1.634789E-2,5.9031792E-2,9.151384E-2,-8.440121E-2,1.3696404E-1,1.1139399E-1,-4.000225E-3,1.3266675E-1,-8.307296E-2,4.84063E-3,-7.3934174E-3,4.5507114E-2,-3.970873E-2,-1.0676439E-1,-5.548195E-2,1.0958659E-2,2.0888498E-2,1.0982827E-1,3.9888103E-2,1.1709043E-1,1.4140147E-1,1.1617501E-1,-1.5810052E-1,9.345066E-2,-1.2701392E-1,-1.5715371E-1,8.475938E-2,-1.13410406E-1,-7.164544E-2,1.0723552E-2,-1.3194557E-1,-6.286381E-2,-1.582898E-2,7.540392E-2,6.5428115E-2,1.3158655E-1,-9.680521E-2,-3.2124557E-2,-4.285973E-2,4.0424924E-2],"split_indices":[1,5,14,0,5,0,0,11,7,7,5,14,0,15,14,8,9,9,10,0,5,1,3,9,15,14,10,8,14,0,0,14,0,0,9,0,3,3,1,1,1,9,13,0,3,0,10,3,13,14,13,9,15,14,0,14,14,13,13,15,0,11,11,0,0,0,0,0,0,0,0,0,0,0,0,0,0,0,0,0,0,0,0,0,0,0,0,0,0,0,0,0,0,0,0,0,0,0,0,0,0,0,0,0,0,0,0,0,0,0,0,0,0,0,0,0,0],"split_type":[0,0,0,0,0,0,0,0,0,0,0,0,0,0,0,0,0,0,0,0,0,0,0,0,0,0,0,0,0,0,0,0,0,0,0,0,0,0,0,0,0,0,0,0,0,0,0,0,0,0,0,0,0,0,0,0,0,0,0,0,0,0,0,0,0,0,0,0,0,0,0,0,0,0,0,0,0,0,0,0,0,0,0,0,0,0,0,0,0,0,0,0,0,0,0,0,0,0,0,0,0,0,0,0,0,0,0,0,0,0,0,0,0,0,0,0,0],"sum_hessian":[2.4075277E4,8.831576E3,1.52437E4,3.149633E2,8.516612E3,5.4120654E3,9.831635E3,2.839719E2,3.0991417E1,2.4864895E3,6.030123E3,4.1393657E3,1.2726997E3,8.172523E3,1.659112E3,2.777413E2,6.230592E0,1.2645581E1,1.8345837E1,1.7098007E3,7.766889E2,3.0539768E3,2.9761462E3,1.5770033E3,2.5623625E3,7.0056555E2,5.721341E2,3.8339377E3,4.3385854E3,7.419841E2,9.171279E2,2.7632236E2,1.4189376E0,2.2101207E0,4.0204716E0,2.1663897E0,1.0479192E1,1.4323768E1,4.022069E0,1.3998107E3,3.099901E2,4.4389133E2,3.3279755E2,4.7816278E2,2.575814E3,2.9616472E3,1.4499159E1,2.74316E2,1.3026873E3,1.5536638E3,1.00869867E3,2.896941E2,4.1087146E2,5.632441E2,8.890053E0,3.821748E3,1.2189533E1,1.1634832E3,3.1751023E3,3.943826E2,3.4760147E2,6.265338E2,2.9059412E2,7.456589E1,2.0175647E2,2.3582447E0,1.6622267E0,1.6492083E0,8.829984E0,8.785667E0,5.5381E0,2.3586082E0,1.6634607E0,1.2470431E2,1.2751063E3,2.1127466E2,9.871545E1,6.478757E1,3.7910376E2,3.2921472E2,3.5828314E0,2.11369E3,4.6212408E2,1.8133644E0,1.2685795E1,2.3696722E2,3.734879E1,2.8444724E2,1.01824005E3,3.0407608E2,1.2495878E3,3.6154623E2,6.471524E2,1.1413385E1,2.782807E2,3.4561093E2,6.526055E1,2.8399695E2,2.792471E2,2.2112737E0,6.678779E0,3.6156516E2,3.460183E3,1.0075513E1,2.1140206E0,8.571843E2,3.062988E2,2.9295337E3,2.4556859E2,3.2187894E2,7.250366E1,2.1532799E2,1.3227348E2,4.5662482E2,1.6990901E2,8.047455E1,2.1011957E2],"tree_param":{"num_deleted":"0","num_feature":"16","num_nodes":"117","size_leaf_vector":"1"}},{"base_weights":[3.1062013E-3,-4.895159E-1,6.629868E-1,-1.2978767E0,-3.1169292E-1,4.0614256E-1,1.0848716E0,-3.2191515E-1,-1.4082953E0,2.7535093E-1,-3.9884388E-1,-7.9037465E-2,5.060612E-1,9.449914E-1,1.3173566E0,-9.8460287E-1,2.4147858E-1,-1.4232085E0,1.4229949E0,-5.4683477E-1,3.760234E-1,-5.7390255E-1,-1.3016538E-1,6.5755403E-1,-1.6419654E-1,4.0720072E-1,8.2891333E-1,1.184999E0,8.4951913E-1,1.3223196E0,-6.562039E-1,-7.09063E-1,-1.169653E0,6.96558E-3,6.9922155E-1,-1.0243433E0,-1.4817784E0,-1.0302991E-1,1.788673E-1,-6.4099264E-1,5.254804E-1,1.008309E-1,5.157083E-1,-6.93637E-1,-4.2952147E-1,-6.100418E-1,-3.3264462E-2,6.8846285E-1,-1.1409608E-1,-8.6797535E-1,-9.282959E-2,2.499451E-1,5.8956385E-1,1.075559E0,7.147935E-1,1.1913104E0,-1.24401785E-1,2.9659525E-1,9.0293556E-1,1.2314371E0,1.4413824E0,7.9770185E-2,-1.4067861E-1,-1.412376E-1,-2.6262892E-2,-1.6616645E-1,-9.692741E-2,1.3868508E-1,-9.82999E-3,9.838278E-2,-5.32415E-2,-7.90595E-2,-1.3730691E-1,-1.4839584E-1,6.108411E-2,-4.3859083E-2,-1.1252413E-1,1.4522952E-1,-1.9680237E-2,-1.857093E-2,4.344969E-2,3.718284E-2,6.9440536E-2,-7.513309E-2,-2.3656286E-2,-4.7884088E-2,2.744838E-2,-6.696227E-2,3.7794046E-2,-8.51425E-3,5.8290202E-2,1.3743238E-1,5.7594087E-2,3.633544E-2,-1.0051098E-1,-6.5770107E-3,-1.7410278E-1,2.1614319E-2,7.768002E-2,5.5902924E-2,1.08783476E-1,9.618466E-2,1.2652536E-1,-6.2432855E-2,7.387815E-2,1.0671928E-1,1.3072592E-1,1.0704905E-2,8.5332036E-2,8.564853E-2,1.16434395E-1,1.4110361E-1,1.1531837E-1,1.454391E-1,1.0960475E-1],"categories":[],"categories_nodes":[],"categories_segments":[],"categories_sizes":[],"default_left":[0,0,0,0,0,0,0,0,0,0,0,0,0,0,0,0,0,0,0,0,0,0,0,0,0,0,0,0,0,0,0,0,0,0,0,0,0,0,0,0,0,0,0,0,0,0,0,0,0,0,0,0,0,0,0,0,0,0,0,0,0,0,0,0,0,0,0,0,0,0,0,0,0,0,0,0,0,0,0,0,0,0,0,0,0,0,0,0,0,0,0,0,0,0,0,0,0,0,0,0,0,0,0,0,0,0,0,0,0,0,0,0,0,0,0],"id":4,"left_children":[1,3,5,7,9,11,13,15,17,19,21,23,25,27,29,31,33,35,37,39,41,43,45,47,49,51,53,55,57,59,61,63,65,67,69,71,73,-1,-1,75,77,79,81,83,85,87,89,91,-1,93,95,97,99,101,103,105,-1,107,109,111,113,-1,-1,-1,-1,-1,-1,-1,-1,-1,-1,-1,-1,-1,-1,-1,-1,-1,-1,-1,-1,-1,-1,-1,-1,-1,-1,-1,-1,-1,-1,-1,-1,-1,-1,-1,-1,-1,-1,-1,-1,-1,-1,-1,-1,-1,-1,-1,-1,-1,-1,-1,-1,-1,-1],"loss_changes":[7.6303804E3,1.9314902E3,1.0867417E3,2.6066553E2,5.6378955E2,3.0245068E2,1.2220654E2,9.2670334E1,9.3924805E1,1.1813922E2,4.511676E2,6.69847E1,1.6476685E2,5.33833E1,1.4811279E1,4.981262E0,1.4445564E1,4.9072754E1,1.2522247E1,1.6071175E1,4.8766083E1,1.0011926E2,1.7603818E2,6.938549E0,4.7959183E1,1.1347888E2,3.3336914E1,1.179895E1,4.99917E1,1.3593018E1,5.748294E0,1.4802128E1,4.9588013E0,1.3212378E1,1.6505527E1,2.1780792E1,9.510254E0,0E0,0E0,1.3591698E1,9.074442E0,4.1080547E1,2.1394043E1,8.351514E1,9.165451E1,3.7693115E1,1.0077716E2,7.654415E0,0E0,1.5214699E1,3.8665607E1,3.775203E1,2.7293701E1,7.008148E0,2.7167603E1,8.272095E0,0E0,1.5885299E1,1.7839233E1,9.789307E0,1.1414795E0,0E0,0E0,0E0,0E0,0E0,0E0,0E0,0E0,0E0,0E0,0E0,0E0,0E0,0E0,0E0,0E0,0E0,0E0,0E0,0E0,0E0,0E0,0E0,0E0,0E0,0E0,0E0,0E0,0E0,0E0,0E0,0E0,0E0,0E0,0E0,0E0,0E0,0E0,0E0,0E0,0E0,0E0,0E0,0E0,0E0,0E0,0E0,0E0,0E0,0E0,0E0,0E0,0E0,0E0],"parents":[2147483647,0,0,1,1,2,2,3,3,4,4,5,5,6,6,7,7,8,8,9,9,10,10,11,11,12,12,13,13,14,14,15,15,16,16,17,17,18,18,19,19,20,20,21,21,22,22,23,23,24,24,25,25,26,26,27,27,28,28,29,29,30,30,31,31,32,32,33,33,34,34,35,35,36,36,39,39,40,40,41,41,42,42,43,43,44,44,45,45,46,46,47,47,49,49,50,50,51,51,52,52,53,53,54,54,55,55,57,57,58,58,59,59,60,60],"right_children":[2,4,6,8,10,12,14,16,18,20,22,24,26,28,30,32,34,36,38,40,42,44,46,48,50,52,54,56,58,60,62,64,66,68,70,72,74,-1,-1,76,78,80,82,84,86,88,90,92,-1,94,96,98,100,102,104,106,-1,108,110,112,114,-1,-1,-1,-1,-1,-1,-1,-1,-1,-1,-1,-1,-1,-1,-1,-1,-1,-1,-1,-1,-1,-1,-1,-1,-1,-1,-1,-1,-1,-1,-1,-1,-1,-1,-1,-1,-1,-1,-1,-1,-1,-1,-1,-1,-1,-1,-1,-1,-1,-1,-1,-1,-1,-1],"split_conditions":[5E0,1E-1,1.3E1,5.75E0,5E0,4.1666666E-1,2.6E1,7.26E-2,1.0208334E0,1.4125E-2,3E0,1E1,4.8780486E-2,1.9E1,1.8973386E0,4.375E-2,5.852625E-1,1.1166667E1,1.8973386E0,6.5177226E0,5.940594E-2,8.944272E-1,3.6363637E-1,2.430672E0,1E-1,8E0,6E0,1.9023795E0,3.181818E-1,4.3E1,1.1126972E0,2.9443229E-2,5.7971016E-2,1.403E-1,4.5E0,2.6923078E-1,8.333333E0,-1.0302991E-1,1.788673E-1,9.415584E-2,8.333333E0,2E0,6.212E-1,7.5E1,7.1428575E-2,1.6025641E0,2.277328E0,8.6147696E-2,-1.1409608E-1,1.5428572E1,2.230672E0,1.27545456E2,1.38E2,9E0,3.9623225E0,8.5714287E-1,-1.24401785E-1,1.1737972E2,1.1614286E2,2.5E1,8.021006E-1,7.9770185E-2,-1.4067861E-1,-1.412376E-1,-2.6262892E-2,-1.6616645E-1,-9.692741E-2,1.3868508E-1,-9.82999E-3,9.838278E-2,-5.32415E-2,-7.90595E-2,-1.3730691E-1,-1.4839584E-1,6.108411E-2,-4.3859083E-2,-1.1252413E-1,1.4522952E-1,-1.9680237E-2,-1.857093E-2,4.344969E-2,3.718284E-2,6.9440536E-2,-7.513309E-2,-2.3656286E-2,-4.7884088E-2,2.744838E-2,-6.696227E-2,3.7794046E-2,-8.51425E-3,5.8290202E-2,1.3743238E-1,5.7594087E-2,3.633544E-2,-1.0051098E-1,-6.5770107E-3,-1.7410278E-1,2.1614319E-2,7.768002E-2,5.5902924E-2,1.08783476E-1,9.618466E-2,1.2652536E-1,-6.2432855E-2,7.387815E-2,1.0671928E-1,1.3072592E-1,1.0704905E-2,8.5332036E-2,8.564853E-2,1.16434395E-1,1.4110361E-1,1.1531837E-1,1.454391E-1,1.0960475E-1],"split_indices":[4,5,4,14,14,5,4,9,8,9,4,14,13,14,7,13,9,14,7,12,13,15,5,7,5,4,14,3,5,4,3,13,13,9,14,6,12,0,0,13,12,4,9,14,13,12,12,10,0,14,7,14,14,4,15,5,0,15,14,14,7,0,0,0,0,0,0,0,0,0,0,0,0,0,0,0,0,0,0,0,0,0,0,0,0,0,0,0,0,0,0,0,0,0,0,0,0,0,0,0,0,0,0,0,0,0,0,0,0,0,0,0,0,0,0],"split_type":[0,0,0,0,0,0,0,0,0,0,0,0,0,0,0,0,0,0,0,0,0,0,0,0,0,0,0,0,0,0,0,0,0,0,0,0,0,0,0,0,0,0,0,0,0,0,0,0,0,0,0,0,0,0,0,0,0,0,0,0,0,0,0,0,0,0,0,0,0,0,0,0,0,0,0,0,0,0,0,0,0,0,0,0,0,0,0,0,0,0,0,0,0,0,0,0,0,0,0,0,0,0,0,0,0,0,0,0,0,0,0,0,0,0,0],"sum_hessian":[2.3470912E4,1.3438728E4,1.0032185E4,2.4220583E3,1.1016669E4,6.2370312E3,3.795153E3,2.465735E2,2.1754849E3,1.4238097E3,9.592859E3,1.0651477E3,5.1718833E3,2.3726533E3,1.4224998E3,1.1295886E2,1.3361464E2,2.1645806E3,1.0904123E1,1.5483667E2,1.2689729E3,5.8076943E3,3.7851653E3,1.0968609E2,9.554617E2,3.9611897E3,1.2106937E3,6.7197217E2,1.7006812E3,1.4192605E3,3.2391653E0,4.7324463E1,6.56344E1,8.9021805E1,4.4592842E1,2.7952014E2,1.8850605E3,1.1787196E0,9.725404E0,1.4270801E2,1.21286745E1,4.278297E2,8.4114325E2,3.1727473E3,2.634947E3,6.350333E2,3.1501318E3,1.08439674E2,1.2464131E0,8.694078E1,8.685209E2,2.12829E3,1.8328997E3,3.8030994E2,8.303838E2,6.7073895E2,1.2332488E0,1.5040132E2,1.5502799E3,8.113139E2,6.0794666E2,1.0814939E0,2.1576715E0,1.7535429E1,2.9789034E1,1.6884216E1,4.875018E1,5.4468126E0,8.357499E1,3.6385983E1,8.20686E0,1.6930402E2,1.1021611E2,1.8833894E3,1.6711423E0,1.0198638E2,4.072162E1,4.869524E0,7.2591505E0,2.3040753E2,1.9742216E2,4.676723E2,3.7347098E2,2.8165825E3,3.5616476E2,2.4627385E3,1.7220854E2,5.9921924E2,3.581408E1,2.9062983E3,2.438335E2,1.3702761E1,9.4736916E1,8.547069E0,7.8393715E1,8.5551526E2,1.3005619E1,2.001301E3,1.2698908E2,1.7290627E3,1.0383688E2,2.4157088E2,1.3873906E2,1.4172631E1,8.162112E2,3.2888632E2,3.418526E2,1.1309019E2,3.731113E1,1.3200018E3,2.3027809E2,2.4105008E2,5.702638E2,5.8278204E2,2.5164616E1],"tree_param":{"num_deleted":"0","num_feature":"16","num_nodes":"115","size_leaf_vector":"1"}},{"base_weights":[-1.6253687E-3,1.1314703E0,-6.5633416E-1,-7.844673E-1,1.2198008E0,-9.474434E-1,-5.091929E-2,-1.2350588E0,3.156193E-1,8.9075273E-1,1.3658926E0,-1.141163E0,-2.957171E-1,-3.254829E-1,6.4387447E-1,-1.3014117E0,-5.4025626E-1,-9.847028E-3,1.1377757E0,8.0523306E-1,1.159284E0,1.2655406E0,1.4871267E0,-1.1811382E0,-4.388277E-1,-5.0142026E-1,4.4462046E-1,-5.535651E-1,1.06696375E-2,4.0874347E-1,9.290902E-1,-1.3269223E0,4.2939234E-1,3.0318156E-1,-1.4315243E0,9.220394E-1,-3.4536153E-1,2.9346803E-3,1.2190887E0,5.744132E-1,9.3895316E-1,1.2973793E0,7.490939E-1,1.1231087E0,1.3141794E0,1.5040731E-1,1.4211217E-1,-1.2065148E0,-6.9394034E-1,-7.004473E-1,4.953178E-2,5.3169125E-1,-5.963907E-1,2.1824561E-1,8.655212E-1,-7.535091E-1,-2.5199977E-1,-8.3766145E-1,1.1851271E-1,1.5959505E-2,6.19953E-1,9.75474E-1,-5.173999E-1,-1.3399288E-1,5.315383E-2,-9.840712E-4,8.716177E-2,-4.4764183E-2,1.15418114E-1,-1.7314301E-1,1.2981297E-2,-5.792809E-3,1.4351939E-1,-1.04917064E-1,1.696628E-2,1.2032389E-2,1.2922412E-1,1.0380478E-1,4.772412E-2,1.06698684E-1,6.767323E-2,-1.0413341E-2,1.3088416E-1,8.9098774E-2,-2.9305203E-4,1.4338745E-1,1.0547056E-1,1.4049967E-1,1.2679796E-1,-1.211886E-1,1.0570897E-1,-9.724282E-2,-1.3876167E-2,1.1761052E-2,-8.739579E-2,-2.0209437E-2,8.898079E-2,-1.0508771E-2,7.631115E-2,-6.8071105E-2,2.1209957E-2,1.7205846E-1,1.5015115E-2,6.1978787E-2,1.2403146E-1,-9.975048E-2,-4.7622845E-2,-6.617332E-2,-1.0477607E-2,-9.7977504E-2,8.057066E-2,-1.6679583E-2,3.17102E-2,-2.3399321E-2,4.0492848E-2,6.493892E-2,-1.6635036E-1,9.8548666E-2,-1.3193491E-1,-9.146295E-2,6.020347E-2],"categories":[],"categories_nodes":[],"categories_segments":[],"categories_sizes":[],"default_left":[0,0,0,0,0,0,0,0,0,0,0,0,0,0,0,0,0,0,0,0,0,0,0,0,0,0,0,0,0,0,0,0,0,0,0,0,0,0,0,0,0,0,0,0,0,0,0,0,0,0,0,0,0,0,0,0,0,0,0,0,0,0,0,0,0,0,0,0,0,0,0,0,0,0,0,0,0,0,0,0,0,0,0,0,0,0,0,0,0,0,0,0,0,0,0,0,0,0,0,0,0,0,0,0,0,0,0,0,0,0,0,0,0,0,0,0,0,0,0,0,0],"id":5,"left_children":[1,3,5,7,9,11,13,15,17,19,21,23,25,27,29,31,33,35,37,39,41,43,45,47,49,51,53,55,57,59,61,63,65,67,69,71,73,-1,75,77,79,81,83,85,87,-1,-1,89,91,93,95,97,99,101,103,105,107,109,111,113,115,117,119,-1,-1,-1,-1,-1,-1,-1,-1,-1,-1,-1,-1,-1,-1,-1,-1,-1,-1,-1,-1,-1,-1,-1,-1,-1,-1,-1,-1,-1,-1,-1,-1,-1,-1,-1,-1,-1,-1,-1,-1,-1,-1,-1,-1,-1,-1,-1,-1,-1,-1,-1,-1,-1,-1,-1,-1,-1,-1],"loss_changes":[1.7129982E4,1.4320312E3,2.5792275E3,1.8542049E2,3.8738184E2,1.2473789E3,9.0693976E2,1.15147705E1,2.9248224E1,5.6212402E1,6.62041E1,2.133623E2,3.4528284E2,2.6126035E2,8.992914E1,1.1219818E1,1.9086159E1,2.5102259E1,2.757843E0,5.7815186E1,3.294696E1,1.9782715E1,6.9140625E-1,8.82666E1,5.265238E1,1.743353E2,4.6803703E1,1.2221716E2,1.26204834E2,6.1372475E1,4.127881E1,6.463806E0,8.358479E-1,9.189426E0,5.9556675E0,1.0772564E1,2.1568115E1,0E0,2.1636047E0,3.0865128E1,3.941565E1,7.310791E0,1.6348373E1,1.5238953E1,7.79126E0,0E0,0E0,8.455176E1,5.5395874E1,3.8176865E1,3.0752611E1,2.2161861E1,1.10908264E2,3.2687374E1,1.5086304E1,8.207959E1,4.884435E1,3.7126373E1,6.9393326E1,2.5349905E1,3.34209E1,1.4837952E1,9.237466E0,0E0,0E0,0E0,0E0,0E0,0E0,0E0,0E0,0E0,0E0,0E0,0E0,0E0,0E0,0E0,0E0,0E0,0E0,0E0,0E0,0E0,0E0,0E0,0E0,0E0,0E0,0E0,0E0,0E0,0E0,0E0,0E0,0E0,0E0,0E0,0E0,0E0,0E0,0E0,0E0,0E0,0E0,0E0,0E0,0E0,0E0,0E0,0E0,0E0,0E0,0E0,0E0,0E0,0E0,0E0,0E0,0E0,0E0],"parents":[2147483647,0,0,1,1,2,2,3,3,4,4,5,5,6,6,7,7,8,8,9,9,10,10,11,11,12,12,13,13,14,14,15,15,16,16,17,17,18,18,19,19,20,20,21,21,22,22,23,23,24,24,25,25,26,26,27,27,28,28,29,29,30,30,31,31,32,32,33,33,34,34,35,35,36,36,38,38,39,39,40,40,41,41,42,42,43,43,44,44,47,47,48,48,49,49,50,50,51,51,52,52,53,53,54,54,55,55,56,56,57,57,58,58,59,59,60,60,61,61,62,62],"right_children":[2,4,6,8,10,12,14,16,18,20,22,24,26,28,30,32,34,36,38,40,42,44,46,48,50,52,54,56,58,60,62,64,66,68,70,72,74,-1,76,78,80,82,84,86,88,-1,-1,90,92,94,96,98,100,102,104,106,108,110,112,114,116,118,120,-1,-1,-1,-1,-1,-1,-1,-1,-1,-1,-1,-1,-1,-1,-1,-1,-1,-1,-1,-1,-1,-1,-1,-1,-1,-1,-1,-1,-1,-1,-1,-1,-1,-1,-1,-1,-1,-1,-1,-1,-1,-1,-1,-1,-1,-1,-1,-1,-1,-1,-1,-1,-1,-1,-1,-1,-1,-1],"split_conditions":[1E0,1.6666667E-1,4.318627E-2,8E0,4.1666665E0,6E0,6E0,6E0,3.4166667E0,1.8E1,9E-1,1.0024E2,1.6E1,9.099E1,1.1E1,1.18175E2,1.0716118E0,7E-1,3.1549E-1,4.2857143E-1,9.444444E-1,6.363636E-1,9E0,1.8867924E0,2E0,1.3965243E-2,2.7E1,3E0,4.5566667E-2,5.493973E-2,7.143E-1,1.0208334E0,6.597E-1,7.8545E1,4.95265E-1,2.75E0,3.0674847E-2,2.9346803E-3,9E0,6.5384614E-1,8.333333E-1,2E-1,5.106E-1,5E-1,8E-1,1.5040731E-1,1.4211217E-1,1.0208334E0,3E0,1.0104884E2,1.18175E2,4.266667E0,1.0893416E0,1.4E1,8.0306366E1,6.25E-2,4.9250748E-2,6.09319E0,6.696428E-2,4.785714E0,2.0412414E0,1.9748417E0,8.530696E1,-1.3399288E-1,5.315383E-2,-9.840712E-4,8.716177E-2,-4.4764183E-2,1.15418114E-1,-1.7314301E-1,1.2981297E-2,-5.792809E-3,1.4351939E-1,-1.04917064E-1,1.696628E-2,1.2032389E-2,1.2922412E-1,1.0380478E-1,4.772412E-2,1.06698684E-1,6.767323E-2,-1.0413341E-2,1.3088416E-1,8.9098774E-2,-2.9305203E-4,1.4338745E-1,1.0547056E-1,1.4049967E-1,1.2679796E-1,-1.211886E-1,1.0570897E-1,-9.724282E-2,-1.3876167E-2,1.1761052E-2,-8.739579E-2,-2.0209437E-2,8.898079E-2,-1.0508771E-2,7.631115E-2,-6.8071105E-2,2.1209957E-2,1.7205846E-1,1.5015115E-2,6.1978787E-2,1.2403146E-1,-9.975048E-2,-4.7622845E-2,-6.617332E-2,-1.0477607E-2,-9.7977504E-2,8.057066E-2,-1.6679583E-2,3.17102E-2,-2.3399321E-2,4.0492848E-2,6.493892E-2,-1.6635036E-1,9.8548666E-2,-1.3193491E-1,-9.146295E-2,6.020347E-2],"split_indices":[1,5,13,0,2,0,0,0,2,0,5,11,0,11,0,11,3,1,9,5,1,5,0,12,0,13,0,0,9,13,9,8,9,11,9,2,13,0,0,1,1,5,9,1,1,0,0,8,0,11,11,2,12,4,11,13,13,12,13,2,3,3,11,0,0,0,0,0,0,0,0,0,0,0,0,0,0,0,0,0,0,0,0,0,0,0,0,0,0,0,0,0,0,0,0,0,0,0,0,0,0,0,0,0,0,0,0,0,0,0,0,0,0,0,0,0,0,0,0,0,0],"split_type":[0,0,0,0,0,0,0,0,0,0,0,0,0,0,0,0,0,0,0,0,0,0,0,0,0,0,0,0,0,0,0,0,0,0,0,0,0,0,0,0,0,0,0,0,0,0,0,0,0,0,0,0,0,0,0,0,0,0,0,0,0,0,0,0,0,0,0,0,0,0,0,0,0,0,0,0,0,0,0,0,0,0,0,0,0,0,0,0,0,0,0,0,0,0,0,0,0,0,0,0,0,0,0,0,0,0,0,0,0,0,0,0,0,0,0,0,0,0,0,0,0],"sum_hessian":[2.3088965E4,8.455103E3,1.4633861E4,3.7227927E2,8.0828237E3,9.881736E3,4.752125E3,2.6401642E2,1.0826286E2,2.487416E3,5.5954077E3,7.6169253E3,2.2648113E3,3.4065E3,1.3456248E3,2.4020409E2,2.3812326E1,7.826728E1,2.9995579E1,1.8896229E3,5.97793E2,3.067617E3,2.5277908E3,7.206092E3,4.108337E2,1.7726127E3,4.921986E2,2.0290956E3,1.3774044E3,7.3890594E2,6.0671875E2,2.3694508E2,3.2590122E0,1.2573459E1,1.1238868E1,2.025664E1,5.8010643E1,2.1430607E0,2.7852518E1,6.950917E2,1.1945312E3,4.456103E2,1.5218272E2,7.870221E2,2.2805947E3,1.9940463E3,5.3374445E2,6.847926E3,3.5816586E2,2.6723737E2,1.4359633E2,1.4884482E2,1.6237678E3,3.2104703E2,1.711516E2,1.2192255E3,8.098701E2,1.545887E2,1.2228158E3,2.5876294E2,4.8014304E2,5.881834E2,1.8535336E1,2.3557541E2,1.3696676E0,2.125571E0,1.1334411E0,6.931706E0,5.6417522E0,9.336539E0,1.9023286E0,7.266661E0,1.2989979E1,2.4074451E1,3.393619E1,1.9036844E0,2.5948833E1,1.1876208E2,5.763296E2,8.0057056E2,3.939607E2,3.5492613E0,4.42061E2,1.27870926E2,2.4311796E1,1.3837975E2,6.4864233E2,7.590614E2,1.5215334E3,6.8321787E3,1.5746925E1,2.3801941E2,1.2014647E2,4.6819168E1,2.2041821E2,1.1108938E2,3.250695E1,3.9820396E1,1.0902442E2,1.4705564E3,1.5321144E2,1.2868443E1,3.081786E2,1.04977066E2,6.617453E1,6.471567E2,5.7206885E2,2.1315385E2,5.9671625E2,1.4265602E2,1.193267E1,5.0190323E2,7.2091254E2,1.5777478E2,1.0098816E2,4.7473874E2,5.404276E0,5.8619635E2,1.9870871E0,1.3815783E1,4.719554E0],"tree_param":{"num_deleted":"0","num_feature":"16","num_nodes":"121","size_leaf_vector":"1"}},{"base_weights":[-3.2228471E-3,1.0591663E0,-6.039029E-1,-9.616737E-1,1.1373212E0,-3.2747105E-2,-9.616704E-1,-1.2394824E0,-5.654272E-2,8.3064574E-1,1.302735E0,-3.149018E-1,6.752297E-1,-1.192524E0,-3.0751422E-1,2.0208495E-2,-1.2833073E0,9.4413567E-1,-3.2194287E-1,5.4850364E-1,9.421918E-1,1.1881517E0,1.4152675E0,4.812743E-2,-6.263318E-1,3.70493E-1,9.864387E-1,-1.3446833E0,-1.0034802E0,-6.173167E-1,2.1603203E-1,-1.1279986E-1,8.4438455E-1,-1.2965256E0,5.0449867E-2,1.1263256E0,-1.7805405E-2,-6.627021E-1,9.281543E-1,1.0718032E0,4.34746E-1,1.4102018E-1,8.923041E-1,1.399827E-1,1.154503E0,1.339237E-1,1.430428E-1,-1.5376964E-1,3.0905727E-1,-9.258929E-1,-1.9325003E-1,7.2487664E-1,1.4999445E-1,1.1308565E0,7.6240575E-1,-1.3508985E0,7.111213E-1,-5.1460797E-1,-1.1750802E0,-2.2562495E-1,-9.6703976E-1,5.9673125E-1,-2.973532E-1,2.2946702E-2,1.1554616E-1,-9.948357E-2,-1.349329E-1,1.298005E-1,-6.10126E-4,-1.0610811E-1,1.7762939E-2,1.101066E-1,-1.0199929E-2,-8.1086956E-2,1.1195739E-1,1.15325026E-1,3.5722088E-2,8.085251E-2,1.12780504E-1,1.00209855E-1,1.2109236E-1,-8.282741E-2,-1.0504524E-2,3.3811152E-2,-6.256782E-2,-7.465387E-2,-1.19679295E-1,-5.05117E-2,1.254372E-3,7.415875E-2,-1.3889767E-1,-8.351867E-2,2.0361848E-2,1.0408647E-1,1.2998712E-1,5.2200723E-2,1.1513554E-1,-1.196293E-1,-1.3942125E-1,1.4918946E-1,-9.220547E-3,-7.032061E-2,-2.167564E-3,-1.2902158E-1,-8.725151E-2,-4.034782E-2,5.692599E-2,-1.0120888E-1,1.5914534E-1,4.1134734E-2,8.4531024E-2,-5.175525E-2,4.4957843E-2],"categories":[],"categories_nodes":[],"categories_segments":[],"categories_sizes":[],"default_left":[0,0,0,0,0,0,0,0,0,0,0,0,0,0,0,0,0,0,0,0,0,0,0,0,0,0,0,0,0,0,0,0,0,0,0,0,0,0,0,0,0,0,0,0,0,0,0,0,0,0,0,0,0,0,0,0,0,0,0,0,0,0,0,0,0,0,0,0,0,0,0,0,0,0,0,0,0,0,0,0,0,0,0,0,0,0,0,0,0,0,0,0,0,0,0,0,0,0,0,0,0,0,0,0,0,0,0,0,0,0,0,0,0],"id":6,"left_children":[1,3,5,7,9,11,13,15,17,19,21,23,25,27,29,31,33,35,37,39,41,43,45,47,49,51,53,55,57,59,61,-1,63,65,-1,67,-1,69,71,73,75,-1,77,-1,79,-1,-1,81,83,85,87,89,91,93,95,97,99,101,103,105,107,109,111,-1,-1,-1,-1,-1,-1,-1,-1,-1,-1,-1,-1,-1,-1,-1,-1,-1,-1,-1,-1,-1,-1,-1,-1,-1,-1,-1,-1,-1,-1,-1,-1,-1,-1,-1,-1,-1,-1,-1,-1,-1,-1,-1,-1,-1,-1,-1,-1,-1,-1],"loss_changes":[1.4257613E4,1.2755996E3,2.91638E3,7.561984E1,3.9305664E2,1.0984658E3,1.3248418E3,1.2738251E1,1.9356365E1,8.524805E1,6.3376953E1,4.4455865E2,1.4824713E2,1.8521777E2,3.7162607E2,9.210419E0,5.913269E0,3.3271112E0,2.5086216E1,4.5640656E1,4.4307617E1,1.6234375E1,1.0126953E0,9.57401E1,2.7439117E2,6.188466E1,2.4202148E1,4.6838867E1,2.4237305E2,1.969267E2,1.6673773E2,0E0,8.1598616E-1,2.1812744E0,0E0,2.5922642E0,0E0,1.549581E1,2.378333E0,1.3285034E1,3.512027E1,0E0,3.393799E1,0E0,1.7430176E1,0E0,0E0,3.359082E1,2.1740181E1,5.9878784E1,5.562576E1,1.176973E1,2.607333E1,5.7800293E0,2.8077576E1,2.2307129E1,7.3365884E0,7.01087E1,7.353052E1,9.638637E1,8.9208984E1,2.2217636E1,6.0024857E1,0E0,0E0,0E0,0E0,0E0,0E0,0E0,0E0,0E0,0E0,0E0,0E0,0E0,0E0,0E0,0E0,0E0,0E0,0E0,0E0,0E0,0E0,0E0,0E0,0E0,0E0,0E0,0E0,0E0,0E0,0E0,0E0,0E0,0E0,0E0,0E0,0E0,0E0,0E0,0E0,0E0,0E0,0E0,0E0,0E0,0E0,0E0,0E0,0E0,0E0],"parents":[2147483647,0,0,1,1,2,2,3,3,4,4,5,5,6,6,7,7,8,8,9,9,10,10,11,11,12,12,13,13,14,14,15,15,16,16,17,17,18,18,19,19,20,20,21,21,22,22,23,23,24,24,25,25,26,26,27,27,28,28,29,29,30,30,32,32,33,33,35,35,37,37,38,38,39,39,40,40,42,42,44,44,47,47,48,48,49,49,50,50,51,51,52,52,53,53,54,54,55,55,56,56,57,57,58,58,59,59,60,60,61,61,62,62],"right_children":[2,4,6,8,10,12,14,16,18,20,22,24,26,28,30,32,34,36,38,40,42,44,46,48,50,52,54,56,58,60,62,-1,64,66,-1,68,-1,70,72,74,76,-1,78,-1,80,-1,-1,82,84,86,88,90,92,94,96,98,100,102,104,106,108,110,112,-1,-1,-1,-1,-1,-1,-1,-1,-1,-1,-1,-1,-1,-1,-1,-1,-1,-1,-1,-1,-1,-1,-1,-1,-1,-1,-1,-1,-1,-1,-1,-1,-1,-1,-1,-1,-1,-1,-1,-1,-1,-1,-1,-1,-1,-1,-1,-1,-1,-1],"split_conditions":[1E0,1.25E-1,1.4E1,6E0,6.1538464E-1,5E0,6E0,4.5E0,2.45E1,3.6363637E-1,8.8235295E-1,6E0,9E0,1.2701706E1,1.2E1,3.125E0,1.0208334E0,5.5555556E-2,3.5E0,6.666667E-1,5E-1,6.666667E-1,5E0,2E0,3.6968455E0,6E0,8.5E0,1.0208334E0,2.65E1,3.15E1,3.65E1,-1.1279986E-1,5.1159E-3,2.1E1,5.0449867E-2,3.5369127E0,-1.7805405E-2,1.0748023E2,9.302326E-1,1.1313708E1,1.3666667E1,1.4102018E-1,1.7E1,1.399827E-1,4.3076925E0,1.339237E-1,1.430428E-1,2.1666667E0,2.828427E0,9.666667E0,4.0093787E-2,2.1908903E0,3.535534E0,1.7E1,1.1313708E1,1.9E1,2.1666667E0,4.9250748E-2,3.448276E-2,2.5045515E1,1.0208334E0,1.9E1,2.7E1,2.2946702E-2,1.1554616E-1,-9.948357E-2,-1.349329E-1,1.298005E-1,-6.10126E-4,-1.0610811E-1,1.7762939E-2,1.101066E-1,-1.0199929E-2,-8.1086956E-2,1.1195739E-1,1.15325026E-1,3.5722088E-2,8.085251E-2,1.12780504E-1,1.00209855E-1,1.2109236E-1,-8.282741E-2,-1.0504524E-2,3.3811152E-2,-6.256782E-2,-7.465387E-2,-1.19679295E-1,-5.05117E-2,1.254372E-3,7.415875E-2,-1.3889767E-1,-8.351867E-2,2.0361848E-2,1.0408647E-1,1.2998712E-1,5.2200723E-2,1.1513554E-1,-1.196293E-1,-1.3942125E-1,1.4918946E-1,-9.220547E-3,-7.032061E-2,-2.167564E-3,-1.2902158E-1,-8.725151E-2,-4.034782E-2,5.692599E-2,-1.0120888E-1,1.5914534E-1,4.1134734E-2,8.4531024E-2,-5.175525E-2,4.4957843E-2],"split_indices":[1,5,14,0,5,0,0,14,14,5,5,14,0,15,0,2,8,13,2,1,1,1,2,0,15,14,14,8,14,14,14,0,13,14,0,2,0,15,1,15,14,0,0,0,2,0,0,2,3,14,13,3,15,0,15,14,2,13,13,15,8,0,0,0,0,0,0,0,0,0,0,0,0,0,0,0,0,0,0,0,0,0,0,0,0,0,0,0,0,0,0,0,0,0,0,0,0,0,0,0,0,0,0,0,0,0,0,0,0,0,0,0,0],"split_type":[0,0,0,0,0,0,0,0,0,0,0,0,0,0,0,0,0,0,0,0,0,0,0,0,0,0,0,0,0,0,0,0,0,0,0,0,0,0,0,0,0,0,0,0,0,0,0,0,0,0,0,0,0,0,0,0,0,0,0,0,0,0,0,0,0,0,0,0,0,0,0,0,0,0,0,0,0,0,0,0,0,0,0,0,0,0,0,0,0,0,0,0,0,0,0,0,0,0,0,0,0,0,0,0,0,0,0,0,0,0,0,0,0],"sum_hessian":[2.2339896E4,8.0686187E3,1.4271277E4,3.0001E2,7.768609E3,5.4968906E3,8.774387E3,2.2927121E2,7.0738815E1,2.724125E3,5.044484E3,3.930856E3,1.5660348E3,6.4849917E3,2.2893948E3,7.726342E0,2.2154486E2,1.4292444E1,5.644637E1,7.7351917E2,1.9506057E3,2.5051948E3,2.539289E3,1.8154542E3,2.1154019E3,7.92352E2,7.7368286E2,3.5896255E3,2.8953662E3,1.4381857E3,8.5120905E2,3.0744755E0,4.6518664E0,2.2019165E2,1.3532195E0,1.2292969E1,1.9994756E0,4.472487E1,1.1721501E1,1.3662146E2,6.368977E2,1.8526987E2,1.7653358E3,3.380442E2,2.1671506E3,4.3701028E2,2.1022788E3,1.0237376E3,7.9171655E2,1.2497893E3,8.656125E2,3.0303265E2,4.8931934E2,4.6796924E2,3.0571362E2,3.5791477E3,1.0477746E1,7.5329584E2,2.1420703E3,6.7916376E2,7.59022E2,4.8867288E2,3.625362E2,2.1464844E0,2.5053823E0,3.5753845E1,1.844378E2,1.0547691E1,1.7452773E0,3.016279E1,1.45620775E1,9.977875E0,1.7436274E0,2.9855366E0,1.3363593E2,6.0675953E1,5.7622174E2,1.3053816E3,4.5995422E2,5.9059216E2,1.5765583E3,6.789199E1,9.5584564E2,7.684686E2,2.3247921E1,7.542082E2,4.955811E2,3.4354224E2,5.2207025E2,3.0129996E2,1.732707E0,2.4506727E1,4.648126E2,3.1004453E2,1.579247E2,1.9038455E2,1.1532909E2,7.8954663E2,2.789601E3,4.8787866E0,5.5989594E0,5.445297E2,2.0876611E2,1.5492625E3,5.928078E2,5.5538934E2,1.2377438E2,7.464826E2,1.253937E1,2.8143823E2,2.0723466E2,2.8023004E2,8.230615E1],"tree_param":{"num_deleted":"0","num_feature":"16","num_nodes":"113","size_leaf_vector":"1"}},{"base_weights":[1.431581E-4,9.976402E-1,-5.525847E-1,5.1850176E-1,1.217687E0,-8.0840564E-1,-3.6301404E-2,-1.1714745E0,6.34983E-1,1.0745543E0,1.3353313E0,-9.7082335E-1,-1.3795163E-1,-2.4516921E-1,6.415366E-1,-1.2217568E0,7.77509E-1,-1.1877344E-1,7.43213E-1,1.0320512E0,1.2654942E0,1.2299619E0,1.3668102E-1,-1.0534977E0,-5.2878237E-1,-3.7617368E-1,3.2633492E-1,-1.2376912E0,-1.9123167E-1,7.525655E-1,6.864724E-2,-1.2586831E0,4.1420206E-1,1.0017518E-1,1.8158512E-2,-6.52953E-1,2.5273505E-1,1.2695467E0,7.0312834E-1,1.1093956E0,9.0093625E-1,1.3099313E0,1.0892637E0,-4.6565924E-3,1.2326058E0,-9.883397E-1,-1.3012869E0,-7.410724E-1,-1.4288874E-2,6.662306E-1,-4.728578E-1,1.2738326E-1,8.1045324E-1,-1.3391382E0,-6.113246E-1,-1.12472616E-1,-9.355514E-1,5.2916557E-1,9.902586E-1,-1.5970635E-1,6.8389547E-1,-1.2792827E-1,8.107998E-2,2.5379912E-3,7.8865E-2,-1.1069465E-1,-2.3594648E-2,4.0879644E-2,-6.527029E-2,1.2959279E-1,-4.436593E-2,6.2844E-2,9.4766185E-2,9.768679E-2,1.3218668E-1,9.7003266E-2,5.0705165E-2,1.3127427E-1,2.4201652E-2,7.4901946E-2,1.2162013E-1,1.3456616E-1,1.2066748E-1,-9.9576615E-2,1.2256979E-1,-1.3034476E-1,-2.6891638E-2,-8.65859E-2,3.461323E-3,2.2592189E-2,-3.3837285E-2,2.3910332E-2,1.007563E-1,-5.0540525E-2,1.6591822E-1,6.464157E-2,-1.0711509E-2,8.610442E-2,-6.422337E-2,-1.3674958E-1,1.3209473E-1,5.2046843E-2,-1.3898359E-1,-2.763393E-2,1.3109018E-2,-1.1871985E-1,-5.8995795E-2,5.7139315E-2,-7.180656E-2,8.586093E-2,1.1804638E-1,-3.976427E-2,5.942908E-2,7.523234E-2,-1.0692781E-1],"categories":[],"categories_nodes":[],"categories_segments":[],"categories_sizes":[],"default_left":[0,0,0,0,0,0,0,0,0,0,0,0,0,0,0,0,0,0,0,0,0,0,0,0,0,0,0,0,0,0,0,0,0,0,0,0,0,0,0,0,0,0,0,0,0,0,0,0,0,0,0,0,0,0,0,0,0,0,0,0,0,0,0,0,0,0,0,0,0,0,0,0,0,0,0,0,0,0,0,0,0,0,0,0,0,0,0,0,0,0,0,0,0,0,0,0,0,0,0,0,0,0,0,0,0,0,0,0,0,0,0,0,0,0,0],"id":7,"left_children":[1,3,5,7,9,11,13,15,17,19,21,23,25,27,29,31,33,35,37,39,41,43,-1,45,47,49,51,53,55,57,59,61,63,-1,-1,65,67,69,71,73,75,77,79,-1,81,83,85,87,89,91,93,95,97,99,101,103,105,107,109,111,113,-1,-1,-1,-1,-1,-1,-1,-1,-1,-1,-1,-1,-1,-1,-1,-1,-1,-1,-1,-1,-1,-1,-1,-1,-1,-1,-1,-1,-1,-1,-1,-1,-1,-1,-1,-1,-1,-1,-1,-1,-1,-1,-1,-1,-1,-1,-1,-1,-1,-1,-1,-1,-1,-1],"loss_changes":[1.1917145E4,8.119033E2,1.8368906E3,4.7853387E2,8.748193E1,1.01256006E3,6.527201E2,1.6321793E1,1.8537988E2,1.8068115E1,7.9189453E0,2.7302734E2,2.0083705E2,1.8842845E2,6.902548E1,9.782227E0,4.2693758E-1,5.693144E1,4.1013428E1,1.8857178E1,1.9424438E0,2.3380127E0,0E0,1.0052002E2,1.2903775E2,1.2123677E2,5.921897E1,1.0712158E1,1.9591092E2,4.7775818E1,2.503334E1,7.438797E0,5.821988E-1,0E0,0E0,2.20052E1,2.4208248E1,6.8719025E0,3.3154907E1,3.326587E1,1.9425354E1,6.9903564E-1,3.087349E0,0E0,3.5327148E-1,8.338086E1,2.571045E0,8.098816E1,2.7022709E1,1.466684E1,7.7070175E1,5.3343548E1,1.3723236E1,1.3523621E1,2.463113E1,1.2076611E2,2.7113556E1,2.5218857E1,9.99295E0,2.3593344E1,6.588051E0,0E0,0E0,0E0,0E0,0E0,0E0,0E0,0E0,0E0,0E0,0E0,0E0,0E0,0E0,0E0,0E0,0E0,0E0,0E0,0E0,0E0,0E0,0E0,0E0,0E0,0E0,0E0,0E0,0E0,0E0,0E0,0E0,0E0,0E0,0E0,0E0,0E0,0E0,0E0,0E0,0E0,0E0,0E0,0E0,0E0,0E0,0E0,0E0,0E0,0E0,0E0,0E0,0E0,0E0],"parents":[2147483647,0,0,1,1,2,2,3,3,4,4,5,5,6,6,7,7,8,8,9,9,10,10,11,11,12,12,13,13,14,14,15,15,16,16,17,17,18,18,19,19,20,20,21,21,23,23,24,24,25,25,26,26,27,27,28,28,29,29,30,30,31,31,32,32,35,35,36,36,37,37,38,38,39,39,40,40,41,41,42,42,44,44,45,45,46,46,47,47,48,48,49,49,50,50,51,51,52,52,53,53,54,54,55,55,56,56,57,57,58,58,59,59,60,60],"right_children":[2,4,6,8,10,12,14,16,18,20,22,24,26,28,30,32,34,36,38,40,42,44,-1,46,48,50,52,54,56,58,60,62,64,-1,-1,66,68,70,72,74,76,78,80,-1,82,84,86,88,90,92,94,96,98,100,102,104,106,108,110,112,114,-1,-1,-1,-1,-1,-1,-1,-1,-1,-1,-1,-1,-1,-1,-1,-1,-1,-1,-1,-1,-1,-1,-1,-1,-1,-1,-1,-1,-1,-1,-1,-1,-1,-1,-1,-1,-1,-1,-1,-1,-1,-1,-1,-1,-1,-1,-1,-1,-1,-1,-1,-1,-1,-1],"split_conditions":[1E0,4.05E0,4.318627E-2,5.9361684E-1,4.69328E-1,7E0,7E0,1E1,2.8666666E0,3.1E1,6.30672E-1,9.0935E1,1.4E1,2.1666667E0,4.5506957E-1,1.18175E2,8.5714287E-1,1.6761634E0,5E-1,8.7096775E-1,9.677419E-1,5.88E-2,1.3668102E-1,8.20825E-1,3E0,1.3661202E-2,8.290143E1,1.15384616E-1,8.07E-1,1.2E1,8.7465E1,1.0208334E0,6.597E-1,1.0017518E-1,1.8158512E-2,8E0,6.666667E-1,9.221625E1,1.7E1,8E0,5.265335E-1,4.695652E0,3.8E1,-4.6565924E-3,7.5E-1,1.0208334E0,1.0208334E0,1.1246E2,3.1812733E-1,8.354689E1,1.0208334E0,2.0231987E1,1.66333E0,1.0208334E0,1.5384616E-1,9.110541E1,5.882353E-2,7.6465E-1,1.9E1,1.7E1,6.414873E-1,-1.2792827E-1,8.107998E-2,2.5379912E-3,7.8865E-2,-1.1069465E-1,-2.3594648E-2,4.0879644E-2,-6.527029E-2,1.2959279E-1,-4.436593E-2,6.2844E-2,9.4766185E-2,9.768679E-2,1.3218668E-1,9.7003266E-2,5.0705165E-2,1.3127427E-1,2.4201652E-2,7.4901946E-2,1.2162013E-1,1.3456616E-1,1.2066748E-1,-9.9576615E-2,1.2256979E-1,-1.3034476E-1,-2.6891638E-2,-8.65859E-2,3.461323E-3,2.2592189E-2,-3.3837285E-2,2.3910332E-2,1.007563E-1,-5.0540525E-2,1.6591822E-1,6.464157E-2,-1.0711509E-2,8.610442E-2,-6.422337E-2,-1.3674958E-1,1.3209473E-1,5.2046843E-2,-1.3898359E-1,-2.763393E-2,1.3109018E-2,-1.1871985E-1,-5.8995795E-2,5.7139315E-2,-7.180656E-2,8.586093E-2,1.1804638E-1,-3.976427E-2,5.942908E-2,7.523234E-2,-1.0692781E-1],"split_indices":[1,2,13,3,7,0,0,0,2,0,7,11,0,2,10,11,1,3,1,1,1,9,0,9,0,13,11,13,9,0,11,8,9,0,0,0,6,11,0,0,10,2,0,0,1,8,8,11,10,11,8,15,3,8,13,11,13,9,0,0,10,0,0,0,0,0,0,0,0,0,0,0,0,0,0,0,0,0,0,0,0,0,0,0,0,0,0,0,0,0,0,0,0,0,0,0,0,0,0,0,0,0,0,0,0,0,0,0,0,0,0,0,0,0,0],"split_type":[0,0,0,0,0,0,0,0,0,0,0,0,0,0,0,0,0,0,0,0,0,0,0,0,0,0,0,0,0,0,0,0,0,0,0,0,0,0,0,0,0,0,0,0,0,0,0,0,0,0,0,0,0,0,0,0,0,0,0,0,0,0,0,0,0,0,0,0,0,0,0,0,0,0,0,0,0,0,0,0,0,0,0,0,0,0,0,0,0,0,0,0,0,0,0,0,0,0,0,0,0,0,0,0,0,0,0,0,0,0,0,0,0,0,0],"sum_hessian":[2.16127E4,7.7056533E3,1.3907045E4,2.426171E3,5.2794824E3,9.298852E3,4.6081934E3,1.5585669E2,2.2703142E3,2.386304E3,2.8931785E3,7.485129E3,1.8137228E3,3.5231995E3,1.0849941E3,1.5230058E2,3.5561123E0,2.850457E2,1.9852684E3,1.9570674E3,4.292366E2,6.747276E2,2.218451E3,6.3046045E3,1.1805244E3,1.1988113E3,6.1491156E2,1.8046466E2,3.3427346E3,9.085909E2,1.7640324E2,1.491643E2,3.1362708E0,2.0890195E0,1.4670928E0,1.1661349E2,1.6843219E2,1.3832417E2,1.8469443E3,1.2262461E3,7.308212E2,3.3766122E2,9.157538E1,1.3602599E0,6.733674E2,4.9958896E3,1.3087148E3,8.35387E2,3.4513742E2,1.0125333E2,1.0975579E3,4.3670703E2,1.7820453E2,1.5433109E2,2.6133574E1,3.0239148E3,3.188198E2,4.70041E2,4.3854987E2,1.2919286E2,4.7210396E1,1.4807224E2,1.0920722E0,2.062439E0,1.0738319E0,5.5038635E1,6.1574852E1,1.441372E2,2.4294992E1,1.3646632E2,1.8578393E0,1.4175493E3,4.2939505E2,7.586435E2,4.6760263E2,6.205073E2,1.1031392E2,3.36546E2,1.1152177E0,2.6756845E1,6.4818535E1,1.161357E2,5.572316E2,4.979737E3,1.6152874E1,1.3057195E3,2.9952862E0,7.195198E2,1.1586726E2,1.983922E2,1.4674524E2,4.5729748E1,5.552358E1,1.0818062E3,1.5751763E1,1.3535632E2,3.013507E2,1.7260085E2,5.603685E0,1.5318399E2,1.1470877E0,1.0785362E1,1.5348211E1,1.8076267E3,1.2162882E3,1.8307605E2,1.3574374E2,4.551721E2,1.4868904E1,2.6242685E2,1.76123E2,9.8562454E1,3.0630402E1,4.5986385E1,1.2240101E0],"tree_param":{"num_deleted":"0","num_feature":"16","num_nodes":"115","size_leaf_vector":"1"}},{"base_weights":[1.812418E-3,-4.5372143E-1,4.3198875E-1,-1.0681014E0,-3.0501944E-1,2.4467894E-1,8.577831E-1,-4.303052E-1,-1.2524536E0,9.210543E-2,-4.3844736E-1,5.789633E-1,1.424982E-1,7.3297256E-1,1.0941561E0,-1.7343017E-1,-9.7028244E-1,-1.2593148E0,8.7886786E-1,-5.7816617E-2,2.7961603E-1,-5.939013E-1,-2.5289935E-1,4.2237157E-1,7.833275E-1,-2.3233885E-1,2.3117319E-1,9.813767E-1,6.3663626E-1,9.9932265E-1,1.2070506E0,-2.628484E-1,1.136598E0,-9.95867E-1,9.3675666E-2,-1.2866981E0,-1.1408335E0,1.3566256E-2,1.3131076E-1,-1.05061516E-1,6.7235017E-1,4.3202934E-1,-7.256498E-3,-6.223269E-1,-1.0549497E-1,-3.2522365E-1,3.046454E-1,8.574002E-3,5.182484E-1,9.450414E-1,7.0910764E-1,-8.0661327E-1,-1.5461849E-1,6.2434155E-2,3.3639956E-1,1.1237195E0,8.80723E-1,6.40637E-2,6.919303E-1,1.2140051E0,9.187962E-1,1.1433413E0,1.2727788E-1,9.537102E-4,-6.778177E-2,1.6563635E-1,-4.665271E-2,-7.26026E-2,-1.1856847E-1,-1.12584546E-1,-1.3060883E-1,1.3000382E-1,-1.154772E-1,-2.9515682E-2,4.646026E-4,2.6938731E-3,8.537429E-2,-2.1554234E-2,4.802325E-2,2.6989212E-2,-1.893281E-2,-4.1956935E-2,-6.623628E-2,-2.6021892E-2,4.1592676E-2,-5.318098E-2,-2.0381143E-2,6.4465605E-2,-1.4138954E-2,-5.0549608E-2,3.5380315E-2,7.5405076E-2,4.085551E-2,1.03384994E-1,6.5834396E-2,5.67559E-2,8.771135E-2,7.1049824E-2,-9.104789E-2,-3.0459631E-2,2.5479074E-3,1.7948039E-2,-1.035165E-2,2.8513703E-2,5.536027E-2,1.0020542E-1,1.2249197E-1,6.642369E-3,9.136077E-2,-1.3069056E-2,7.4239016E-2,6.800841E-2,1.6048677E-1,1.2193227E-1,2.0086942E-2,7.859566E-2,1.05304316E-1,8.447423E-2,1.1921872E-1],"categories":[],"categories_nodes":[],"categories_segments":[],"categories_sizes":[],"default_left":[0,0,0,0,0,0,0,0,0,0,0,0,0,0,0,0,0,0,0,0,0,0,0,0,0,0,0,0,0,0,0,0,0,0,0,0,0,0,0,0,0,0,0,0,0,0,0,0,0,0,0,0,0,0,0,0,0,0,0,0,0,0,0,0,0,0,0,0,0,0,0,0,0,0,0,0,0,0,0,0,0,0,0,0,0,0,0,0,0,0,0,0,0,0,0,0,0,0,0,0,0,0,0,0,0,0,0,0,0,0,0,0,0,0,0,0,0,0,0],"id":8,"left_children":[1,3,5,7,9,11,13,15,17,19,21,23,25,27,29,31,33,35,37,39,41,43,45,47,49,51,53,55,57,59,61,63,65,67,-1,69,71,-1,-1,73,75,77,79,81,83,85,87,89,91,93,95,97,99,101,103,105,107,109,111,113,115,117,-1,-1,-1,-1,-1,-1,-1,-1,-1,-1,-1,-1,-1,-1,-1,-1,-1,-1,-1,-1,-1,-1,-1,-1,-1,-1,-1,-1,-1,-1,-1,-1,-1,-1,-1,-1,-1,-1,-1,-1,-1,-1,-1,-1,-1,-1,-1,-1,-1,-1,-1,-1,-1,-1,-1,-1,-1],"loss_changes":[4.1036396E3,9.288777E2,8.587864E2,2.3245557E2,4.340216E2,2.5545993E2,9.626123E1,6.1675636E1,2.3579102E1,5.794313E1,1.766836E2,5.570813E1,1.9055087E2,5.097339E1,1.094397E1,3.5833305E1,7.934906E0,3.503418E0,1.6033826E0,3.959996E1,4.0040092E1,4.6236694E1,1.1286743E2,3.9415695E1,8.433807E0,4.8834763E1,8.228157E1,7.616577E0,4.9233887E1,9.647644E0,6.9421387E-1,3.2195557E1,1.7079842E1,6.417404E0,0E0,2.386963E0,1.1587555E1,0E0,0E0,2.2464487E1,8.14554E0,1.8770134E1,1.6132433E1,2.5304321E1,1.500389E1,6.199298E1,4.8868286E1,3.3530968E1,2.0557495E1,5.318207E0,1.1961151E1,2.121405E1,2.613831E1,3.4623512E1,3.162735E1,1.7915344E0,9.485535E0,1.8351152E1,1.4258301E1,6.532593E-1,7.3199463E0,2.9379883E0,0E0,0E0,0E0,0E0,0E0,0E0,0E0,0E0,0E0,0E0,0E0,0E0,0E0,0E0,0E0,0E0,0E0,0E0,0E0,0E0,0E0,0E0,0E0,0E0,0E0,0E0,0E0,0E0,0E0,0E0,0E0,0E0,0E0,0E0,0E0,0E0,0E0,0E0,0E0,0E0,0E0,0E0,0E0,0E0,0E0,0E0,0E0,0E0,0E0,0E0,0E0,0E0,0E0,0E0,0E0,0E0,0E0],"parents":[2147483647,0,0,1,1,2,2,3,3,4,4,5,5,6,6,7,7,8,8,9,9,10,10,11,11,12,12,13,13,14,14,15,15,16,16,17,17,18,18,19,19,20,20,21,21,22,22,23,23,24,24,25,25,26,26,27,27,28,28,29,29,30,30,31,31,32,32,33,33,35,35,36,36,39,39,40,40,41,41,42,42,43,43,44,44,45,45,46,46,47,47,48,48,49,49,50,50,51,51,52,52,53,53,54,54,55,55,56,56,57,57,58,58,59,59,60,60,61,61],"right_children":[2,4,6,8,10,12,14,16,18,20,22,24,26,28,30,32,34,36,38,40,42,44,46,48,50,52,54,56,58,60,62,64,66,68,-1,70,72,-1,-1,74,76,78,80,82,84,86,88,90,92,94,96,98,100,102,104,106,108,110,112,114,116,118,-1,-1,-1,-1,-1,-1,-1,-1,-1,-1,-1,-1,-1,-1,-1,-1,-1,-1,-1,-1,-1,-1,-1,-1,-1,-1,-1,-1,-1,-1,-1,-1,-1,-1,-1,-1,-1,-1,-1,-1,-1,-1,-1,-1,-1,-1,-1,-1,-1,-1,-1,-1,-1,-1,-1,-1,-1],"split_conditions":[4E0,1E-1,1.3E1,1.05E1,8E0,1.2666667E1,2.7E1,1.4150944E-2,1.0208334E0,2E0,9.192389E0,7E0,4.1666666E-1,1.9E1,4.3E1,4.2426405E0,1.0208334E0,1.4142136E1,2.8169014E-2,1.1764706E1,5.5E0,9.9666664E1,9.3080086E1,6.897E1,5E0,1E-1,6E0,8.5E0,3.181818E-1,2.26E1,6.3E1,5.75E0,6.7577114E0,5.5E0,9.3675666E-2,1.4333333E1,1.1166667E1,1.3566256E-2,1.3131076E-1,7.7004974E1,1.6E0,3.459E1,1.4481547E-1,1.05E1,2.16E2,5.25E-1,2.05E1,4.6687096E-2,1.8031223E-1,7.679477E-1,7.7674537E0,1.5E1,3.0303031E-2,8.9871705E-1,4.411765E-2,1.7E1,6.7577114E0,1.1737972E2,1.0208334E0,1.16145E2,6.4970764E1,4.1666666E-1,1.2727788E-1,9.537102E-4,-6.778177E-2,1.6563635E-1,-4.665271E-2,-7.26026E-2,-1.1856847E-1,-1.12584546E-1,-1.3060883E-1,1.3000382E-1,-1.154772E-1,-2.9515682E-2,4.646026E-4,2.6938731E-3,8.537429E-2,-2.1554234E-2,4.802325E-2,2.6989212E-2,-1.893281E-2,-4.1956935E-2,-6.623628E-2,-2.6021892E-2,4.1592676E-2,-5.318098E-2,-2.0381143E-2,6.4465605E-2,-1.4138954E-2,-5.0549608E-2,3.5380315E-2,7.5405076E-2,4.085551E-2,1.03384994E-1,6.5834396E-2,5.67559E-2,8.771135E-2,7.1049824E-2,-9.104789E-2,-3.0459631E-2,2.5479074E-3,1.7948039E-2,-1.035165E-2,2.8513703E-2,5.536027E-2,1.0020542E-1,1.2249197E-1,6.642369E-3,9.136077E-2,-1.3069056E-2,7.4239016E-2,6.800841E-2,1.6048677E-1,1.2193227E-1,2.0086942E-2,7.859566E-2,1.05304316E-1,8.447423E-2,1.1921872E-1],"split_indices":[0,5,0,14,14,14,0,6,8,0,15,0,5,14,0,15,8,15,13,12,14,14,11,11,14,5,0,14,5,14,0,14,15,14,0,14,14,0,0,11,14,11,10,14,14,5,14,13,10,3,15,14,13,3,13,0,15,15,8,11,15,5,0,0,0,0,0,0,0,0,0,0,0,0,0,0,0,0,0,0,0,0,0,0,0,0,0,0,0,0,0,0,0,0,0,0,0,0,0,0,0,0,0,0,0,0,0,0,0,0,0,0,0,0,0,0,0,0,0],"split_type":[0,0,0,0,0,0,0,0,0,0,0,0,0,0,0,0,0,0,0,0,0,0,0,0,0,0,0,0,0,0,0,0,0,0,0,0,0,0,0,0,0,0,0,0,0,0,0,0,0,0,0,0,0,0,0,0,0,0,0,0,0,0,0,0,0,0,0,0,0,0,0,0,0,0,0,0,0,0,0,0,0,0,0,0,0,0,0,0,0,0,0,0,0,0,0,0,0,0,0,0,0,0,0,0,0,0,0,0,0,0,0,0,0,0,0,0,0,0,0],"sum_hessian":[2.0939223E4,1.0169845E4,1.0769379E4,1.9805957E3,8.1892485E3,7.480313E3,3.289066E3,4.4486118E2,1.5357345E3,2.0595798E3,6.129669E3,1.7501222E3,5.7301904E3,2.155181E3,1.133885E3,3.0235004E2,1.4251115E2,1.5312144E3,4.520175E0,1.1448884E3,9.1469135E2,3.3341147E3,2.7955542E3,9.926117E2,7.575105E2,1.0959392E3,4.6342515E3,5.996889E2,1.555492E3,6.215898E2,5.122953E2,2.8377954E2,1.8570505E1,1.4109602E2,1.4151312E0,1.2357485E3,2.9546576E2,2.1510491E0,2.369126E0,1.0761154E3,6.877314E1,5.970023E2,3.1768903E2,3.15048E3,1.836346E2,2.4749253E3,3.206288E2,1.8692896E2,8.0568274E2,2.3460623E2,5.2290424E2,1.2952234E2,9.664168E2,1.7805647E3,2.8536868E3,2.441923E2,3.5549658E2,1.3717691E2,1.4183151E3,1.6571645E2,4.5587332E2,2.694839E2,2.4281139E2,1.71913E2,1.1186654E2,1.39986515E1,4.5718536E0,6.0258533E1,8.083749E1,1.3929257E2,1.0964559E3,1.1537389E0,2.94312E2,3.931668E2,6.8294855E2,1.534012E1,5.3433018E1,4.1119705E1,5.558826E2,1.2576608E2,1.9192293E2,5.2139685E2,2.6290833E3,1.4199939E2,4.163521E1,9.1486975E2,1.5600557E3,1.8168544E2,1.3894337E2,7.491344E1,1.1201552E2,2.539356E2,5.517472E2,1.7713127E2,5.7474957E1,2.8617426E2,2.3673E2,7.9250255E0,1.2159731E2,5.269245E2,4.394923E2,1.0440834E3,7.364813E2,2.3106567E3,5.430299E2,1.1583485E2,1.2835745E2,1.3916312E1,3.415803E2,1.07204704E2,2.9972202E1,1.4018694E3,1.6445715E1,1.6464874E2,1.0676925E0,2.3258307E2,2.2329025E2,4.045749E1,2.2902638E2],"tree_param":{"num_deleted":"0","num_feature":"16","num_nodes":"119","size_leaf_vector":"1"}},{"base_weights":[6.079252E-3,9.479406E-1,-5.0673586E-1,-6.8870264E-1,1.0197823E0,-9.1938294E-2,-9.2164284E-1,-1.0046073E0,3.501427E-1,7.274495E-1,1.1980782E0,-3.834781E-1,3.94762E-1,-1.1288569E0,-5.228987E-1,-2.9798684E-1,-1.1361145E0,8.294016E-1,-3.0977115E-1,1.2616847E0,6.726372E-1,1.0791384E0,1.3182338E0,3.4282684E-2,-6.586348E-1,1.833398E-1,7.564339E-1,-1.1504912E0,9.392606E-2,-2.4539076E-1,-8.4018457E-1,-1.24429144E-1,4.6634415E-1,-1.1503861E0,7.7762455E-2,5.4892325E-1,1.3038548E0,2.7883066E-2,-1.1128294E0,1.2719029E0,4.3535626E-1,4.5150957E-1,7.917857E-1,1.1085944E0,8.5624886E-1,1.3370368E-1,1.2586808E-1,-6.483599E-1,1.6305082E-1,-8.726641E-1,-4.2532086E-1,3.3463728E-1,-1.4308833E-1,9.505506E-1,5.729503E-1,-1.2459902E0,-1.025231E0,-1.2644635E-1,4.0266946E-1,-4.2237055E-1,2.6759273E-1,-9.1027486E-1,1.6098428E-1,-1.1059647E-1,8.949819E-2,-1.2564914E-1,-8.6843275E-2,1.10763265E-2,1.0600419E-1,1.4075172E-1,2.7954658E-2,-6.250976E-2,1.0021543E-1,2.6918683E-2,-1.8384032E-1,1.277803E-1,2.4035664E-2,9.23205E-2,-2.9162703E-2,3.4242433E-2,8.903101E-2,8.84114E-2,6.850568E-2,1.20941855E-1,1.0368767E-1,1.3070846E-1,7.8732096E-2,-1.2421816E-1,-5.4502007E-2,-6.9087015E-5,3.573854E-2,-6.458596E-2,-1.1135719E-1,-5.8451857E-2,2.971319E-3,1.6059494E-2,5.346073E-2,-2.8222147E-2,2.48834E-2,1.1261785E-1,8.676273E-2,4.399341E-2,9.59855E-2,-1.2615813E-1,-1.1136234E-1,-1.0564913E-1,-3.5470188E-2,-9.087951E-2,6.03051E-2,-5.6890525E-2,1.7069763E-2,9.307418E-3,5.9806235E-2,-9.3479455E-2,1.3008533E-1,-1.8422037E-1,2.4885774E-2],"categories":[],"categories_nodes":[],"categories_segments":[],"categories_sizes":[],"default_left":[0,0,0,0,0,0,0,0,0,0,0,0,0,0,0,0,0,0,0,0,0,0,0,0,0,0,0,0,0,0,0,0,0,0,0,0,0,0,0,0,0,0,0,0,0,0,0,0,0,0,0,0,0,0,0,0,0,0,0,0,0,0,0,0,0,0,0,0,0,0,0,0,0,0,0,0,0,0,0,0,0,0,0,0,0,0,0,0,0,0,0,0,0,0,0,0,0,0,0,0,0,0,0,0,0,0,0,0,0,0,0,0,0,0,0,0,0],"id":9,"left_children":[1,3,5,7,9,11,13,15,17,19,21,23,25,27,29,31,33,35,37,39,41,43,45,47,49,51,53,55,57,59,61,-1,63,65,-1,67,69,71,73,75,77,79,81,83,85,-1,-1,87,89,91,93,95,97,99,101,103,105,-1,107,109,111,113,115,-1,-1,-1,-1,-1,-1,-1,-1,-1,-1,-1,-1,-1,-1,-1,-1,-1,-1,-1,-1,-1,-1,-1,-1,-1,-1,-1,-1,-1,-1,-1,-1,-1,-1,-1,-1,-1,-1,-1,-1,-1,-1,-1,-1,-1,-1,-1,-1,-1,-1,-1,-1,-1,-1],"loss_changes":[9.978726E3,8.570537E2,2.302073E3,1.0105412E2,3.627998E2,9.494591E2,5.519541E2,2.155101E1,2.3121586E1,7.662988E1,6.0493164E1,4.810346E2,1.915438E2,1.1649756E2,2.0131006E2,2.8294024E1,6.3089905E0,4.8935833E0,8.475662E0,1.5155029E0,6.292334E1,1.3381836E1,7.253418E-1,1.4625505E2,1.2561316E2,7.824441E1,3.2382385E1,5.0438477E1,3.2975952E1,1.1108094E2,7.504791E1,0E0,1.5765185E1,4.8078003E0,0E0,6.2021255E0,1.1921997E0,1.5195095E1,9.763221E0,1.1629639E0,1.8700998E0,4.0062515E1,1.4761597E1,1.2662109E1,7.0250854E0,0E0,0E0,1.5526787E1,4.4535606E1,7.112488E1,8.759982E1,3.7577324E1,2.745178E1,5.5430603E0,2.4165833E1,3.647705E0,3.894507E1,0E0,1.7323597E1,7.910637E1,1.806142E1,5.5307922E1,1.29013E1,0E0,0E0,0E0,0E0,0E0,0E0,0E0,0E0,0E0,0E0,0E0,0E0,0E0,0E0,0E0,0E0,0E0,0E0,0E0,0E0,0E0,0E0,0E0,0E0,0E0,0E0,0E0,0E0,0E0,0E0,0E0,0E0,0E0,0E0,0E0,0E0,0E0,0E0,0E0,0E0,0E0,0E0,0E0,0E0,0E0,0E0,0E0,0E0,0E0,0E0,0E0,0E0,0E0,0E0],"parents":[2147483647,0,0,1,1,2,2,3,3,4,4,5,5,6,6,7,7,8,8,9,9,10,10,11,11,12,12,13,13,14,14,15,15,16,16,17,17,18,18,19,19,20,20,21,21,22,22,23,23,24,24,25,25,26,26,27,27,28,28,29,29,30,30,32,32,33,33,35,35,36,36,37,37,38,38,39,39,40,40,41,41,42,42,43,43,44,44,47,47,48,48,49,49,50,50,51,51,52,52,53,53,54,54,55,55,56,56,58,58,59,59,60,60,61,61,62,62],"right_children":[2,4,6,8,10,12,14,16,18,20,22,24,26,28,30,32,34,36,38,40,42,44,46,48,50,52,54,56,58,60,62,-1,64,66,-1,68,70,72,74,76,78,80,82,84,86,-1,-1,88,90,92,94,96,98,100,102,104,106,-1,108,110,112,114,116,-1,-1,-1,-1,-1,-1,-1,-1,-1,-1,-1,-1,-1,-1,-1,-1,-1,-1,-1,-1,-1,-1,-1,-1,-1,-1,-1,-1,-1,-1,-1,-1,-1,-1,-1,-1,-1,-1,-1,-1,-1,-1,-1,-1,-1,-1,-1,-1,-1,-1,-1,-1,-1,-1],"split_conditions":[1E0,1.6666667E-1,1.9E1,1E1,6.4102566E-1,4E0,5E0,1.65E1,1.5625E-1,5E-1,9E-1,5.75E0,9E0,3.125E0,3.95E1,2.75E0,4.05E0,8.300923E1,2.0025E-1,9.502706E1,4.1666666E-1,1.66333E0,7E0,3.08E-2,2.8496403E-2,1.2666667E1,8.8E0,1.3477093E-1,4.002278E-2,1.3E1,2.6E1,-1.24429144E-1,7.391428E1,5.4618275E-1,7.7762455E-2,3.983491E-2,3.8E1,7.26E-2,1.8181819E-1,6.25E-1,5.357143E-2,2E1,8.333333E-1,8.333333E-1,6.5384614E-1,1.3370368E-1,1.2586808E-1,1.6E0,6.249E-1,1.1E1,9.3472664E1,4.721E-1,5.004831E-2,3.5E0,1.9E1,3E0,1.5151515E0,-1.2644635E-1,3.2592592E0,8.728616E1,2.2E1,9.2885E1,6.6315E1,-1.1059647E-1,8.949819E-2,-1.2564914E-1,-8.6843275E-2,1.10763265E-2,1.0600419E-1,1.4075172E-1,2.7954658E-2,-6.250976E-2,1.0021543E-1,2.6918683E-2,-1.8384032E-1,1.277803E-1,2.4035664E-2,9.23205E-2,-2.9162703E-2,3.4242433E-2,8.903101E-2,8.84114E-2,6.850568E-2,1.20941855E-1,1.0368767E-1,1.3070846E-1,7.8732096E-2,-1.2421816E-1,-5.4502007E-2,-6.9087015E-5,3.573854E-2,-6.458596E-2,-1.1135719E-1,-5.8451857E-2,2.971319E-3,1.6059494E-2,5.346073E-2,-2.8222147E-2,2.48834E-2,1.1261785E-1,8.676273E-2,4.399341E-2,9.59855E-2,-1.2615813E-1,-1.1136234E-1,-1.0564913E-1,-3.5470188E-2,-9.087951E-2,6.03051E-2,-5.6890525E-2,1.7069763E-2,9.307418E-3,5.9806235E-2,-9.3479455E-2,1.3008533E-1,-1.8422037E-1,2.4885774E-2],"split_indices":[1,5,14,4,5,4,4,14,6,1,5,14,4,12,14,2,2,11,9,11,5,3,4,9,10,14,14,10,10,4,4,0,11,10,0,12,14,9,6,6,1,4,1,1,1,0,0,14,9,14,11,9,13,14,4,4,12,0,2,11,4,11,11,0,0,0,0,0,0,0,0,0,0,0,0,0,0,0,0,0,0,0,0,0,0,0,0,0,0,0,0,0,0,0,0,0,0,0,0,0,0,0,0,0,0,0,0,0,0,0,0,0,0,0,0,0,0],"split_type":[0,0,0,0,0,0,0,0,0,0,0,0,0,0,0,0,0,0,0,0,0,0,0,0,0,0,0,0,0,0,0,0,0,0,0,0,0,0,0,0,0,0,0,0,0,0,0,0,0,0,0,0,0,0,0,0,0,0,0,0,0,0,0,0,0,0,0,0,0,0,0,0,0,0,0,0,0,0,0,0,0,0,0,0,0,0,0,0,0,0,0,0,0,0,0,0,0,0,0,0,0,0,0,0,0,0,0,0,0,0,0,0,0,0,0,0,0],"sum_hessian":[2.0657863E4,7.2821895E3,1.3375674E4,3.058546E2,6.976335E3,6.6893296E3,6.686344E3,2.3455977E2,7.129484E1,2.6448826E3,4.331452E3,4.183544E3,2.5057852E3,4.398671E3,2.2876733E3,3.7316242E1,1.9724353E2,4.115176E1,3.014308E1,2.4406375E2,2.4008188E3,2.1817566E3,2.1496958E3,1.6616279E3,2.5219163E3,1.582318E3,9.234673E2,4.3222573E3,7.641362E1,1.2212789E3,1.0663944E3,1.6392736E1,2.0923506E1,1.9617941E2,1.0641106E0,2.7218306E1,1.3933453E1,2.1900194E1,8.242887E0,2.4054991E2,3.5138373E0,8.423296E2,1.5584891E3,1.9235729E3,2.581836E2,1.6175339E3,5.321619E2,2.6305435E2,1.3985735E3,1.313888E3,1.2080283E3,1.0811748E3,5.0114316E2,4.467E2,4.7676727E2,2.4474019E3,1.8748552E3,1.3578091E1,6.2835533E1,9.081447E2,3.131342E2,9.967073E2,6.968717E1,4.1436777E0,1.6779829E1,1.4002751E2,5.615191E1,1.5310222E1,1.1908084E1,1.23132105E1,1.6202415E0,1.3326703E1,8.573491E0,3.054298E0,5.188588E0,2.3894452E2,1.6053967E0,1.9412389E0,1.5725985E0,6.7604584E2,1.6628377E2,8.317134E2,7.267758E2,7.929479E2,1.130625E3,3.1856594E1,2.2632698E2,3.735884E1,2.2569553E2,7.5957227E2,6.390012E2,6.786493E2,6.3523865E2,8.9471857E2,3.1330975E2,5.790266E2,5.0214822E2,3.7005344E2,1.3108974E2,1.3923203E2,3.0746796E2,3.563818E2,1.2038548E2,2.1818748E3,2.6552725E2,1.7907922E3,8.4063E1,7.8597064E0,5.4975826E1,7.282502E2,1.7989458E2,2.0575705E2,1.0737712E2,9.863467E2,1.0360575E1,2.0895238E0,6.759765E1],"tree_param":{"num_deleted":"0","num_feature":"16","num_nodes":"117","size_leaf_vector":"1"}},{"base_weights":[-3.2880271E-3,8.868964E-1,-4.8024717E-1,6.200356E-2,1.0204148E0,-6.150097E-1,1.3285056E-1,-7.493601E-1,3.510377E-1,8.1799465E-1,1.2031635E0,-7.587464E-1,-1.6926086E-1,6.287086E-1,-9.6961595E-2,-1.0291193E0,1.9925179E-2,8.9634514E-1,2.4199905E-1,9.7448903E-1,6.91596E-1,1.0851243E0,1.2842682E-1,-6.7819923E-1,-1.163351E0,-4.6624255E-1,5.1365808E-2,1.0624117E0,5.0806326E-1,-3.1822252E-1,3.394859E-1,-1.0771036E0,6.8196964E-1,6.1819416E-1,-3.6695188E-1,9.528816E-1,-1.677646E-1,4.01882E-1,-1.0396673E-1,7.579228E-1,1.2167648E0,6.2414664E-1,1.071741E0,1.1903892E0,1.0358446E0,-7.2921467E-1,-2.5860427E-2,-1.1875231E0,-7.60325E-1,-7.054275E-1,5.2644733E-2,-2.3218448E-1,1.9793782E-1,1.0824226E0,-4.0335525E-2,3.850345E-1,9.277728E-1,-5.337072E-1,1.4107522E-1,1.490721E-1,8.2309216E-1,-1.2318815E-1,-9.5331974E-2,-8.787864E-2,1.4242385E-1,1.9187374E-2,1.0866737E-1,1.7013645E-2,-7.945367E-2,1.0137677E-1,-9.581042E-3,1.22889064E-1,3.2743864E-2,1.7209778E-2,-6.787761E-2,1.3181119E-1,6.9485314E-2,1.2197627E-1,-6.4636976E-3,4.0673893E-2,7.7104084E-2,1.1752579E-1,8.8610224E-2,1.0570307E-1,1.2561421E-1,5.883629E-2,1.05753444E-1,-8.428069E-2,-5.093806E-2,-4.3503795E-2,1.4110021E-2,-9.939761E-2,-1.2017875E-1,-1.1009741E-1,6.968358E-2,-7.4766986E-2,3.83379E-2,-2.9846126E-2,5.487414E-2,-2.858672E-2,4.30797E-2,-2.7488057E-2,3.007617E-2,1.1353462E-1,4.1157115E-2,4.193283E-2,-2.8814334E-2,7.480639E-2,1.10324316E-1,1.5441786E-1,-5.6376558E-2,2.3505133E-2,-8.492014E-2,1.1265253E-1,6.6225687E-3,-1.3056572E-2,8.767279E-2],"categories":[],"categories_nodes":[],"categories_segments":[],"categories_sizes":[],"default_left":[0,0,0,0,0,0,0,0,0,0,0,0,0,0,0,0,0,0,0,0,0,0,0,0,0,0,0,0,0,0,0,0,0,0,0,0,0,0,0,0,0,0,0,0,0,0,0,0,0,0,0,0,0,0,0,0,0,0,0,0,0,0,0,0,0,0,0,0,0,0,0,0,0,0,0,0,0,0,0,0,0,0,0,0,0,0,0,0,0,0,0,0,0,0,0,0,0,0,0,0,0,0,0,0,0,0,0,0,0,0,0,0,0,0,0,0,0],"id":10,"left_children":[1,3,5,7,9,11,13,15,17,19,21,23,25,27,29,31,33,35,37,39,41,43,-1,45,47,49,51,53,55,57,59,61,63,65,67,69,-1,71,73,75,77,79,81,83,85,87,89,91,93,95,97,99,101,103,-1,105,107,109,111,113,115,-1,-1,-1,-1,-1,-1,-1,-1,-1,-1,-1,-1,-1,-1,-1,-1,-1,-1,-1,-1,-1,-1,-1,-1,-1,-1,-1,-1,-1,-1,-1,-1,-1,-1,-1,-1,-1,-1,-1,-1,-1,-1,-1,-1,-1,-1,-1,-1,-1,-1,-1,-1,-1,-1,-1,-1],"loss_changes":[8.412636E3,7.612739E2,1.0660288E3,2.263483E2,2.1909912E2,6.775298E2,2.6507532E2,5.458693E1,4.2089973E1,5.5225098E1,2.8519531E1,2.5984814E2,1.6908823E2,3.800403E1,1.5365123E2,1.6001923E1,1.6103884E1,1.8799088E1,3.2916393E1,6.51991E1,3.9502808E1,5.4016113E0,0E0,2.2202466E2,1.2018799E1,1.3654796E2,6.1611534E1,5.11203E0,2.9500626E1,1.0455105E2,4.917744E1,2.298462E0,7.8372726E0,5.2460976E0,9.846024E0,7.5226135E0,0E0,2.4635254E1,3.0051462E1,2.2687286E1,2.3574219E0,4.2258057E1,3.468811E0,2.1895142E0,7.907776E0,1.5409766E2,3.319331E1,2.255127E0,3.9400692E1,3.4917267E1,6.07747E1,1.8105537E1,4.758592E1,5.125458E0,0E0,1.0483299E1,3.2855911E0,4.576053E1,3.1644434E1,3.1130453E1,7.8394012E0,0E0,0E0,0E0,0E0,0E0,0E0,0E0,0E0,0E0,0E0,0E0,0E0,0E0,0E0,0E0,0E0,0E0,0E0,0E0,0E0,0E0,0E0,0E0,0E0,0E0,0E0,0E0,0E0,0E0,0E0,0E0,0E0,0E0,0E0,0E0,0E0,0E0,0E0,0E0,0E0,0E0,0E0,0E0,0E0,0E0,0E0,0E0,0E0,0E0,0E0,0E0,0E0,0E0,0E0,0E0,0E0],"parents":[2147483647,0,0,1,1,2,2,3,3,4,4,5,5,6,6,7,7,8,8,9,9,10,10,11,11,12,12,13,13,14,14,15,15,16,16,17,17,18,18,19,19,20,20,21,21,23,23,24,24,25,25,26,26,27,27,28,28,29,29,30,30,31,31,32,32,33,33,34,34,35,35,37,37,38,38,39,39,40,40,41,41,42,42,43,43,44,44,45,45,46,46,47,47,48,48,49,49,50,50,51,51,52,52,53,53,55,55,56,56,57,57,58,58,59,59,60,60],"right_children":[2,4,6,8,10,12,14,16,18,20,22,24,26,28,30,32,34,36,38,40,42,44,-1,46,48,50,52,54,56,58,60,62,64,66,68,70,-1,72,74,76,78,80,82,84,86,88,90,92,94,96,98,100,102,104,-1,106,108,110,112,114,116,-1,-1,-1,-1,-1,-1,-1,-1,-1,-1,-1,-1,-1,-1,-1,-1,-1,-1,-1,-1,-1,-1,-1,-1,-1,-1,-1,-1,-1,-1,-1,-1,-1,-1,-1,-1,-1,-1,-1,-1,-1,-1,-1,-1,-1,-1,-1,-1,-1,-1,-1,-1,-1,-1,-1,-1],"split_conditions":[1E0,3.6363637E-1,8E0,1.25E-1,4.5119047E0,9.0935E1,1.0388294E1,6E0,6.666667E-1,8E-1,9.285714E-1,8.20825E-1,2E0,2.309401E0,1.6E1,1.0710429E2,1.1195608E0,6.25E-1,2.6923078E-1,5E0,3.1E1,8E-1,1.2842682E-1,2.0738204E0,2.4100947E0,1.18175E2,9.546321E1,7.9265E-1,1.7E1,8.300923E1,8.370785E1,7.467766E1,3.913E-1,8.091072E1,4.5049875E-3,8.7465E1,-1.677646E-1,6.5574384E0,2.6133335E-1,3.809524E-1,8.2141954E-1,5.6666666E-1,9.5E-1,5E0,6.4705884E-1,4E0,7.7781747E-3,5.7357426E1,1.852026E1,6.5177226E0,6.321143E-1,3.6713288E0,2.6133335E-1,3.3333012E-1,-4.0335525E-2,7.178E-1,2.3E1,6E0,5.630691E-1,6.0867096E1,1.2020815E1,-1.2318815E-1,-9.5331974E-2,-8.787864E-2,1.4242385E-1,1.9187374E-2,1.0866737E-1,1.7013645E-2,-7.945367E-2,1.0137677E-1,-9.581042E-3,1.22889064E-1,3.2743864E-2,1.7209778E-2,-6.787761E-2,1.3181119E-1,6.9485314E-2,1.2197627E-1,-6.4636976E-3,4.0673893E-2,7.7104084E-2,1.1752579E-1,8.8610224E-2,1.0570307E-1,1.2561421E-1,5.883629E-2,1.05753444E-1,-8.428069E-2,-5.093806E-2,-4.3503795E-2,1.4110021E-2,-9.939761E-2,-1.2017875E-1,-1.1009741E-1,6.968358E-2,-7.4766986E-2,3.83379E-2,-2.9846126E-2,5.487414E-2,-2.858672E-2,4.30797E-2,-2.7488057E-2,3.007617E-2,1.1353462E-1,4.1157115E-2,4.193283E-2,-2.8814334E-2,7.480639E-2,1.10324316E-1,1.5441786E-1,-5.6376558E-2,2.3505133E-2,-8.492014E-2,1.1265253E-1,6.6225687E-3,-1.3056572E-2,8.767279E-2],"split_indices":[1,5,0,5,2,11,15,0,1,1,5,9,0,15,0,11,7,6,6,0,0,1,0,12,12,11,11,9,0,11,11,11,9,11,12,11,0,15,9,1,10,5,1,0,5,0,10,11,15,12,9,12,9,10,0,9,0,4,10,11,15,0,0,0,0,0,0,0,0,0,0,0,0,0,0,0,0,0,0,0,0,0,0,0,0,0,0,0,0,0,0,0,0,0,0,0,0,0,0,0,0,0,0,0,0,0,0,0,0,0,0,0,0,0,0,0,0],"split_type":[0,0,0,0,0,0,0,0,0,0,0,0,0,0,0,0,0,0,0,0,0,0,0,0,0,0,0,0,0,0,0,0,0,0,0,0,0,0,0,0,0,0,0,0,0,0,0,0,0,0,0,0,0,0,0,0,0,0,0,0,0,0,0,0,0,0,0,0,0,0,0,0,0,0,0,0,0,0,0,0,0,0,0,0,0,0,0,0,0,0,0,0,0,0,0,0,0,0,0,0,0,0,0,0,0,0,0,0,0,0,0,0,0,0,0,0,0],"sum_hessian":[1.981194E4,6.911546E3,1.2900393E4,9.630677E2,5.9484785E3,1.0575771E4,2.3246213E3,2.5254424E2,7.1052344E2,2.8249348E3,3.1235437E3,7.9965073E3,2.5792644E3,7.356336E2,1.5889878E3,1.8494806E2,6.7596176E1,1.17196724E2,5.933267E2,1.2592035E3,1.5657312E3,1.2779713E3,1.8455724E3,6.671121E3,1.3253859E3,1.0989175E3,1.4803469E3,1.5840036E2,5.772332E2,1.0546132E3,5.3437463E2,1.8026341E2,4.6846504E0,2.6310917E1,4.1285263E1,1.1529415E2,1.9025745E0,4.0568417E2,1.8764255E2,6.6705914E2,5.9214435E2,1.3320303E3,2.3370096E2,4.0012375E2,8.7784753E2,6.1871445E3,4.8397665E2,1.2485554E3,7.68304E1,7.5194385E2,3.4697363E2,5.0425613E2,9.7609076E2,1.5652498E2,1.8753766E0,4.4786786E2,1.2936539E2,7.1772327E2,3.3688992E2,3.8434998E2,1.5002466E2,7.612535E1,1.0413806E2,1.4505935E0,3.234057E0,1.4513277E1,1.179764E1,1.8566288E1,2.2718975E1,1.08999054E2,6.2950945E0,3.22214E1,3.7346277E2,1.2723556E2,6.0406994E1,6.5488335E1,6.015708E2,5.9081024E2,1.3340904E0,5.386224E2,7.9340784E2,1.4661426E2,8.708669E1,1.3777267E2,2.6235107E2,4.188316E1,8.3596436E2,4.0774294E3,2.109715E3,1.3978761E2,3.4418903E2,9.0553505E1,1.158002E3,6.2470695E1,1.4359706E1,7.241619E2,2.7781898E1,2.034107E2,1.4356293E2,4.6701035E2,3.7245785E1,1.7405495E2,8.020358E2,1.4443787E2,1.208712E1,4.2651685E2,2.1350992E1,6.651097E1,6.285442E1,9.51614E0,7.0820715E2,3.08387E2,2.8502926E1,2.9046824E1,3.5530316E2,7.9120393E0,1.4211261E2],"tree_param":{"num_deleted":"0","num_feature":"16","num_nodes":"117","size_leaf_vector":"1"}},{"base_weights":[1.167706E-2,-3.599608E-1,3.5236374E-1,-9.2865515E-1,-2.3176318E-1,1.8159449E-1,7.0262617E-1,-3.4032327E-1,-1.1435825E0,1.3493963E-1,-3.6521226E-1,4.9167714E-1,8.480358E-2,5.451473E-1,9.1906047E-1,-1.1052201E-1,-8.2237947E-1,-1.1518022E0,1.04163684E-1,2.943092E-1,-8.703961E-3,-5.325979E-1,-2.34899E-1,4.021012E-1,7.1281976E-1,-1.2775427E-1,1.9360891E-1,5.913454E-1,-6.473723E-2,8.2182044E-1,1.1226766E0,-2.0111124E-1,9.513646E-1,-8.462225E-1,9.493864E-2,-1.1550437E0,9.9198855E-2,2.1837743E-1,7.0938605E-1,-1.479483E-1,2.7832752E-1,-5.636368E-1,-7.400885E-2,-2.8655705E-1,2.46279E-1,6.2008405E-1,3.1171995E-1,7.8954124E-1,4.386527E-1,-1.4644378E-1,1.5477316E0,7.486364E-2,3.206049E-1,7.9461056E-1,5.0427765E-1,-2.555078E-1,3.6861643E-1,9.5467466E-1,6.0444987E-1,6.9145155E-1,1.1402428E0,1.3976921E-2,-5.0598778E-2,1.6608098E-1,2.6674196E-2,-5.449256E-2,-1.04422845E-1,-1.18530594E-1,-9.999298E-2,-4.4130557E-3,2.9131731E-2,4.564668E-3,8.081007E-2,-1.7627528E-2,7.5475916E-2,2.2331873E-2,1.0067318E-1,-5.6821287E-2,8.399346E-2,-1.768866E-2,2.8340414E-2,1.09733865E-2,-3.488839E-2,4.293866E-3,5.580876E-2,1.4474228E-2,6.7826696E-2,5.2530855E-2,2.0460932E-2,7.2059795E-2,9.887246E-2,5.2454658E-2,-8.962465E-2,-1.17529435E-2,-9.5477216E-2,8.192189E-2,1.694038E-1,2.2759693E-2,-5.8830595E-3,6.6256605E-2,2.6690373E-2,9.969499E-2,7.112841E-2,1.5697461E-1,4.9190197E-2,-7.2613987E-3,-1.0377704E-1,-1.0242921E-1,6.1840355E-2,1.0827019E-1,8.625256E-2,-8.3186544E-2,6.2362332E-2,9.518252E-2,-1.0717906E-1,1.1442035E-1,4.8458453E-2],"categories":[],"categories_nodes":[],"categories_segments":[],"categories_sizes":[],"default_left":[0,0,0,0,0,0,0,0,0,0,0,0,0,0,0,0,0,0,0,0,0,0,0,0,0,0,0,0,0,0,0,0,0,0,0,0,0,0,0,0,0,0,0,0,0,0,0,0,0,0,0,0,0,0,0,0,0,0,0,0,0,0,0,0,0,0,0,0,0,0,0,0,0,0,0,0,0,0,0,0,0,0,0,0,0,0,0,0,0,0,0,0,0,0,0,0,0,0,0,0,0,0,0,0,0,0,0,0,0,0,0,0,0,0,0,0,0],"id":11,"left_children":[1,3,5,7,9,11,13,15,17,19,21,23,25,27,29,31,33,35,-1,37,39,41,43,45,47,49,51,53,55,57,59,61,63,65,-1,67,-1,69,71,73,75,77,79,81,83,85,87,89,91,93,95,97,99,101,103,105,107,109,111,113,115,-1,-1,-1,-1,-1,-1,-1,-1,-1,-1,-1,-1,-1,-1,-1,-1,-1,-1,-1,-1,-1,-1,-1,-1,-1,-1,-1,-1,-1,-1,-1,-1,-1,-1,-1,-1,-1,-1,-1,-1,-1,-1,-1,-1,-1,-1,-1,-1,-1,-1,-1,-1,-1,-1,-1,-1],"loss_changes":[2.4281694E3,6.68499E2,5.983506E2,2.1292749E2,3.6640457E2,2.0187566E2,1.112605E2,5.006988E1,2.3385742E1,4.5746834E1,1.19607666E2,3.1412262E1,1.18631454E2,5.3585205E1,2.6391968E1,2.9799162E1,6.9718933E0,9.700317E0,0E0,2.9701332E1,4.208452E1,3.414868E1,7.683194E1,2.2290009E1,9.330109E0,5.4617462E1,5.1134773E1,3.0866943E1,1.1231917E1,2.6493591E1,2.5684814E0,2.9629513E1,1.1392532E1,8.058182E0,0E0,4.586792E0,0E0,1.5373615E1,9.532318E0,1.8262146E1,1.3557421E1,1.4926147E1,5.691413E0,6.893082E1,1.8992702E1,9.124573E0,1.8394127E1,4.20636E0,1.2261127E1,4.005773E1,6.6376114E-1,3.583913E1,2.9920761E1,8.194641E0,1.5573822E1,1.3392529E1,1.5103546E1,5.909668E0,1.038652E1,1.0150012E1,5.472412E-1,0E0,0E0,0E0,0E0,0E0,0E0,0E0,0E0,0E0,0E0,0E0,0E0,0E0,0E0,0E0,0E0,0E0,0E0,0E0,0E0,0E0,0E0,0E0,0E0,0E0,0E0,0E0,0E0,0E0,0E0,0E0,0E0,0E0,0E0,0E0,0E0,0E0,0E0,0E0,0E0,0E0,0E0,0E0,0E0,0E0,0E0,0E0,0E0,0E0,0E0,0E0,0E0,0E0,0E0,0E0,0E0],"parents":[2147483647,0,0,1,1,2,2,3,3,4,4,5,5,6,6,7,7,8,8,9,9,10,10,11,11,12,12,13,13,14,14,15,15,16,16,17,17,19,19,20,20,21,21,22,22,23,23,24,24,25,25,26,26,27,27,28,28,29,29,30,30,31,31,32,32,33,33,35,35,37,37,38,38,39,39,40,40,41,41,42,42,43,43,44,44,45,45,46,46,47,47,48,48,49,49,50,50,51,51,52,52,53,53,54,54,55,55,56,56,57,57,58,58,59,59,60,60],"right_children":[2,4,6,8,10,12,14,16,18,20,22,24,26,28,30,32,34,36,-1,38,40,42,44,46,48,50,52,54,56,58,60,62,64,66,-1,68,-1,70,72,74,76,78,80,82,84,86,88,90,92,94,96,98,100,102,104,106,108,110,112,114,116,-1,-1,-1,-1,-1,-1,-1,-1,-1,-1,-1,-1,-1,-1,-1,-1,-1,-1,-1,-1,-1,-1,-1,-1,-1,-1,-1,-1,-1,-1,-1,-1,-1,-1,-1,-1,-1,-1,-1,-1,-1,-1,-1,-1,-1,-1,-1,-1,-1,-1,-1,-1,-1,-1,-1,-1],"split_conditions":[4E0,1E-1,1.2E1,1.1166667E1,7.571429E0,1.2666667E1,2.2E1,1.4150944E-2,1.0208334E0,4E0,4.9497476E0,8E0,5.25E-1,8.973387E-1,4.3E1,4.2426405E0,1.0208334E0,7.6923075E0,1.04163684E-1,3E0,2.5166116E0,9.9666664E1,1.8867924E0,1.7751008E-1,9.259259E-2,1.0208334E0,2.5553514E1,1.9E1,1.7728106E0,4.5237005E-1,3.375E0,5E0,5.1234756E0,5.5E0,9.493864E-2,1.9091883E1,9.9198855E-2,1.6E0,4.3840623E-3,8.333333E0,7.142857E0,8.333333E0,2.16E2,1.4E1,1.9974985E1,1.5839191E-2,6E0,8.621678E0,5.138758E-1,2.230672E0,2.7525923E-1,2.15E1,3.15E1,6.5E0,1E1,6.634207E-1,2.4E1,2.2333334E1,1E-1,3.2592592E0,6.315842E-1,1.3976921E-2,-5.0598778E-2,1.6608098E-1,2.6674196E-2,-5.449256E-2,-1.04422845E-1,-1.18530594E-1,-9.999298E-2,-4.4130557E-3,2.9131731E-2,4.564668E-3,8.081007E-2,-1.7627528E-2,7.5475916E-2,2.2331873E-2,1.0067318E-1,-5.6821287E-2,8.399346E-2,-1.768866E-2,2.8340414E-2,1.09733865E-2,-3.488839E-2,4.293866E-3,5.580876E-2,1.4474228E-2,6.7826696E-2,5.2530855E-2,2.0460932E-2,7.2059795E-2,9.887246E-2,5.2454658E-2,-8.962465E-2,-1.17529435E-2,-9.5477216E-2,8.192189E-2,1.694038E-1,2.2759693E-2,-5.8830595E-3,6.6256605E-2,2.6690373E-2,9.969499E-2,7.112841E-2,1.5697461E-1,4.9190197E-2,-7.2613987E-3,-1.0377704E-1,-1.0242921E-1,6.1840355E-2,1.0827019E-1,8.625256E-2,-8.3186544E-2,6.2362332E-2,9.518252E-2,-1.0717906E-1,1.1442035E-1,4.8458453E-2],"split_indices":[0,5,0,14,14,14,0,6,8,14,15,0,5,7,0,15,8,12,0,0,15,14,12,10,6,8,15,14,3,10,2,14,15,14,0,15,0,14,10,12,12,12,14,14,15,10,14,15,10,7,10,14,14,14,4,10,14,14,5,2,10,0,0,0,0,0,0,0,0,0,0,0,0,0,0,0,0,0,0,0,0,0,0,0,0,0,0,0,0,0,0,0,0,0,0,0,0,0,0,0,0,0,0,0,0,0,0,0,0,0,0,0,0,0,0,0,0],"split_type":[0,0,0,0,0,0,0,0,0,0,0,0,0,0,0,0,0,0,0,0,0,0,0,0,0,0,0,0,0,0,0,0,0,0,0,0,0,0,0,0,0,0,0,0,0,0,0,0,0,0,0,0,0,0,0,0,0,0,0,0,0,0,0,0,0,0,0,0,0,0,0,0,0,0,0,0,0,0,0,0,0,0,0,0,0,0,0,0,0,0,0,0,0,0,0,0,0,0,0,0,0,0,0,0,0,0,0,0,0,0,0,0,0,0,0,0,0],"sum_hessian":[1.9176021E4,9.171375E3,1.00046455E4,1.6859828E3,7.4853926E3,6.7266226E3,3.2780232E3,4.5180807E2,1.2341747E3,1.997228E3,5.4881646E3,1.5992217E3,5.127401E3,1.8994738E3,1.3785494E3,3.067882E2,1.4501988E2,1.2300209E3,4.153822E0,9.4629004E2,1.050938E3,2.4010115E3,3.087153E3,1.1401936E3,4.590281E2,1.7359475E3,3.3914536E3,1.7657504E3,1.3372337E2,9.3639545E2,4.4215396E2,2.834203E2,2.3367891E1,1.4360968E2,1.4102007E0,1.2286244E3,1.3965338E0,8.012416E2,1.4504842E2,7.0797205E2,3.429659E2,2.24859E3,1.5242146E2,2.7882212E3,2.9893195E2,3.3247186E2,8.077217E2,3.5719327E2,1.0183485E2,1.7176997E3,1.8247803E1,1.7534818E3,1.6379718E3,5.2709314E2,1.2386572E3,9.313428E1,4.0589096E1,5.790781E2,3.5731735E2,1.8886343E1,4.2326764E2,1.3406483E2,1.4935547E2,1.077566E1,1.2592233E1,5.8438473E1,8.51712E1,1.02249677E3,2.0612758E2,1.7430809E2,6.2693353E2,1.8968697E1,1.2607973E2,6.8721204E2,2.0759998E1,3.200988E2,2.2867142E1,2.241876E3,6.714063E0,1.1874655E2,3.3674908E1,3.7882007E2,2.4094011E3,1.816257E2,1.1730623E2,3.6637646E1,2.9583423E2,2.684677E2,5.3925397E2,2.6877872E2,8.841456E1,9.624879E1,5.5860596E0,1.6594845E3,5.8215263E1,4.155483E0,1.40923195E1,8.1813544E2,9.353464E2,2.2077444E2,1.4171973E3,1.5055066E2,3.7654245E2,1.2777201E1,1.22588E3,7.637139E1,1.6762886E1,5.7004647E0,3.4888634E1,2.3785916E2,3.4121896E2,4.14865E0,3.531687E2,1.6857258E1,2.0290852E0,4.199856E2,3.2820425E0],"tree_param":{"num_deleted":"0","num_feature":"16","num_nodes":"117","size_leaf_vector":"1"}},{"base_weights":[-2.3127247E-3,-2.8280956E-1,3.6715046E-1,6.810585E-2,-4.1080403E-1,2.1822037E-1,6.933565E-1,-4.436212E-1,1.6402791E-1,-6.9059104E-1,-2.3686023E-1,4.921257E-1,1.19693406E-1,5.925215E-1,9.787302E-1,-3.490275E-1,-9.0280277E-1,2.865557E-1,1.9475432E-2,-1.073E0,-4.9341193E-1,-8.066635E-1,-1.9047494E-1,3.8650927E-1,7.0588374E-1,-1.4619335E-2,2.3944385E-1,6.9797397E-1,4.063333E-1,8.62814E-1,1.093183E0,-3.678754E-1,2.0316255E-1,-9.59717E-1,1.6050206E-1,2.0390318E-1,5.5958885E-1,-5.6097556E-2,7.8330004E-1,-1.0849253E0,6.891044E-1,-5.4541814E-1,-2.0060036E-1,-1.0494432E0,-5.0524336E-1,-2.3079877E-1,2.3278083E-1,4.9140766E-1,2.2903104E-1,9.9506676E-2,7.319651E-1,3.941471E-3,-1.1454693E0,9.824739E-2,3.4704944E-1,9.3318594E-1,6.4396626E-1,-3.5117415E-1,4.3692192E-1,9.7055143E-1,6.699973E-1,6.7050624E-1,1.1084931E-1,-4.1167766E-2,3.038131E-2,-6.0760576E-2,-1.0268452E-1,-6.9525297E-4,4.0669333E-2,8.8439606E-2,4.368242E-2,-1.4876452E-2,9.847725E-3,-2.4516461E-2,9.095375E-2,-6.934964E-2,-1.1290363E-1,1.1586064E-1,-1.01714626E-1,-5.507023E-2,9.87644E-2,-2.3994463E-2,2.406852E-2,-2.2131901E-2,-1.08959876E-1,1.7647287E-2,-6.469388E-2,-4.4437815E-3,-3.1039873E-2,-3.707392E-2,2.9745573E-2,4.158688E-2,6.476298E-2,4.109568E-4,4.3427702E-2,-2.1647365E-1,3.9746277E-2,8.9561224E-2,6.4147495E-2,-5.527953E-2,3.9592977E-3,8.995417E-2,-1.2531762E-1,3.859977E-2,-2.8007253E-4,7.206581E-2,2.9070124E-2,9.4565585E-2,6.930332E-3,5.8669247E-2,8.727871E-2,5.2938582E-3,-1.1936897E-1,2.8691277E-2,5.2664895E-2,2.8183972E-2,9.92921E-2,-2.3530273E-2,7.054826E-2,-5.7084676E-2,1.0889776E-1],"categories":[],"categories_nodes":[],"categories_segments":[],"categories_sizes":[],"default_left":[0,0,0,0,0,0,0,0,0,0,0,0,0,0,0,0,0,0,0,0,0,0,0,0,0,0,0,0,0,0,0,0,0,0,0,0,0,0,0,0,0,0,0,0,0,0,0,0,0,0,0,0,0,0,0,0,0,0,0,0,0,0,0,0,0,0,0,0,0,0,0,0,0,0,0,0,0,0,0,0,0,0,0,0,0,0,0,0,0,0,0,0,0,0,0,0,0,0,0,0,0,0,0,0,0,0,0,0,0,0,0,0,0,0,0,0,0,0,0,0,0],"id":12,"left_children":[1,3,5,7,9,11,13,15,17,19,21,23,25,27,29,31,33,35,37,39,41,43,45,47,49,51,53,55,57,59,61,63,-1,65,-1,67,69,71,73,75,77,79,81,83,85,87,89,91,93,95,97,99,101,103,105,107,109,111,113,115,117,119,-1,-1,-1,-1,-1,-1,-1,-1,-1,-1,-1,-1,-1,-1,-1,-1,-1,-1,-1,-1,-1,-1,-1,-1,-1,-1,-1,-1,-1,-1,-1,-1,-1,-1,-1,-1,-1,-1,-1,-1,-1,-1,-1,-1,-1,-1,-1,-1,-1,-1,-1,-1,-1,-1,-1,-1,-1,-1,-1],"loss_changes":[1.953634E3,4.8133496E2,3.950879E2,1.4069463E2,3.8197546E2,1.5071582E2,7.27865E1,1.9339645E1,4.2738205E1,2.2640979E2,1.2785989E2,3.3088226E1,6.6112404E1,3.6755188E1,7.86792E0,1.7656204E1,1.2482712E1,2.936023E1,6.401544E1,2.2245972E1,3.0158142E1,2.6128128E1,7.651712E1,1.6261932E1,7.636444E0,4.068763E1,3.298092E1,1.468042E1,1.6014198E1,6.302765E0,1.39505E0,1.1150021E1,0E0,1.1627502E0,0E0,4.2940105E1,1.1692917E1,1.4472961E1,1.3185635E1,1.676941E1,7.177614E0,1.4212128E1,5.2899733E0,6.4376984E0,1.5999104E1,6.0672195E1,1.5340572E1,6.741165E0,1.8379463E1,1.5202896E1,6.3440247E0,3.7892014E1,8.022064E0,2.7367725E1,2.5743057E1,2.330368E0,1.23515625E1,9.297575E0,8.710663E0,2.9939117E0,4.1240616E0,7.9364753E0,0E0,0E0,0E0,0E0,0E0,0E0,0E0,0E0,0E0,0E0,0E0,0E0,0E0,0E0,0E0,0E0,0E0,0E0,0E0,0E0,0E0,0E0,0E0,0E0,0E0,0E0,0E0,0E0,0E0,0E0,0E0,0E0,0E0,0E0,0E0,0E0,0E0,0E0,0E0,0E0,0E0,0E0,0E0,0E0,0E0,0E0,0E0,0E0,0E0,0E0,0E0,0E0,0E0,0E0,0E0,0E0,0E0,0E0,0E0],"parents":[2147483647,0,0,1,1,2,2,3,3,4,4,5,5,6,6,7,7,8,8,9,9,10,10,11,11,12,12,13,13,14,14,15,15,16,16,17,17,18,18,19,19,20,20,21,21,22,22,23,23,24,24,25,25,26,26,27,27,28,28,29,29,30,30,31,31,33,33,35,35,36,36,37,37,38,38,39,39,40,40,41,41,42,42,43,43,44,44,45,45,46,46,47,47,48,48,49,49,50,50,51,51,52,52,53,53,54,54,55,55,56,56,57,57,58,58,59,59,60,60,61,61],"right_children":[2,4,6,8,10,12,14,16,18,20,22,24,26,28,30,32,34,36,38,40,42,44,46,48,50,52,54,56,58,60,62,64,-1,66,-1,68,70,72,74,76,78,80,82,84,86,88,90,92,94,96,98,100,102,104,106,108,110,112,114,116,118,120,-1,-1,-1,-1,-1,-1,-1,-1,-1,-1,-1,-1,-1,-1,-1,-1,-1,-1,-1,-1,-1,-1,-1,-1,-1,-1,-1,-1,-1,-1,-1,-1,-1,-1,-1,-1,-1,-1,-1,-1,-1,-1,-1,-1,-1,-1,-1,-1,-1,-1,-1,-1,-1,-1,-1,-1,-1,-1,-1],"split_conditions":[5E0,8.8E0,1.4E1,5.88E-2,3.535534E0,1.4636364E1,3.2E1,1E0,5E0,4.695652E0,2.75E0,9E0,4.285714E0,4.5237005E-1,4.7E1,1.0208334E0,4.5787576E-1,3E0,7.7674537E0,1.0208334E0,6.775E1,1.5365907E0,1.8867924E0,9.5E0,3.5369127E0,2.230672E0,2.37547E1,1.0333333E1,9.64E-2,4.6030462E-1,3.375E0,5.2597957E0,2.0316255E-1,-4.606E-1,1.6050206E-1,6.115E-1,4.836137E-1,2.828427E0,2.6774E-1,1.15E1,1.5E0,8.333333E0,2.4427026E2,2.4890158E-2,1.9023795E0,2.1E1,2.0025E-1,5.265333E-1,9.019819E0,2.9804552E-1,2.5426507E-1,1.2055428E1,4E0,1.85E1,2.95E1,1.6329932E0,7.9E1,6.096599E-1,3.8226667E-1,3.8333333E0,4.684878E-1,2.2727273E-1,1.1084931E-1,-4.1167766E-2,3.038131E-2,-6.0760576E-2,-1.0268452E-1,-6.9525297E-4,4.0669333E-2,8.8439606E-2,4.368242E-2,-1.4876452E-2,9.847725E-3,-2.4516461E-2,9.095375E-2,-6.934964E-2,-1.1290363E-1,1.1586064E-1,-1.01714626E-1,-5.507023E-2,9.87644E-2,-2.3994463E-2,2.406852E-2,-2.2131901E-2,-1.08959876E-1,1.7647287E-2,-6.469388E-2,-4.4437815E-3,-3.1039873E-2,-3.707392E-2,2.9745573E-2,4.158688E-2,6.476298E-2,4.109568E-4,4.3427702E-2,-2.1647365E-1,3.9746277E-2,8.9561224E-2,6.4147495E-2,-5.527953E-2,3.9592977E-3,8.995417E-2,-1.2531762E-1,3.859977E-2,-2.8007253E-4,7.206581E-2,2.9070124E-2,9.4565585E-2,6.930332E-3,5.8669247E-2,8.727871E-2,5.2938582E-3,-1.1936897E-1,2.8691277E-2,5.2664895E-2,2.8183972E-2,9.92921E-2,-2.3530273E-2,7.054826E-2,-5.7084676E-2,1.0889776E-1],"split_indices":[0,14,0,9,15,14,0,6,14,2,2,0,2,10,0,8,10,0,15,8,14,3,12,14,2,7,15,14,9,10,2,12,0,9,0,9,7,15,9,14,2,12,14,10,3,14,9,9,15,10,10,15,4,14,14,3,14,10,9,2,10,6,0,0,0,0,0,0,0,0,0,0,0,0,0,0,0,0,0,0,0,0,0,0,0,0,0,0,0,0,0,0,0,0,0,0,0,0,0,0,0,0,0,0,0,0,0,0,0,0,0,0,0,0,0,0,0,0,0,0,0],"split_type":[0,0,0,0,0,0,0,0,0,0,0,0,0,0,0,0,0,0,0,0,0,0,0,0,0,0,0,0,0,0,0,0,0,0,0,0,0,0,0,0,0,0,0,0,0,0,0,0,0,0,0,0,0,0,0,0,0,0,0,0,0,0,0,0,0,0,0,0,0,0,0,0,0,0,0,0,0,0,0,0,0,0,0,0,0,0,0,0,0,0,0,0,0,0,0,0,0,0,0,0,0,0,0,0,0,0,0,0,0,0,0,0,0,0,0,0,0,0,0,0,0],"sum_hessian":[1.8849418E4,1.0714895E4,8.1345244E3,2.8638108E3,7.8510835E3,5.5859263E3,2.5485981E3,4.515023E2,2.4123086E3,3.00868E3,4.842404E3,1.4767E3,4.109226E3,1.8854594E3,6.6313885E2,3.7583792E2,7.566435E1,1.3050878E3,1.1072208E3,1.0220589E3,1.9866211E3,3.632914E2,4.4791123E3,9.902383E2,4.8646176E2,1.9372614E3,2.1719648E3,1.2019535E3,6.8350586E2,3.337054E2,3.294334E2,3.7372458E2,2.1133447E0,7.45889E1,1.075458E0,1.0031587E3,3.0192908E2,1.0083782E3,9.884262E1,1.0155701E3,6.488742E0,1.6862615E3,3.0035953E2,1.9984448E2,1.6344695E2,4.089918E3,3.8919424E2,5.930675E2,3.9717075E2,2.0259321E1,4.6620242E2,1.9069587E3,3.0302677E1,9.4019073E2,1.2317739E3,2.2140805E2,9.805454E2,2.6122355E1,6.573835E2,2.1149684E2,1.2220857E2,1.3081329E1,3.1635208E2,3.5120862E2,2.251598E1,1.355253E1,6.103637E1,4.922726E2,5.1088608E2,8.111456E1,2.2081451E2,6.304585E2,3.779197E2,1.0702948E1,8.813967E1,1.0454957E2,9.1102057E2,5.3402505E0,1.1484914E0,1.6811079E3,5.1535754E0,2.7619107E2,2.4168467E1,9.543405E0,1.9030107E2,2.8084267E1,1.3536267E2,1.2245459E3,2.8653723E3,3.7212242E1,3.51982E2,4.0223492E2,1.9083258E2,1.8998892E2,2.0718182E2,1.6273547E0,1.8631966E1,1.6283171E2,3.0337073E2,1.13892876E2,1.7930658E3,1.1483022E0,2.9154375E1,2.4362125E2,6.965695E2,1.5988564E2,1.0718883E3,2.1816425E2,3.2438006E0,7.870988E2,1.934466E2,1.8287783E1,7.8345714E0,2.4761263E2,4.0977087E2,7.0811834E0,2.0441566E2,4.397168E0,1.178114E2,3.2062342E0,9.875095E0],"tree_param":{"num_deleted":"0","num_feature":"16","num_nodes":"121","size_leaf_vector":"1"}},{"base_weights":[-8.5269E-4,8.468357E-1,-4.454978E-1,4.4805798E-1,1.0672712E0,-5.479529E-1,1.9767536E-2,-6.6221243E-1,5.624784E-1,9.114371E-1,1.2429851E0,-6.8650424E-1,-1.4319235E-1,4.6659347E-1,-1.6671138E-1,-8.711736E-1,3.3834344E-1,1.1613379E0,5.1130563E-1,1.2190475E-1,8.650436E-1,1.2700537E-1,1.1405364E0,-6.1808854E-1,-1.102609E0,-3.0269703E-1,1.4276905E-1,9.239445E-1,3.44549E-1,-3.8546455E-1,2.1291736E-1,-1.0530977E0,-6.0430956E-1,9.5831025E-1,-8.259804E-3,1.1865969E0,2.53393E-1,6.5553844E-1,3.8538426E-1,7.5735027E-1,9.4382554E-1,2.8051784E-2,1.1428028E-1,-6.599592E-1,-1.0714627E-1,-1.113601E0,1.1424159E0,-4.8880026E-1,1.10973045E-1,5.0769195E-2,4.8666584E-1,6.4073277E-1,1.0431237E0,2.2986591E-1,7.632614E-1,-4.270207E-1,1.5142407E-1,-5.8364272E-2,4.5543715E-1,-1.0754385E-1,4.170718E-2,-1.038385E-1,-2.2892183E-2,-2.7535012E-2,1.1847067E-1,1.2407615E-1,-3.2802146E-2,4.2678997E-2,1.2058878E-1,-1.4393485E-1,1.0201204E-1,4.7882065E-2,9.650203E-2,2.4944996E-2,6.559114E-2,9.05804E-2,6.876961E-2,7.6944165E-2,9.789767E-2,-6.702938E-2,1.410136E-1,-1.2938403E-1,-5.8591515E-3,-1.15228176E-1,-9.066821E-2,1.554995E-1,2.9792089E-2,-5.6703564E-2,1.298966E-2,-1.5919989E-2,5.5366546E-2,8.096252E-4,7.522417E-2,-8.2436614E-2,5.974383E-2,-1.0067047E-1,7.348027E-2,1.08061254E-1,-9.970269E-3,1.3847102E-2,6.5181926E-2,6.174603E-2,1.0425309E-1,6.0349774E-2,-4.8552383E-2,-2.9120607E-2,3.3517063E-2,5.1642247E-2,-7.2808444E-2],"categories":[],"categories_nodes":[],"categories_segments":[],"categories_sizes":[],"default_left":[0,0,0,0,0,0,0,0,0,0,0,0,0,0,0,0,0,0,0,0,0,0,0,0,0,0,0,0,0,0,0,0,0,0,0,0,0,0,0,0,0,0,0,0,0,0,0,0,0,0,0,0,0,0,0,0,0,0,0,0,0,0,0,0,0,0,0,0,0,0,0,0,0,0,0,0,0,0,0,0,0,0,0,0,0,0,0,0,0,0,0,0,0,0,0,0,0,0,0,0,0,0,0,0,0,0,0,0,0],"id":13,"left_children":[1,3,5,7,9,11,13,15,17,19,21,23,25,27,29,31,33,35,37,-1,39,-1,41,43,45,47,49,51,53,55,57,59,61,63,65,67,69,71,73,75,77,-1,-1,79,81,83,85,87,89,91,93,95,97,99,101,103,-1,105,107,-1,-1,-1,-1,-1,-1,-1,-1,-1,-1,-1,-1,-1,-1,-1,-1,-1,-1,-1,-1,-1,-1,-1,-1,-1,-1,-1,-1,-1,-1,-1,-1,-1,-1,-1,-1,-1,-1,-1,-1,-1,-1,-1,-1,-1,-1,-1,-1,-1,-1],"loss_changes":[6.974686E3,5.591846E2,5.7860034E2,2.8852216E2,1.1111963E2,5.577466E2,1.8267532E2,4.469751E1,6.2438843E1,3.0004883E1,3.887207E0,2.1027637E2,1.1580441E2,3.5713684E1,1.285435E2,7.906479E0,8.046888E0,3.3947754E0,3.4195374E1,0E0,1.5359619E1,0E0,4.8236084E-1,1.3612549E2,2.706189E1,1.2550354E2,2.8748007E1,3.9011688E0,2.4369812E1,7.814969E1,3.727409E1,3.8409653E0,1.1767628E1,4.075427E0,1.0386619E1,1.7792664E0,8.779192E0,4.781082E1,3.7164246E1,7.7061768E0,5.929016E0,0E0,0E0,1.26822754E2,2.7776398E1,7.283203E0,1.4828582E0,5.4483795E1,6.065993E1,2.1504316E1,2.8350536E1,7.355486E0,4.121826E0,1.5439018E1,3.8136673E0,5.8260803E1,0E0,2.466527E1,2.1959469E1,0E0,0E0,0E0,0E0,0E0,0E0,0E0,0E0,0E0,0E0,0E0,0E0,0E0,0E0,0E0,0E0,0E0,0E0,0E0,0E0,0E0,0E0,0E0,0E0,0E0,0E0,0E0,0E0,0E0,0E0,0E0,0E0,0E0,0E0,0E0,0E0,0E0,0E0,0E0,0E0,0E0,0E0,0E0,0E0,0E0,0E0,0E0,0E0,0E0,0E0],"parents":[2147483647,0,0,1,1,2,2,3,3,4,4,5,5,6,6,7,7,8,8,9,9,10,10,11,11,12,12,13,13,14,14,15,15,16,16,17,17,18,18,20,20,22,22,23,23,24,24,25,25,26,26,27,27,28,28,29,29,30,30,31,31,32,32,33,33,34,34,35,35,36,36,37,37,38,38,39,39,40,40,43,43,44,44,45,45,46,46,47,47,48,48,49,49,50,50,51,51,52,52,53,53,54,54,55,55,57,57,58,58],"right_children":[2,4,6,8,10,12,14,16,18,20,22,24,26,28,30,32,34,36,38,-1,40,-1,42,44,46,48,50,52,54,56,58,60,62,64,66,68,70,72,74,76,78,-1,-1,80,82,84,86,88,90,92,94,96,98,100,102,104,-1,106,108,-1,-1,-1,-1,-1,-1,-1,-1,-1,-1,-1,-1,-1,-1,-1,-1,-1,-1,-1,-1,-1,-1,-1,-1,-1,-1,-1,-1,-1,-1,-1,-1,-1,-1,-1,-1,-1,-1,-1,-1,-1,-1,-1,-1,-1,-1,-1,-1,-1,-1],"split_conditions":[1E0,5.7575756E-1,8E0,1.25E-1,8.8235295E-1,9.0580894E1,1.0388294E1,1.1E1,5E-1,6.5384614E-1,9E0,8.398E-1,3E0,2.309401E0,8.189166E1,2.75E0,4.788179E-1,9.0935E1,7.8571427E-1,1.2190475E-1,4.3818183E0,1.2700537E-1,5.88E-2,2.0738204E0,1.0208334E0,1.1246E2,1.0509E2,1E1,1.7E1,1.0208334E0,1.2E1,1.0208334E0,7.563159E1,2.054E-1,1.2E1,2.4545455E0,3.6363637E-1,6E0,1.7E1,8E-1,2.1382909E-1,2.8051784E-2,1.1428028E-1,1.0208334E0,1.7445E1,8.4845E1,6.969087E1,3.8461537E0,6.29E-1,3.9259396E1,2.054E-1,1.7445E1,3.37715E-1,9.3855385E1,2.6E1,5.8747574E1,1.5142407E-1,8.843483E1,5.630691E-1,-1.0754385E-1,4.170718E-2,-1.038385E-1,-2.2892183E-2,-2.7535012E-2,1.1847067E-1,1.2407615E-1,-3.2802146E-2,4.2678997E-2,1.2058878E-1,-1.4393485E-1,1.0201204E-1,4.7882065E-2,9.650203E-2,2.4944996E-2,6.559114E-2,9.05804E-2,6.876961E-2,7.6944165E-2,9.789767E-2,-6.702938E-2,1.410136E-1,-1.2938403E-1,-5.8591515E-3,-1.15228176E-1,-9.066821E-2,1.554995E-1,2.9792089E-2,-5.6703564E-2,1.298966E-2,-1.5919989E-2,