{"learner":{"attributes":{"scikit_learn":"{\"_estimator_type\": \"classifier\"}"},"feature_names":["total_reviews","verified_purchase_ratio","avg_rating","rating_std","unique_products","pct_5star","pct_1star","avg_rating_deviation","review_burstiness","avg_sentiment","std_sentiment","avg_readability","avg_excl_density","avg_caps_ratio","avg_word_count","std_word_count","degree_centrality","pagerank_score","log_component_size","weighted_degree"],"feature_types":["int","float","float","float","int","float","float","float","float","float","float","float","float","float","float","float","float","float","float","int"],"gradient_booster":{"model":{"cats":{"enc":[],"feature_segments":[],"sorted_idx":[]},"gbtree_model_param":{"num_parallel_tree":"1","num_trees":"542"},"iteration_indptr":[0,1,2,3,4,5,6,7,8,9,10,11,12,13,14,15,16,17,18,19,20,21,22,23,24,25,26,27,28,29,30,31,32,33,34,35,36,37,38,39,40,41,42,43,44,45,46,47,48,49,50,51,52,53,54,55,56,57,58,59,60,61,62,63,64,65,66,67,68,69,70,71,72,73,74,75,76,77,78,79,80,81,82,83,84,85,86,87,88,89,90,91,92,93,94,95,96,97,98,99,100,101,102,103,104,105,106,107,108,109,110,111,112,113,114,115,116,117,118,119,120,121,122,123,124,125,126,127,128,129,130,131,132,133,134,135,136,137,138,139,140,141,142,143,144,145,146,147,148,149,150,151,152,153,154,155,156,157,158,159,160,161,162,163,164,165,166,167,168,169,170,171,172,173,174,175,176,177,178,179,180,181,182,183,184,185,186,187,188,189,190,191,192,193,194,195,196,197,198,199,200,201,202,203,204,205,206,207,208,209,210,211,212,213,214,215,216,217,218,219,220,221,222,223,224,225,226,227,228,229,230,231,232,233,234,235,236,237,238,239,240,241,242,243,244,245,246,247,248,249,250,251,252,253,254,255,256,257,258,259,260,261,262,263,264,265,266,267,268,269,270,271,272,273,274,275,276,277,278,279,280,281,282,283,284,285,286,287,288,289,290,291,292,293,294,295,296,297,298,299,300,301,302,303,304,305,306,307,308,309,310,311,312,313,314,315,316,317,318,319,320,321,322,323,324,325,326,327,328,329,330,331,332,333,334,335,336,337,338,339,340,341,342,343,344,345,346,347,348,349,350,351,352,353,354,355,356,357,358,359,360,361,362,363,364,365,366,367,368,369,370,371,372,373,374,375,376,377,378,379,380,381,382,383,384,385,386,387,388,389,390,391,392,393,394,395,396,397,398,399,400,401,402,403,404,405,406,407,408,409,410,411,412,413,414,415,416,417,418,419,420,421,422,423,424,425,426,427,428,429,430,431,432,433,434,435,436,437,438,439,440,441,442,443,444,445,446,447,448,449,450,451,452,453,454,455,456,457,458,459,460,461,462,463,464,465,466,467,468,469,470,471,472,473,474,475,476,477,478,479,480,481,482,483,484,485,486,487,488,489,490,491,492,493,494,495,496,497,498,499,500,501,502,503,504,505,506,507,508,509,510,511,512,513,514,515,516,517,518,519,520,521,522,523,524,525,526,527,528,529,530,531,532,533,534,535,536,537,538,539,540,541,542],"tree_info":[0,0,0,0,0,0,0,0,0,0,0,0,0,0,0,0,0,0,0,0,0,0,0,0,0,0,0,0,0,0,0,0,0,0,0,0,0,0,0,0,0,0,0,0,0,0,0,0,0,0,0,0,0,0,0,0,0,0,0,0,0,0,0,0,0,0,0,0,0,0,0,0,0,0,0,0,0,0,0,0,0,0,0,0,0,0,0,0,0,0,0,0,0,0,0,0,0,0,0,0,0,0,0,0,0,0,0,0,0,0,0,0,0,0,0,0,0,0,0,0,0,0,0,0,0,0,0,0,0,0,0,0,0,0,0,0,0,0,0,0,0,0,0,0,0,0,0,0,0,0,0,0,0,0,0,0,0,0,0,0,0,0,0,0,0,0,0,0,0,0,0,0,0,0,0,0,0,0,0,0,0,0,0,0,0,0,0,0,0,0,0,0,0,0,0,0,0,0,0,0,0,0,0,0,0,0,0,0,0,0,0,0,0,0,0,0,0,0,0,0,0,0,0,0,0,0,0,0,0,0,0,0,0,0,0,0,0,0,0,0,0,0,0,0,0,0,0,0,0,0,0,0,0,0,0,0,0,0,0,0,0,0,0,0,0,0,0,0,0,0,0,0,0,0,0,0,0,0,0,0,0,0,0,0,0,0,0,0,0,0,0,0,0,0,0,0,0,0,0,0,0,0,0,0,0,0,0,0,0,0,0,0,0,0,0,0,0,0,0,0,0,0,0,0,0,0,0,0,0,0,0,0,0,0,0,0,0,0,0,0,0,0,0,0,0,0,0,0,0,0,0,0,0,0,0,0,0,0,0,0,0,0,0,0,0,0,0,0,0,0,0,0,0,0,0,0,0,0,0,0,0,0,0,0,0,0,0,0,0,0,0,0,0,0,0,0,0,0,0,0,0,0,0,0,0,0,0,0,0,0,0,0,0,0,0,0,0,0,0,0,0,0,0,0,0,0,0,0,0,0,0,0,0,0,0,0,0,0,0,0,0,0,0,0,0,0,0,0,0,0,0,0,0,0,0,0,0,0,0,0,0,0,0,0,0,0,0,0,0,0,0,0,0,0,0,0,0,0,0,0,0,0,0,0,0,0,0,0,0,0,0,0,0,0,0,0,0,0,0,0,0,0,0,0,0,0,0,0,0,0,0,0,0,0,0,0,0,0,0,0,0,0,0,0,0,0,0,0,0,0,0,0,0,0,0,0,0,0,0,0,0,0],"trees":[{"base_weights":[-9.656159E-3,1.5472674E0,-9.6790797E-1,-1.5175503E0,1.6596676E0,-1.4894987E0,-1.1207587E-1,-1.23179324E-1,3.3946437E-4,7.877856E-2,1.1956666E-1,-4.5430563E-2,-1.1656362E-1,4.5196388E-2,-6.284174E-2],"categories":[],"categories_nodes":[],"categories_segments":[],"categories_sizes":[],"default_left":[0,0,0,0,0,0,0,0,0,0,0,0,0,0,0],"id":0,"left_children":[1,3,5,7,9,11,13,-1,-1,-1,-1,-1,-1,-1,-1],"loss_changes":[3.4708934E4,3.0629004E3,6.426081E3,1.6983575E2,5.926465E2,1.9734746E3,3.6560906E3,0E0,0E0,0E0,0E0,0E0,0E0,0E0,0E0],"parents":[2147483647,0,0,1,1,2,2,3,3,4,4,5,5,6,6],"right_children":[2,4,6,8,10,12,14,-1,-1,-1,-1,-1,-1,-1,-1],"split_conditions":[1E0,1E-1,5.374248E-4,6E0,5.25E-1,1E1,1.9E1,-1.23179324E-1,3.3946437E-4,7.877856E-2,1.1956666E-1,-4.5430563E-2,-1.1656362E-1,4.5196388E-2,-6.284174E-2],"split_indices":[1,5,16,0,5,14,14,0,0,0,0,0,0,0,0],"split_type":[0,0,0,0,0,0,0,0,0,0,0,0,0,0,0],"sum_hessian":[2.3257533E4,8.859415E3,1.4398119E4,3.1132263E2,8.548092E3,8.943232E3,5.454886E3,2.5337679E2,5.794583E1,2.109313E3,6.4387793E3,2.2984539E3,6.644779E3,2.7988945E3,2.6559917E3],"tree_param":{"num_deleted":"0","num_feature":"20","num_nodes":"15","size_leaf_vector":"1"}},{"base_weights":[-2.525975E-4,1.4551555E0,-8.8966715E-1,-1.5028554E0,1.561822E0,-1.1763045E0,4.945507E-1,-1.1658895E-1,-5.662256E-3,7.6909676E-2,1.1294074E-1,-1.625236E-2,-1.01076856E-1,7.658657E-2,-2.1027964E-2],"categories":[],"categories_nodes":[],"categories_segments":[],"categories_sizes":[],"default_left":[0,0,0,0,0,0,0,0,0,0,0,0,0,0,0],"id":1,"left_children":[1,3,5,7,9,11,13,-1,-1,-1,-1,-1,-1,-1,-1],"loss_changes":[3.0125701E4,2.79408E3,5.7348994E3,1.1211499E2,4.9288477E2,3.9480586E3,1.345012E3,0E0,0E0,0E0,0E0,0E0,0E0,0E0,0E0],"parents":[2147483647,0,0,1,1,2,2,3,3,4,4,5,5,6,6],"right_children":[2,4,6,8,10,12,14,-1,-1,-1,-1,-1,-1,-1,-1],"split_conditions":[1E0,1E-1,8E0,6E0,5.6666666E-1,1E1,2.2333334E1,-1.1658895E-1,-5.662256E-3,7.6909676E-2,1.1294074E-1,-1.625236E-2,-1.01076856E-1,7.658657E-2,-2.1027964E-2],"split_indices":[1,5,0,0,5,14,14,0,0,0,0,0,0,0,0],"split_type":[0,0,0,0,0,0,0,0,0,0,0,0,0,0,0],"sum_hessian":[2.3265857E4,8.823477E3,1.4442381E4,3.049404E2,8.518536E3,1.1966064E4,2.4763167E3,2.5553868E2,4.9401714E1,2.3398118E3,6.1787246E3,3.3082358E3,8.657829E3,1.361626E3,1.1146907E3],"tree_param":{"num_deleted":"0","num_feature":"20","num_nodes":"15","size_leaf_vector":"1"}},{"base_weights":[7.524021E-3,1.3705117E0,-8.2387465E-1,-1.376757E0,1.4684091E0,-1.3078167E0,-3.6216225E-2,-1.0814788E-1,2.2434507E-2,6.858448E-2,1.0631402E-1,-3.25901E-2,-1.0031817E-1,4.511845E-2,-5.452569E-2],"categories":[],"categories_nodes":[],"categories_segments":[],"categories_sizes":[],"default_left":[0,0,0,0,0,0,0,0,0,0,0,0,0,0,0],"id":2,"left_children":[1,3,5,7,9,11,13,-1,-1,-1,-1,-1,-1,-1,-1],"loss_changes":[2.633125E4,2.3755898E3,5.4990703E3,1.4059851E2,5.0930078E2,1.5367842E3,3.127419E3,0E0,0E0,0E0,0E0,0E0,0E0,0E0,0E0],"parents":[2147483647,0,0,1,1,2,2,3,3,4,4,5,5,6,6],"right_children":[2,4,6,8,10,12,14,-1,-1,-1,-1,-1,-1,-1,-1],"split_conditions":[1E0,1E-1,5.374248E-4,8E0,5.25E-1,8E0,1.9E1,-1.0814788E-1,2.2434507E-2,6.858448E-2,1.0631402E-1,-3.25901E-2,-1.0031817E-1,4.511845E-2,-5.452569E-2],"split_indices":[1,5,16,0,5,14,14,0,0,0,0,0,0,0,0],"split_type":[0,0,0,0,0,0,0,0,0,0,0,0,0,0,0],"sum_hessian":[2.3228303E4,8.800333E3,1.442797E4,3.00631E2,8.499702E3,8.934393E3,5.4935767E3,2.6171478E2,3.8916245E1,2.1249E3,6.3748022E3,1.8496454E3,7.0847476E3,2.8736636E3,2.6199128E3],"tree_param":{"num_deleted":"0","num_feature":"20","num_nodes":"15","size_leaf_vector":"1"}},{"base_weights":[-2.7186694E-3,1.301753E0,-7.803579E-1,-1.4147455E0,1.4004495E0,-1.1411875E0,1.4746273E-1,-1.03507414E-1,1.6352192E-3,6.602074E-2,1.0210326E-1,-2.9039817E-2,-9.4166905E-2,4.711303E-2,-4.3761846E-2],"categories":[],"categories_nodes":[],"categories_segments":[],"categories_sizes":[],"default_left":[0,0,0,0,0,0,0,0,0,0,0,0,0,0,0],"id":3,"left_children":[1,3,5,7,9,11,13,-1,-1,-1,-1,-1,-1,-1,-1],"loss_changes":[2.323508E4,2.300914E3,4.8066504E3,6.878265E1,4.7443848E2,2.063415E3,1.847123E3,0E0,0E0,0E0,0E0,0E0,0E0,0E0,0E0],"parents":[2147483647,0,0,1,1,2,2,3,3,4,4,5,5,6,6],"right_children":[2,4,6,8,10,12,14,-1,-1,-1,-1,-1,-1,-1,-1],"split_conditions":[1E0,1E-1,9.5E1,1.1E1,4.05E0,1.1E1,2.2E1,-1.03507414E-1,1.6352192E-3,6.602074E-2,1.0210326E-1,-2.9039817E-2,-9.4166905E-2,4.711303E-2,-4.3761846E-2],"split_indices":[1,5,19,0,2,14,14,0,0,0,0,0,0,0,0],"split_type":[0,0,0,0,0,0,0,0,0,0,0,0,0,0,0],"sum_hessian":[2.289824E4,8.550563E3,1.4347677E4,2.9752313E2,8.25304E3,1.0330689E4,4.016987E3,2.6944022E2,2.8082932E1,2.220415E3,6.0326255E3,2.9925107E3,7.338179E3,2.365956E3,1.6510309E3],"tree_param":{"num_deleted":"0","num_feature":"20","num_nodes":"15","size_leaf_vector":"1"}},{"base_weights":[5.440689E-3,1.2476323E0,-7.4099195E-1,-1.2137015E0,1.341301E0,-1.0566883E0,2.3182145E-1,-1.0035825E-1,-4.5857085E-3,6.31157E-2,9.7154714E-2,3.8821825E-3,-8.4773034E-2,5.3741675E-2,-3.255336E-2],"categories":[],"categories_nodes":[],"categories_segments":[],"categories_sizes":[],"default_left":[0,0,0,0,0,0,0,0,0,0,0,0,0,0,0],"id":4,"left_children":[1,3,5,7,9,11,13,-1,-1,-1,-1,-1,-1,-1,-1],"loss_changes":[2.1100729E4,1.9757295E3,4.3673994E3,1.07815125E2,4.052539E2,2.7269434E3,1.4731367E3,0E0,0E0,0E0,0E0,0E0,0E0,0E0,0E0],"parents":[2147483647,0,0,1,1,2,2,3,3,4,4,5,5,6,6],"right_children":[2,4,6,8,10,12,14,-1,-1,-1,-1,-1,-1,-1,-1],"split_conditions":[1E0,1.25E-1,6E0,6E0,5.25E-1,6E0,2.3166666E1,-1.0035825E-1,-4.5857085E-3,6.31157E-2,9.7154714E-2,3.8821825E-3,-8.4773034E-2,5.3741675E-2,-3.255336E-2],"split_indices":[1,5,0,0,5,14,14,0,0,0,0,0,0,0,0],"split_type":[0,0,0,0,0,0,0,0,0,0,0,0,0,0,0],"sum_hessian":[2.274891E4,8.538577E3,1.4210332E4,3.108451E2,8.227732E3,1.0729498E4,3.480834E3,2.4321567E2,6.762943E1,2.0936804E3,6.134052E3,1.8176082E3,8.91189E3,1.9311158E3,1.549718E3],"tree_param":{"num_deleted":"0","num_feature":"20","num_nodes":"15","size_leaf_vector":"1"}},{"base_weights":[-2.5433414E-3,1.1879067E0,-7.034233E-1,-1.076342E0,1.2781782E0,-9.46827E-1,4.6806306E-1,-9.594531E-2,4.996492E-3,5.9336238E-2,9.372804E-2,-2.0934144E-2,-8.785219E-2,5.974753E-2,-2.775669E-2],"categories":[],"categories_nodes":[],"categories_segments":[],"categories_sizes":[],"default_left":[0,0,0,0,0,0,0,0,0,0,0,0,0,0,0],"id":5,"left_children":[1,3,5,7,9,11,13,-1,-1,-1,-1,-1,-1,-1,-1],"loss_changes":[1.8653281E4,1.6987285E3,4.0151162E3,1.4096222E2,4.204707E2,2.814838E3,9.4295917E2,0E0,0E0,0E0,0E0,0E0,0E0,0E0,0E0],"parents":[2147483647,0,0,1,1,2,2,3,3,4,4,5,5,6,6],"right_children":[2,4,6,8,10,12,14,-1,-1,-1,-1,-1,-1,-1,-1],"split_conditions":[1E0,1.25E-1,8E0,6E0,4.05E0,1.4E1,3.0333334E1,-9.594531E-2,4.996492E-3,5.9336238E-2,9.372804E-2,-2.0934144E-2,-8.785219E-2,5.974753E-2,-2.775669E-2],"split_indices":[1,5,0,0,2,14,14,0,0,0,0,0,0,0,0],"split_type":[0,0,0,0,0,0,0,0,0,0,0,0,0,0,0],"sum_hessian":[2.23496E4,8.280511E3,1.4069089E4,3.1531256E2,7.965198E3,1.1650353E4,2.4187366E3,2.3769826E2,7.7614296E1,2.177457E3,5.7877417E3,4.418046E3,7.2323066E3,1.6222318E3,7.9650476E2],"tree_param":{"num_deleted":"0","num_feature":"20","num_nodes":"15","size_leaf_vector":"1"}},{"base_weights":[-2.2102217E-3,-4.773139E-1,7.9814017E-1,-1.3560852E0,-2.988227E-1,5.1071626E-1,1.2139633E0,-9.230349E-2,-1.6972579E-2,-3.071392E-2,6.128216E-3,2.3477573E-2,5.8887813E-2,7.084521E-2,9.2453405E-2],"categories":[],"categories_nodes":[],"categories_segments":[],"categories_sizes":[],"default_left":[0,0,0,0,0,0,0,0,0,0,0,0,0,0,0],"id":6,"left_children":[1,3,5,7,9,11,13,-1,-1,-1,-1,-1,-1,-1,-1],"loss_changes":[8.349344E3,2.1576643E3,9.727666E2,1.04354004E2,7.4791895E2,2.83552E2,7.860156E1,0E0,0E0,0E0,0E0,0E0,0E0,0E0,0E0],"parents":[2147483647,0,0,1,1,2,2,3,3,4,4,5,5,6,6],"right_children":[2,4,6,8,10,12,14,-1,-1,-1,-1,-1,-1,-1,-1],"split_conditions":[6E0,1E-1,1.4E1,1.1246E2,5.374248E-4,4.411765E-2,2.6E1,-9.230349E-2,-1.6972579E-2,-3.071392E-2,6.128216E-3,2.3477573E-2,5.8887813E-2,7.084521E-2,9.2453405E-2],"split_indices":[0,5,0,11,16,13,0,0,0,0,0,0,0,0,0],"split_type":[0,0,0,0,0,0,0,0,0,0,0,0,0,0,0],"sum_hessian":[2.1951186E4,1.3776451E4,8.1747334E3,2.3203047E3,1.1456146E4,4.840552E3,3.3341816E3,2.232149E3,8.815577E1,8.0410034E3,3.4151433E3,3.4493257E3,1.3912261E3,1.9199772E3,1.4142046E3],"tree_param":{"num_deleted":"0","num_feature":"20","num_nodes":"15","size_leaf_vector":"1"}},{"base_weights":[-4.113138E-3,1.1177338E0,-6.5138316E-1,-9.718104E-1,1.2098823E0,-1.0553935E0,1.3328179E-2,-8.264895E-2,1.9846978E-2,5.6037597E-2,8.9630954E-2,-8.056925E-2,-3.1263087E-2,-3.048802E-2,5.0029136E-2],"categories":[],"categories_nodes":[],"categories_segments":[],"categories_sizes":[],"default_left":[0,0,0,0,0,0,0,0,0,0,0,0,0,0,0],"id":7,"left_children":[1,3,5,7,9,11,13,-1,-1,-1,-1,-1,-1,-1,-1],"loss_changes":[1.5870325E4,1.5443584E3,3.7237847E3,1.2370047E2,4.0182617E2,8.241758E2,1.8566263E3,0E0,0E0,0E0,0E0,0E0,0E0,0E0,0E0],"parents":[2147483647,0,0,1,1,2,2,3,3,4,4,5,5,6,6],"right_children":[2,4,6,8,10,12,14,-1,-1,-1,-1,-1,-1,-1,-1],"split_conditions":[1E0,1.6666667E-1,5.6903803E-4,1.1E1,5.7575756E-1,4.9250748E-2,4.318627E-2,-8.264895E-2,1.9846978E-2,5.6037597E-2,8.9630954E-2,-8.056925E-2,-3.1263087E-2,-3.048802E-2,5.0029136E-2],"split_indices":[1,5,16,4,5,13,13,0,0,0,0,0,0,0,0],"split_type":[0,0,0,0,0,0,0,0,0,0,0,0,0,0,0],"sum_hessian":[2.184916E4,7.9922134E3,1.3856947E4,3.3542136E2,7.656792E3,8.618501E3,5.2384463E3,2.7581088E2,5.9610474E1,2.2366543E3,5.4201377E3,6.707346E3,1.9111544E3,3.1973997E3,2.0410465E3],"tree_param":{"num_deleted":"0","num_feature":"20","num_nodes":"15","size_leaf_vector":"1"}},{"base_weights":[-2.4325447E-3,-5.8132035E-1,5.584835E-1,-1.2874233E0,-4.045347E-1,3.0871955E-1,1.0898023E0,-1.7169302E-2,-9.301619E-2,1.9311981E-2,-3.430957E-2,5.126813E-2,1.1050118E-2,6.017406E-2,8.390409E-2],"categories":[],"categories_nodes":[],"categories_segments":[],"categories_sizes":[],"default_left":[0,0,0,0,0,0,0,0,0,0,0,0,0,0,0],"id":8,"left_children":[1,3,5,7,9,11,13,-1,-1,-1,-1,-1,-1,-1,-1],"loss_changes":[6.965508E3,1.3136362E3,1.4424485E3,2.603064E2,6.797965E2,4.8872498E2,1.05075195E2,0E0,0E0,0E0,0E0,0E0,0E0,0E0,0E0],"parents":[2147483647,0,0,1,1,2,2,3,3,4,4,5,5,6,6],"right_children":[2,4,6,8,10,12,14,-1,-1,-1,-1,-1,-1,-1,-1],"split_conditions":[4E0,1E-1,1.3E1,5.75E0,5E0,1.2666667E1,2.2E1,-1.7169302E-2,-9.301619E-2,1.9311981E-2,-3.430957E-2,5.126813E-2,1.1050118E-2,6.017406E-2,8.390409E-2],"split_indices":[0,5,0,14,14,14,0,0,0,0,0,0,0,0,0],"split_type":[0,0,0,0,0,0,0,0,0,0,0,0,0,0,0],"sum_hessian":[2.1444027E4,1.0554097E4,1.0889932E4,2.107016E3,8.44708E3,7.413505E3,3.4764263E3,2.2568169E2,1.8813345E3,1.1958246E3,7.251256E3,1.7132543E3,5.7002505E3,1.768602E3,1.7078243E3],"tree_param":{"num_deleted":"0","num_feature":"20","num_nodes":"15","size_leaf_vector":"1"}},{"base_weights":[2.0577968E-3,1.0742619E0,-6.049422E-1,-5.740862E-1,1.1734588E0,-0E0,-9.891619E-1,-7.949528E-2,-0E0,5.7815254E-2,8.808499E-2,-3.5865866E-2,4.8699852E-2,-7.444102E-2,2.3747416E-2],"categories":[],"categories_nodes":[],"categories_segments":[],"categories_sizes":[],"default_left":[0,0,0,0,0,0,0,0,0,0,0,0,0,0,0],"id":9,"left_children":[1,3,5,7,9,11,13,-1,-1,-1,-1,-1,-1,-1,-1],"loss_changes":[1.3916515E4,1.2672871E3,3.172413E3,1.5905368E2,3.4197266E2,2.1289453E3,1.5633345E3,0E0,0E0,0E0,0E0,0E0,0E0,0E0,0E0],"parents":[2147483647,0,0,1,1,2,2,3,3,4,4,5,5,6,6],"right_children":[2,4,6,8,10,12,14,-1,-1,-1,-1,-1,-1,-1,-1],"split_conditions":[1E0,2.2222222E-1,1.4E1,5E0,6.4102566E-1,5.2E1,1.2E1,-7.949528E-2,-0E0,5.7815254E-2,8.808499E-2,-3.5865866E-2,4.8699852E-2,-7.444102E-2,2.3747416E-2],"split_indices":[1,5,14,4,5,19,4,0,0,0,0,0,0,0,0],"split_type":[0,0,0,0,0,0,0,0,0,0,0,0,0,0,0],"sum_hessian":[2.1374283E4,7.7261675E3,1.3648116E4,4.3675555E2,7.2894116E3,5.303509E3,8.344607E3,2.0600124E2,2.3075432E2,2.570688E3,4.718724E3,3.055318E3,2.2481904E3,7.5686177E3,7.7598956E2],"tree_param":{"num_deleted":"0","num_feature":"20","num_nodes":"15","size_leaf_vector":"1"}},{"base_weights":[3.3906365E-3,1.0287502E0,-5.7608414E-1,-6.9698775E-3,1.1811439E0,1.9180572E-2,-9.233147E-1,-6.209741E-2,2.352935E-2,6.8228014E-2,9.220894E-2,-3.0810364E-2,4.6570767E-2,-7.05303E-2,2.6822798E-2],"categories":[],"categories_nodes":[],"categories_segments":[],"categories_sizes":[],"default_left":[0,0,0,0,0,0,0,0,0,0,0,0,0,0,0],"id":10,"left_children":[1,3,5,7,9,11,13,-1,-1,-1,-1,-1,-1,-1,-1],"loss_changes":[1.2440982E4,1.1950454E3,2.766144E3,3.3205954E2,2.0106836E2,1.6459752E3,1.6338896E3,0E0,0E0,0E0,0E0,0E0,0E0,0E0,0E0],"parents":[2147483647,0,0,1,1,2,2,3,3,4,4,5,5,6,6],"right_children":[2,4,6,8,10,12,14,-1,-1,-1,-1,-1,-1,-1,-1],"split_conditions":[1E0,3.6363637E-1,1.3E1,1E-1,8.5714287E-1,5.2E1,1.2E1,-6.209741E-2,2.352935E-2,6.8228014E-2,9.220894E-2,-3.0810364E-2,4.6570767E-2,-7.05303E-2,2.6822798E-2],"split_indices":[1,5,14,5,5,19,0,0,0,0,0,0,0,0,0],"split_type":[0,0,0,0,0,0,0,0,0,0,0,0,0,0,0],"sum_hessian":[2.0929863E4,7.5571772E3,1.3372687E4,9.686239E2,6.588553E3,4.926561E3,8.446125E3,2.7076132E2,6.9786255E2,3.9300947E3,2.6584585E3,2.8839058E3,2.0426554E3,7.616237E3,8.298884E2],"tree_param":{"num_deleted":"0","num_feature":"20","num_nodes":"15","size_leaf_vector":"1"}},{"base_weights":[6.834484E-3,9.994044E-1,-5.4609966E-1,-6.7341274E-1,1.0835212E0,-7.73107E-1,3.5E-1,-7.8547984E-2,-0E0,5.0408557E-2,8.226616E-2,8.079298E-3,-6.3301206E-2,5.0852176E-2,-2.8749278E-2],"categories":[],"categories_nodes":[],"categories_segments":[],"categories_sizes":[],"default_left":[0,0,0,0,0,0,0,0,0,0,0,0,0,0,0],"id":11,"left_children":[1,3,5,7,9,11,13,-1,-1,-1,-1,-1,-1,-1,-1],"loss_changes":[1.1243348E4,1.0347012E3,2.677659E3,1.2185605E2,3.5712988E2,1.7492051E3,8.8026917E2,0E0,0E0,0E0,0E0,0E0,0E0,0E0,0E0],"parents":[2147483647,0,0,1,1,2,2,3,3,4,4,5,5,6,6],"right_children":[2,4,6,8,10,12,14,-1,-1,-1,-1,-1,-1,-1,-1],"split_conditions":[1E0,2E-1,1.4070114E-5,6E0,4.2222223E0,6E0,2.575E1,-7.8547984E-2,-0E0,5.0408557E-2,8.226616E-2,8.079298E-3,-6.3301206E-2,5.0852176E-2,-2.8749278E-2],"split_indices":[1,5,17,0,2,14,14,0,0,0,0,0,0,0,0],"split_type":[0,0,0,0,0,0,0,0,0,0,0,0,0,0,0],"sum_hessian":[2.0477553E4,7.3260483E3,1.3151504E4,3.487051E2,6.9773433E3,1.0494902E4,2.6566018E3,1.9517139E2,1.535337E2,2.3633926E3,4.6139507E3,1.8029554E3,8.691946E3,1.7316912E3,9.2491064E2],"tree_param":{"num_deleted":"0","num_feature":"20","num_nodes":"15","size_leaf_vector":"1"}},{"base_weights":[-6.3288575E-3,9.536668E-1,-5.250436E-1,-1.4557627E-2,1.10284E0,-7.31277E-1,4.0122995E-1,-6.455583E-2,2.1661643E-2,5.87947E-2,8.427105E-2,-1.5707642E-2,-7.192754E-2,4.790942E-2,-2.9600995E-2],"categories":[],"categories_nodes":[],"categories_segments":[],"categories_sizes":[],"default_left":[0,0,0,0,0,0,0,0,0,0,0,0,0,0,0],"id":12,"left_children":[1,3,5,7,9,11,13,-1,-1,-1,-1,-1,-1,-1,-1],"loss_changes":[9.976682E3,1.0165654E3,2.4865693E3,3.1270038E2,2.1732861E2,1.8787734E3,6.552566E2,0E0,0E0,0E0,0E0,0E0,0E0,0E0,0E0],"parents":[2147483647,0,0,1,1,2,2,3,3,4,4,5,5,6,6],"right_children":[2,4,6,8,10,12,14,-1,-1,-1,-1,-1,-1,-1,-1],"split_conditions":[1E0,3.6363637E-1,8E0,1E-1,4.5119047E0,1.5E1,3.6E1,-6.455583E-2,2.1661643E-2,5.87947E-2,8.427105E-2,-1.5707642E-2,-7.192754E-2,4.790942E-2,-2.9600995E-2],"split_indices":[1,5,0,5,2,14,14,0,0,0,0,0,0,0,0],"split_type":[0,0,0,0,0,0,0,0,0,0,0,0,0,0,0],"sum_hessian":[2.0028596E4,7.0237656E3,1.3004829E4,9.368959E2,6.08687E3,1.063847E4,2.3663599E3,2.4505818E2,6.918377E2,2.7554907E3,3.3313792E3,4.4809146E3,6.157555E3,1.7138339E3,6.52526E2],"tree_param":{"num_deleted":"0","num_feature":"20","num_nodes":"15","size_leaf_vector":"1"}},{"base_weights":[-3.0160523E-3,9.2529625E-1,-4.9517065E-1,-0E0,1.0694138E0,-7.7631646E-1,1.8374138E-1,-5.754563E-2,2.020867E-2,5.76291E-2,8.334005E-2,-1.3600615E-2,-6.670757E-2,3.1654496E-2,-3.9432395E-2],"categories":[],"categories_nodes":[],"categories_segments":[],"categories_sizes":[],"default_left":[0,0,0,0,0,0,0,0,0,0,0,0,0,0,0],"id":13,"left_children":[1,3,5,7,9,11,13,-1,-1,-1,-1,-1,-1,-1,-1],"loss_changes":[8.941733E3,9.0543896E2,2.4430696E3,2.4626239E2,2.1546631E2,1.2064312E3,8.6689966E2,0E0,0E0,0E0,0E0,0E0,0E0,0E0,0E0],"parents":[2147483647,0,0,1,1,2,2,3,3,4,4,5,5,6,6],"right_children":[2,4,6,8,10,12,14,-1,-1,-1,-1,-1,-1,-1,-1],"split_conditions":[1E0,3.6363637E-1,1.01E2,1E-1,7.777778E-1,1E1,3.25E1,-5.754563E-2,2.020867E-2,5.76291E-2,8.334005E-2,-1.3600615E-2,-6.670757E-2,3.1654496E-2,-3.9432395E-2],"split_indices":[1,5,19,5,5,14,14,0,0,0,0,0,0,0,0],"split_type":[0,0,0,0,0,0,0,0,0,0,0,0,0,0,0],"sum_hessian":[1.9565355E4,6.7767676E3,1.2788588E4,9.126761E2,5.864092E3,9.044599E3,3.7439893E3,2.3639217E2,6.7628394E2,2.9218271E3,2.9422646E3,2.6374937E3,6.407105E3,2.717926E3,1.0260634E3],"tree_param":{"num_deleted":"0","num_feature":"20","num_nodes":"15","size_leaf_vector":"1"}},{"base_weights":[1.5534735E-2,9.0307856E-1,-4.5094684E-1,1.0235351E0,1.2609745E-4,-7.374364E-1,1.6119994E-1,6.000776E-2,8.361162E-2,1.3291507E-2,-7.4549794E-2,8.544477E-3,-6.287814E-2,4.4976823E-2,-2.0431321E-2],"categories":[],"categories_nodes":[],"categories_segments":[],"categories_sizes":[],"default_left":[0,0,0,0,0,0,0,0,0,0,0,0,0,0,0],"id":14,"left_children":[1,3,5,7,9,11,13,-1,-1,-1,-1,-1,-1,-1,-1],"loss_changes":[8.0499985E3,7.272168E2,2.236014E3,1.5710205E2,1.7995984E2,1.620958E3,9.964481E2,0E0,0E0,0E0,0E0,0E0,0E0,0E0,0E0],"parents":[2147483647,0,0,1,1,2,2,3,3,4,4,5,5,6,6],"right_children":[2,4,6,8,10,12,14,-1,-1,-1,-1,-1,-1,-1,-1],"split_conditions":[1E0,8.973387E-1,5E0,7.6913357E-1,2.230672E0,6E0,1.9E1,6.000776E-2,8.361162E-2,1.3291507E-2,-7.4549794E-2,8.544477E-3,-6.287814E-2,4.4976823E-2,-2.0431321E-2],"split_indices":[1,7,0,7,7,14,14,0,0,0,0,0,0,0,0],"split_type":[0,0,0,0,0,0,0,0,0,0,0,0,0,0,0],"sum_hessian":[1.9434408E4,6.6952437E3,1.2739164E4,5.905416E3,7.898278E2,8.678866E3,4.0602979E3,4.0314888E3,1.8739271E3,6.740486E2,1.15779274E2,1.7246904E3,6.9541763E3,1.9294163E3,2.1308816E3],"tree_param":{"num_deleted":"0","num_feature":"20","num_nodes":"15","size_leaf_vector":"1"}},{"base_weights":[6.087182E-3,8.652484E-1,-4.3862402E-1,-4.0431574E-2,1.0096432E0,-7.275224E-1,1.2894197E-1,-5.5444732E-2,1.5666427E-2,5.293629E-2,7.8583986E-2,-5.7115998E-2,1.6886568E-2,-2.0816142E-2,4.6275117E-2],"categories":[],"categories_nodes":[],"categories_segments":[],"categories_sizes":[],"default_left":[0,0,0,0,0,0,0,0,0,0,0,0,0,0,0],"id":15,"left_children":[1,3,5,7,9,11,13,-1,-1,-1,-1,-1,-1,-1,-1],"loss_changes":[7.2470645E3,8.4757324E2,2.0501665E3,1.9967236E2,2.0333154E2,1.1238081E3,1.0732081E3,0E0,0E0,0E0,0E0,0E0,0E0,0E0,0E0],"parents":[2147483647,0,0,1,1,2,2,3,3,4,4,5,5,6,6],"right_children":[2,4,6,8,10,12,14,-1,-1,-1,-1,-1,-1,-1,-1],"split_conditions":[1E0,3.6363637E-1,4.318627E-2,1E-1,4.5119047E0,1E1,6.428022E-4,-5.5444732E-2,1.5666427E-2,5.293629E-2,7.8583986E-2,-5.7115998E-2,1.6886568E-2,-2.0816142E-2,4.6275117E-2],"split_indices":[1,5,13,5,2,0,16,0,0,0,0,0,0,0,0],"split_type":[0,0,0,0,0,0,0,0,0,0,0,0,0,0,0],"sum_hessian":[1.895844E4,6.465991E3,1.2492448E4,8.881924E2,5.577799E3,8.279464E3,4.212985E3,2.2832793E2,6.5986444E2,2.6095916E3,2.9682073E3,7.263688E3,1.0157758E3,2.3709722E3,1.8420126E3],"tree_param":{"num_deleted":"0","num_feature":"20","num_nodes":"15","size_leaf_vector":"1"}},{"base_weights":[2.4128668E-3,8.3613336E-1,-4.1690493E-1,-3.7994307E-2,9.807328E-1,-6.267011E-1,3.1049168E-1,-5.5511363E-2,1.6133953E-2,5.0776776E-2,7.723774E-2,-1.3702982E-2,-6.1715785E-2,4.152637E-2,-2.732286E-2],"categories":[],"categories_nodes":[],"categories_segments":[],"categories_sizes":[],"default_left":[0,0,0,0,0,0,0,0,0,0,0,0,0,0,0],"id":16,"left_children":[1,3,5,7,9,11,13,-1,-1,-1,-1,-1,-1,-1,-1],"loss_changes":[6.473657E3,7.8476807E2,1.8810635E3,2.0159361E2,2.0699316E2,1.2333242E3,6.380142E2,0E0,0E0,0E0,0E0,0E0,0E0,0E0,0E0],"parents":[2147483647,0,0,1,1,2,2,3,3,4,4,5,5,6,6],"right_children":[2,4,6,8,10,12,14,-1,-1,-1,-1,-1,-1,-1,-1],"split_conditions":[1E0,3.6363637E-1,1.3904139E-5,1.25E-1,4.5119047E0,1.5E1,2.9E1,-5.5511363E-2,1.6133953E-2,5.0776776E-2,7.723774E-2,-1.3702982E-2,-6.1715785E-2,4.152637E-2,-2.732286E-2],"split_indices":[1,5,17,5,2,14,14,0,0,0,0,0,0,0,0],"split_type":[0,0,0,0,0,0,0,0,0,0,0,0,0,0,0],"sum_hessian":[1.8508492E4,6.193547E3,1.2314946E4,8.7816095E2,5.3153857E3,9.560046E3,2.7549001E3,2.2782956E2,6.5033136E2,2.5236648E3,2.7917212E3,4.0562263E3,5.50382E3,1.9150242E3,8.398761E2],"tree_param":{"num_deleted":"0","num_feature":"20","num_nodes":"15","size_leaf_vector":"1"}},{"base_weights":[-1.5104843E-3,8.0595E-1,-4.0247935E-1,2.7643325E-2,9.744463E-1,-7.3803806E-1,8.773337E-2,-1.0332168E-2,6.0950123E-2,5.1452935E-2,7.67119E-2,-6.0416907E-2,-2.6439645E-3,-1.3502749E-2,3.836492E-2],"categories":[],"categories_nodes":[],"categories_segments":[],"categories_sizes":[],"default_left":[0,0,0,0,0,0,0,0,0,0,0,0,0,0,0],"id":17,"left_children":[1,3,5,7,9,11,13,-1,-1,-1,-1,-1,-1,-1,-1],"loss_changes":[5.841618E3,7.835564E2,1.9846582E3,1.7822214E2,1.7394092E2,8.844392E2,7.079907E2,0E0,0E0,0E0,0E0,0E0,0E0,0E0,0E0],"parents":[2147483647,0,0,1,1,2,2,3,3,4,4,5,5,6,6],"right_children":[2,4,6,8,10,12,14,-1,-1,-1,-1,-1,-1,-1,-1],"split_conditions":[1E0,4.1666666E-1,4E0,2.2E1,7.777778E-1,5.7971016E-2,4.318627E-2,-1.0332168E-2,6.0950123E-2,5.1452935E-2,7.67119E-2,-6.0416907E-2,-2.6439645E-3,-1.3502749E-2,3.836492E-2],"split_indices":[1,5,0,0,5,13,13,0,0,0,0,0,0,0,0],"split_type":[0,0,0,0,0,0,0,0,0,0,0,0,0,0,0],"sum_hessian":[1.8036879E4,5.9824165E3,1.2054463E4,1.0668851E3,4.9155312E3,7.1565776E3,4.8978857E3,8.862303E2,1.8065482E2,2.424365E3,2.4911663E3,5.7046924E3,1.4518849E3,3.075587E3,1.8222987E3],"tree_param":{"num_deleted":"0","num_feature":"20","num_nodes":"15","size_leaf_vector":"1"}},{"base_weights":[-1.4426102E-4,7.810843E-1,-3.8152936E-1,4.8733544E-2,9.4903964E-1,-6.796001E-1,1.2513968E-1,-1.1985929E-2,5.4397177E-2,5.1692467E-2,7.863005E-2,-5.890475E-2,-2.219576E-2,-6.5069734E-3,4.7797497E-2],"categories":[],"categories_nodes":[],"categories_segments":[],"categories_sizes":[],"default_left":[0,0,0,0,0,0,0,0,0,0,0,0,0,0,0],"id":18,"left_children":[1,3,5,7,9,11,13,-1,-1,-1,-1,-1,-1,-1,-1],"loss_changes":[5.317417E3,7.184927E2,1.8125621E3,1.9744815E2,1.8504053E2,5.490801E2,5.966641E2,0E0,0E0,0E0,0E0,0E0,0E0,0E0,0E0],"parents":[2147483647,0,0,1,1,2,2,3,3,4,4,5,5,6,6],"right_children":[2,4,6,8,10,12,14,-1,-1,-1,-1,-1,-1,-1,-1],"split_conditions":[1E0,4.1666666E-1,6.5E1,1.7E1,8.5714287E-1,3E0,8.865371E1,-1.1985929E-2,5.4397177E-2,5.1692467E-2,7.863005E-2,-5.890475E-2,-2.219576E-2,-6.5069734E-3,4.7797497E-2],"split_indices":[1,5,19,0,5,0,11,0,0,0,0,0,0,0,0],"split_type":[0,0,0,0,0,0,0,0,0,0,0,0,0,0,0],"sum_hessian":[1.784107E4,5.8501274E3,1.1990942E4,1.0937972E3,4.75633E3,7.5504736E3,4.4404683E3,8.4415063E2,2.4964667E2,2.8353967E3,1.9209333E3,4.6553174E3,2.8951565E3,3.2335679E3,1.2069006E3],"tree_param":{"num_deleted":"0","num_feature":"20","num_nodes":"15","size_leaf_vector":"1"}},{"base_weights":[1.6354563E-3,7.563642E-1,-3.5797378E-1,3.2556918E-1,9.956183E-1,-3.99378E-2,-8.0478436E-1,3.139528E-2,-3.680134E-2,5.542634E-2,7.792088E-2,-3.261237E-2,2.675131E-2,-6.1245076E-2,2.9415572E-2],"categories":[],"categories_nodes":[],"categories_segments":[],"categories_sizes":[],"default_left":[0,0,0,0,0,0,0,0,0,0,0,0,0,0,0],"id":19,"left_children":[1,3,5,7,9,11,13,-1,-1,-1,-1,-1,-1,-1,-1],"loss_changes":[4.7265425E3,5.7627124E2,1.67443E3,2.6784753E2,9.7539795E1,1.3948541E3,7.564209E2,0E0,0E0,0E0,0E0,0E0,0E0,0E0,0E0],"parents":[2147483647,0,0,1,1,2,2,3,3,4,4,5,5,6,6],"right_children":[2,4,6,8,10,12,14,-1,-1,-1,-1,-1,-1,-1,-1],"split_conditions":[1E0,4.0833335E0,2.3E1,1.3973386E0,4.8125E0,3E0,1.4E1,3.139528E-2,-3.680134E-2,5.542634E-2,7.792088E-2,-3.261237E-2,2.675131E-2,-6.1245076E-2,2.9415572E-2],"split_indices":[1,2,14,7,2,0,0,0,0,0,0,0,0,0,0],"split_type":[0,0,0,0,0,0,0,0,0,0,0,0,0,0,0],"sum_hessian":[1.7405402E4,5.616814E3,1.1788588E4,2.0108171E3,3.605997E3,6.8908896E3,4.897698E3,1.7215763E3,2.8924094E2,1.9713872E3,1.6346097E3,3.4126091E3,3.4782805E3,4.460773E3,4.3692523E2],"tree_param":{"num_deleted":"0","num_feature":"20","num_nodes":"15","size_leaf_vector":"1"}},{"base_weights":[1.9115248E-3,7.3257416E-1,-3.4301698E-1,-5.1119678E-2,8.803745E-1,1.007216E-1,-6.371775E-1,-4.2078987E-2,2.403402E-2,4.669854E-2,7.485085E-2,-2.0427627E-2,3.6881138E-2,-6.1825603E-2,-7.299558E-3],"categories":[],"categories_nodes":[],"categories_segments":[],"categories_sizes":[],"default_left":[0,0,0,0,0,0,0,0,0,0,0,0,0,0,0],"id":20,"left_children":[1,3,5,7,9,11,13,-1,-1,-1,-1,-1,-1,-1,-1],"loss_changes":[4.3107725E3,6.3673E2,1.517294E3,2.1368013E2,1.9689404E2,8.7127924E2,1.1001304E3,0E0,0E0,0E0,0E0,0E0,0E0,0E0,0E0],"parents":[2147483647,0,0,1,1,2,2,3,3,4,4,5,5,6,6],"right_children":[2,4,6,8,10,12,14,-1,-1,-1,-1,-1,-1,-1,-1],"split_conditions":[1E0,3.6363637E-1,1.3E1,6E0,8.235294E-1,3E0,5E0,-4.2078987E-2,2.403402E-2,4.669854E-2,7.485085E-2,-2.0427627E-2,3.6881138E-2,-6.1825603E-2,-7.299558E-3],"split_indices":[1,5,14,0,5,0,0,0,0,0,0,0,0,0,0],"split_type":[0,0,0,0,0,0,0,0,0,0,0,0,0,0,0],"sum_hessian":[1.7094814E4,5.4820176E3,1.1612798E4,8.6874365E2,4.613274E3,4.628514E3,6.9842837E3,3.6069458E2,5.0804907E2,2.754691E3,1.8585829E3,2.4407852E3,2.187729E3,4.4488164E3,2.5354673E3],"tree_param":{"num_deleted":"0","num_feature":"20","num_nodes":"15","size_leaf_vector":"1"}},{"base_weights":[1.2603506E-2,7.027346E-1,-3.0802545E-1,2.6388535E-1,9.556103E-1,-6.223631E-1,1.1725614E-1,-3.9144743E-2,2.6153151E-2,5.2099347E-2,7.529193E-2,-1.0263823E-2,-5.6201044E-2,4.7178812E-2,-1.0465064E-2],"categories":[],"categories_nodes":[],"categories_segments":[],"categories_sizes":[],"default_left":[0,0,0,0,0,0,0,0,0,0,0,0,0,0,0],"id":21,"left_children":[1,3,5,7,9,11,13,-1,-1,-1,-1,-1,-1,-1,-1],"loss_changes":[3.7261907E3,5.9023413E2,1.5376248E3,2.2288239E2,9.816113E1,7.0522046E2,8.064343E2,0E0,0E0,0E0,0E0,0E0,0E0,0E0,0E0],"parents":[2147483647,0,0,1,1,2,2,3,3,4,4,5,5,6,6],"right_children":[2,4,6,8,10,12,14,-1,-1,-1,-1,-1,-1,-1,-1],"split_conditions":[1E0,4.05E0,5.374248E-4,2.75E0,4.774194E0,1E1,1E1,-3.9144743E-2,2.6153151E-2,5.2099347E-2,7.529193E-2,-1.0263823E-2,-5.6201044E-2,4.7178812E-2,-1.0465064E-2],"split_indices":[1,2,16,2,2,14,14,0,0,0,0,0,0,0,0],"split_type":[0,0,0,0,0,0,0,0,0,0,0,0,0,0,0],"sum_hessian":[1.6829666E4,5.3385767E3,1.149109E4,1.9564369E3,3.3821396E3,6.608246E3,4.8828438E3,2.5855975E2,1.6978772E3,1.7954778E3,1.5866617E3,2.1791304E3,4.4291157E3,1.5417737E3,3.3410703E3],"tree_param":{"num_deleted":"0","num_feature":"20","num_nodes":"15","size_leaf_vector":"1"}},{"base_weights":[-3.7084026E-3,6.7549986E-1,-3.135845E-1,2.4623612E-1,9.4900244E-1,-5.4313475E-1,2.2407198E-1,-4.1725E-2,2.543235E-2,5.1849734E-2,7.55476E-2,-5.548634E-2,-8.28542E-3,-1.0361246E-2,4.2926613E-2],"categories":[],"categories_nodes":[],"categories_segments":[],"categories_sizes":[],"default_left":[0,0,0,0,0,0,0,0,0,0,0,0,0,0,0],"id":22,"left_children":[1,3,5,7,9,11,13,-1,-1,-1,-1,-1,-1,-1,-1],"loss_changes":[3.4349814E3,5.977068E2,1.384468E3,2.4445435E2,9.3683105E1,9.745654E2,5.459847E2,0E0,0E0,0E0,0E0,0E0,0E0,0E0,0E0],"parents":[2147483647,0,0,1,1,2,2,3,3,4,4,5,5,6,6],"right_children":[2,4,6,8,10,12,14,-1,-1,-1,-1,-1,-1,-1,-1],"split_conditions":[1E0,5.7575756E-1,4.786325E-2,1.6666667E-1,8.8235295E-1,4E0,5.374248E-4,-4.1725E-2,2.543235E-2,5.1849734E-2,7.55476E-2,-5.548634E-2,-8.28542E-3,-1.0361246E-2,4.2926613E-2],"split_indices":[1,5,13,5,5,0,16,0,0,0,0,0,0,0,0],"split_type":[0,0,0,0,0,0,0,0,0,0,0,0,0,0,0],"sum_hessian":[1.6315324E4,5.1087427E3,1.1206582E4,1.9929607E3,3.1157817E3,7.8553125E3,3.3512698E3,2.6921326E2,1.7237474E3,1.7109467E3,1.4048351E3,4.5834434E3,3.271869E3,1.7690211E3,1.5822487E3],"tree_param":{"num_deleted":"0","num_feature":"20","num_nodes":"15","size_leaf_vector":"1"}},{"base_weights":[3.5477548E-3,6.5452874E-1,-2.8488666E-1,2.2905435E-1,9.119075E-1,4.6578564E-2,-6.600327E-1,-3.8716678E-2,2.3946283E-2,4.9263693E-2,7.4749276E-2,-2.2265363E-2,2.8340664E-2,-5.077026E-2,4.249665E-2],"categories":[],"categories_nodes":[],"categories_segments":[],"categories_sizes":[],"default_left":[0,0,0,0,0,0,0,0,0,0,0,0,0,0,0],"id":23,"left_children":[1,3,5,7,9,11,13,-1,-1,-1,-1,-1,-1,-1,-1],"loss_changes":[3.0254585E3,5.394768E2,1.3889808E3,2.046585E2,1.0668408E2,8.7171625E2,7.473196E2,0E0,0E0,0E0,0E0,0E0,0E0,0E0,0E0],"parents":[2147483647,0,0,1,1,2,2,3,3,4,4,5,5,6,6],"right_children":[2,4,6,8,10,12,14,-1,-1,-1,-1,-1,-1,-1,-1],"split_conditions":[1E0,4.05E0,1.9E1,1.6666667E-1,8.8235295E-1,3E0,1.6E1,-3.8716678E-2,2.3946283E-2,4.9263693E-2,7.4749276E-2,-2.2265363E-2,2.8340664E-2,-5.077026E-2,4.249665E-2],"split_indices":[1,2,14,5,5,0,0,0,0,0,0,0,0,0,0],"split_type":[0,0,0,0,0,0,0,0,0,0,0,0,0,0,0],"sum_hessian":[1.6102773E4,4.944134E3,1.115864E4,1.8682216E3,3.075912E3,5.9240166E3,5.234623E3,2.5991745E2,1.6083041E3,1.769774E3,1.3061381E3,2.9561133E3,2.9679033E3,4.832765E3,4.01858E2],"tree_param":{"num_deleted":"0","num_feature":"20","num_nodes":"15","size_leaf_vector":"1"}},{"base_weights":[-2.9861026E-3,-2.7494052E-1,4.5439917E-1,-8.907663E-1,-1.644921E-1,2.7759224E-1,8.791973E-1,-2.4208672E-2,-7.1462505E-2,-2.0112094E-2,1.8841315E-2,4.3872695E-2,1.0317079E-2,4.770993E-2,6.759509E-2],"categories":[],"categories_nodes":[],"categories_segments":[],"categories_sizes":[],"default_left":[0,0,0,0,0,0,0,0,0,0,0,0,0,0,0],"id":24,"left_children":[1,3,5,7,9,11,13,-1,-1,-1,-1,-1,-1,-1,-1],"loss_changes":[1.9682319E3,6.731508E2,4.4054895E2,1.480044E2,5.316913E2,1.9439786E2,3.399646E1,0E0,0E0,0E0,0E0,0E0,0E0,0E0,0E0],"parents":[2147483647,0,0,1,1,2,2,3,3,4,4,5,5,6,6],"right_children":[2,4,6,8,10,12,14,-1,-1,-1,-1,-1,-1,-1,-1],"split_conditions":[6E0,1E-1,1.7E1,1.1E1,9.0935E1,1.2666667E1,2.6E1,-2.4208672E-2,-7.1462505E-2,-2.0112094E-2,1.8841315E-2,4.3872695E-2,1.0317079E-2,4.770993E-2,6.759509E-2],"split_indices":[0,5,0,14,11,14,0,0,0,0,0,0,0,0,0],"split_type":[0,0,0,0,0,0,0,0,0,0,0,0,0,0,0],"sum_hessian":[1.5817785E4,9.922517E3,5.8952686E3,1.5030353E3,8.419481E3,4.1693745E3,1.725894E3,4.0769226E2,1.0953429E3,6.4224995E3,1.9969819E3,9.8807184E2,3.1813027E3,8.452213E2,8.8067267E2],"tree_param":{"num_deleted":"0","num_feature":"20","num_nodes":"15","size_leaf_vector":"1"}},{"base_weights":[5.3223474E-3,6.31679E-1,-2.6740932E-1,2.0521112E-1,8.957452E-1,6.0245628E-3,-6.8515825E-1,-3.0792458E-2,2.2491474E-2,4.8161626E-2,7.3791094E-2,-1.9054662E-2,2.9613782E-2,-6.383201E-2,-1.58681E-2],"categories":[],"categories_nodes":[],"categories_segments":[],"categories_sizes":[],"default_left":[0,0,0,0,0,0,0,0,0,0,0,0,0,0,0],"id":25,"left_children":[1,3,5,7,9,11,13,-1,-1,-1,-1,-1,-1,-1,-1],"loss_changes":[2.6845847E3,5.347125E2,1.251115E3,1.6702487E2,1.0293921E2,8.63755E2,5.405194E2,0E0,0E0,0E0,0E0,0E0,0E0,0E0,0E0],"parents":[2147483647,0,0,1,1,2,2,3,3,4,4,5,5,6,6],"right_children":[2,4,6,8,10,12,14,-1,-1,-1,-1,-1,-1,-1,-1],"split_conditions":[1E0,5.555556E-1,2.3E1,2E-1,8.8235295E-1,4E0,5E0,-3.0792458E-2,2.2491474E-2,4.8161626E-2,7.3791094E-2,-1.9054662E-2,2.9613782E-2,-6.383201E-2,-1.58681E-2],"split_indices":[1,5,14,5,5,0,0,0,0,0,0,0,0,0,0],"split_type":[0,0,0,0,0,0,0,0,0,0,0,0,0,0,0],"sum_hessian":[1.5704786E4,4.76396E3,1.0940826E4,1.8263291E3,2.937631E3,6.6128506E3,4.3279756E3,3.0337582E2,1.5229534E3,1.6936122E3,1.2440189E3,3.968671E3,2.6441794E3,2.6444846E3,1.6834911E3],"tree_param":{"num_deleted":"0","num_feature":"20","num_nodes":"15","size_leaf_vector":"1"}},{"base_weights":[7.417303E-3,-3.2702312E-1,3.1387052E-1,2.5155154E-1,-4.769109E-1,1.8130249E-1,7.807172E-1,-4.372474E-2,2.8406832E-2,-4.8406783E-2,-1.3372589E-2,6.2587964E-3,4.3993097E-2,4.0013883E-2,6.576437E-2],"categories":[],"categories_nodes":[],"categories_segments":[],"categories_sizes":[],"default_left":[0,0,0,0,0,0,0,0,0,0,0,0,0,0,0],"id":26,"left_children":[1,3,5,7,9,11,13,-1,-1,-1,-1,-1,-1,-1,-1],"loss_changes":[1.5777334E3,6.389293E2,4.9543903E2,2.4828564E2,4.0952405E2,2.6160968E2,6.225647E1,0E0,0E0,0E0,0E0,0E0,0E0,0E0,0E0],"parents":[2147483647,0,0,1,1,2,2,3,3,4,4,5,5,6,6],"right_children":[2,4,6,8,10,12,14,-1,-1,-1,-1,-1,-1,-1,-1],"split_conditions":[4E0,5.5E0,1.6E1,3.08E-2,3.6968455E0,9.009E1,2.7E1,-4.372474E-2,2.8406832E-2,-4.8406783E-2,-1.3372589E-2,6.2587964E-3,4.3993097E-2,4.0013883E-2,6.576437E-2],"split_indices":[0,14,0,9,15,11,0,0,0,0,0,0,0,0,0],"split_type":[0,0,0,0,0,0,0,0,0,0,0,0,0,0,0],"sum_hessian":[1.5386624E4,7.3550825E3,8.0315415E3,1.5109592E3,5.844123E3,6.261629E3,1.769913E3,2.443036E2,1.2666556E3,3.0146848E3,2.8294382E3,5.320561E3,9.41068E2,9.895705E2,7.803424E2],"tree_param":{"num_deleted":"0","num_feature":"20","num_nodes":"15","size_leaf_vector":"1"}},{"base_weights":[4.2818257E-4,6.140478E-1,-2.644333E-1,2.223212E-2,7.9453903E-1,1.8662651E-1,-4.9180633E-1,-1.3356153E-2,2.8412875E-2,4.189901E-2,7.312121E-2,-8.210459E-3,4.173368E-2,-6.2039822E-2,-1.2753016E-2],"categories":[],"categories_nodes":[],"categories_segments":[],"categories_sizes":[],"default_left":[0,0,0,0,0,0,0,0,0,0,0,0,0,0,0],"id":27,"left_children":[1,3,5,7,9,11,13,-1,-1,-1,-1,-1,-1,-1,-1],"loss_changes":[2.481343E3,4.9057764E2,1.0941188E3,9.9794304E1,1.714248E2,4.9627438E2,9.4649646E2,0E0,0E0,0E0,0E0,0E0,0E0,0E0,0E0],"parents":[2147483647,0,0,1,1,2,2,3,3,4,4,5,5,6,6],"right_children":[2,4,6,8,10,12,14,-1,-1,-1,-1,-1,-1,-1,-1],"split_conditions":[1E0,4.4444445E-1,1E1,1.1E1,8.8235295E-1,5.2E1,3E0,-1.3356153E-2,2.8412875E-2,4.189901E-2,7.312121E-2,-8.210459E-3,4.173368E-2,-6.2039822E-2,-1.2753016E-2],"split_indices":[1,5,14,0,5,19,0,0,0,0,0,0,0,0,0],"split_type":[0,0,0,0,0,0,0,0,0,0,0,0,0,0,0],"sum_hessian":[1.5257051E4,4.600065E3,1.0656986E4,1.0778239E3,3.522241E3,3.5698254E3,7.0871606E3,6.9435455E2,3.834693E2,2.342856E3,1.179385E3,2.1022393E3,1.4675863E3,2.82914E3,4.258021E3],"tree_param":{"num_deleted":"0","num_feature":"20","num_nodes":"15","size_leaf_vector":"1"}},{"base_weights":[-7.5505883E-3,5.7103604E-1,-2.5213426E-1,2.1394816E-1,9.078766E-1,-4.1612592E-1,3.537338E-1,-5.1214565E-2,2.0218901E-2,4.7812253E-2,7.2334215E-2,-3.975059E-2,2.6971365E-3,1.0746181E-3,4.570339E-2],"categories":[],"categories_nodes":[],"categories_segments":[],"categories_sizes":[],"default_left":[0,0,0,0,0,0,0,0,0,0,0,0,0,0,0],"id":28,"left_children":[1,3,5,7,9,11,13,-1,-1,-1,-1,-1,-1,-1,-1],"loss_changes":[2.1096677E3,5.304252E2,1.0421245E3,1.9741435E2,7.302136E1,7.026636E2,2.5418353E2,0E0,0E0,0E0,0E0,0E0,0E0,0E0,0E0],"parents":[2147483647,0,0,1,1,2,2,3,3,4,4,5,5,6,6],"right_children":[2,4,6,8,10,12,14,-1,-1,-1,-1,-1,-1,-1,-1],"split_conditions":[1E0,6.4705884E-1,1.4288173E-5,1E-1,8.8235295E-1,4.9250748E-2,3.782208E-2,-5.1214565E-2,2.0218901E-2,4.7812253E-2,7.2334215E-2,-3.975059E-2,2.6971365E-3,1.0746181E-3,4.570339E-2],"split_indices":[1,5,17,5,5,13,13,0,0,0,0,0,0,0,0],"split_type":[0,0,0,0,0,0,0,0,0,0,0,0,0,0,0],"sum_hessian":[1.49034795E4,4.425018E3,1.0478462E4,2.1529216E3,2.2720962E3,8.249108E3,2.2293535E3,1.8009692E2,1.9728248E3,1.1625153E3,1.109581E3,5.8633955E3,2.3857126E3,1.1206707E3,1.1086829E3],"tree_param":{"num_deleted":"0","num_feature":"20","num_nodes":"15","size_leaf_vector":"1"}},{"base_weights":[3.6665637E-3,5.604736E-1,-2.2739238E-1,2.2398342E-1,8.8777244E-1,-1.6370812E-2,-7.0033133E-1,-3.7617587E-2,1.9858927E-2,4.5668427E-2,7.202616E-2,-1.1080245E-2,3.7918124E-2,-5.2639846E-2,2.388662E-2],"categories":[],"categories_nodes":[],"categories_segments":[],"categories_sizes":[],"default_left":[0,0,0,0,0,0,0,0,0,0,0,0,0,0,0],"id":29,"left_children":[1,3,5,7,9,11,13,-1,-1,-1,-1,-1,-1,-1,-1],"loss_changes":[1.8976018E3,4.741902E2,1.0388557E3,1.3089075E2,8.196411E1,6.451908E2,3.3318945E2,0E0,0E0,0E0,0E0,0E0,0E0,0E0,0E0],"parents":[2147483647,0,0,1,1,2,2,3,3,4,4,5,5,6,6],"right_children":[2,4,6,8,10,12,14,-1,-1,-1,-1,-1,-1,-1,-1],"split_conditions":[1E0,6.4705884E-1,2.9E1,1E-1,8.8235295E-1,1.4311888E-5,1.6E1,-3.7617587E-2,1.9858927E-2,4.5668427E-2,7.202616E-2,-1.1080245E-2,3.7918124E-2,-5.2639846E-2,2.388662E-2],"split_indices":[1,5,14,5,5,17,0,0,0,0,0,0,0,0,0],"split_type":[0,0,0,0,0,0,0,0,0,0,0,0,0,0,0],"sum_hessian":[1.4738461E4,4.322553E3,1.0415908E4,2.1365466E3,2.1860063E3,7.207003E3,3.2089053E3,1.8491052E2,1.9516362E3,1.1253746E3,1.0606317E3,5.740188E3,1.466815E3,2.9420718E3,2.6683344E2],"tree_param":{"num_deleted":"0","num_feature":"20","num_nodes":"15","size_leaf_vector":"1"}},{"base_weights":[4.422012E-3,5.465723E-1,-2.2141466E-1,2.2483584E-1,8.72571E-1,-5.4243153E-1,6.1694354E-2,2.1524653E-2,-3.054014E-2,4.3836292E-2,7.066622E-2,-3.765442E-2,1.8339549E-1,-1.5947208E-2,2.6793675E-2],"categories":[],"categories_nodes":[],"categories_segments":[],"categories_sizes":[],"default_left":[0,0,0,0,0,0,0,0,0,0,0,0,0,0,0],"id":30,"left_children":[1,3,5,7,9,11,13,-1,-1,-1,-1,-1,-1,-1,-1],"loss_changes":[1.7704193E3,4.438086E2,9.2809894E2,1.4988028E2,8.198755E1,4.480808E2,5.667368E2,0E0,0E0,0E0,0E0,0E0,0E0,0E0,0E0],"parents":[2147483647,0,0,1,1,2,2,3,3,4,4,5,5,6,6],"right_children":[2,4,6,8,10,12,14,-1,-1,-1,-1,-1,-1,-1,-1],"split_conditions":[1E0,6.4705884E-1,3.390841E-2,1.3973386E0,8.666667E-1,1.0208334E0,1.1174451E-5,2.1524653E-2,-3.054014E-2,4.3836292E-2,7.066622E-2,-3.765442E-2,1.8339549E-1,-1.5947208E-2,2.6793675E-2],"split_indices":[1,5,13,7,5,8,17,0,0,0,0,0,0,0,0],"split_type":[0,0,0,0,0,0,0,0,0,0,0,0,0,0,0],"sum_hessian":[1.4448656E4,4.2490415E3,1.0199615E4,2.1438237E3,2.1052175E3,4.78047E3,5.419145E3,1.8720857E3,2.7173813E2,1.0368593E3,1.0683583E3,4.74397E3,3.6499905E1,2.879323E3,2.539822E3],"tree_param":{"num_deleted":"0","num_feature":"20","num_nodes":"15","size_leaf_vector":"1"}},{"base_weights":[1.0748265E-2,5.261099E-1,-1.962229E-1,1.582015E-1,8.171253E-1,3.7739586E-2,-5.7829595E-1,1.0720686E-3,4.1507855E-2,4.1781697E-2,7.099374E-2,-1.3284745E-2,2.5567591E-2,-5.1070157E-2,6.902922E-4],"categories":[],"categories_nodes":[],"categories_segments":[],"categories_sizes":[],"default_left":[0,0,0,0,0,0,0,0,0,0,0,0,0,0,0],"id":31,"left_children":[1,3,5,7,9,11,13,-1,-1,-1,-1,-1,-1,-1,-1],"loss_changes":[1.5208181E3,4.3564648E2,9.0972974E2,1.20089645E2,1.0350464E2,5.2756366E2,4.456095E2,0E0,0E0,0E0,0E0,0E0,0E0,0E0,0E0],"parents":[2147483647,0,0,1,1,2,2,3,3,4,4,5,5,6,6],"right_children":[2,4,6,8,10,12,14,-1,-1,-1,-1,-1,-1,-1,-1],"split_conditions":[1E0,5.833333E-1,2.3E1,1.7E1,8.8235295E-1,4E0,8E0,1.0720686E-3,4.1507855E-2,4.1781697E-2,7.099374E-2,-1.3284745E-2,2.5567591E-2,-5.1070157E-2,6.902922E-4],"split_indices":[1,5,14,0,5,0,0,0,0,0,0,0,0,0,0],"split_type":[0,0,0,0,0,0,0,0,0,0,0,0,0,0,0],"sum_hessian":[1.4246235E4,4.0822432E3,1.0163992E4,1.8075869E3,2.2746562E3,6.3037017E3,3.8602905E3,1.3939363E3,4.1365057E2,1.3388494E3,9.35807E2,3.7427112E3,2.5609905E3,2.8992344E3,9.6105615E2],"tree_param":{"num_deleted":"0","num_feature":"20","num_nodes":"15","size_leaf_vector":"1"}},{"base_weights":[-5.3229914E-3,4.992215E-1,-2.073801E-1,2.0143688E-1,8.6455667E-1,3.7503073E-1,-3.6199263E-1,-3.5614565E-2,1.9023053E-2,4.4178467E-2,7.0812635E-2,-3.512618E-2,3.35669E-2,-5.8901496E-2,-9.205145E-3],"categories":[],"categories_nodes":[],"categories_segments":[],"categories_sizes":[],"default_left":[0,0,0,0,0,0,0,0,0,0,0,0,0,0,0],"id":32,"left_children":[1,3,5,7,9,11,13,-1,-1,-1,-1,-1,-1,-1,-1],"loss_changes":[1.4222024E3,4.3178003E2,8.979035E2,1.4194263E2,6.759595E1,2.5416962E2,9.280105E2,0E0,0E0,0E0,0E0,0E0,0E0,0E0,0E0],"parents":[2147483647,0,0,1,1,2,2,3,3,4,4,5,5,6,6],"right_children":[2,4,6,8,10,12,14,-1,-1,-1,-1,-1,-1,-1,-1],"split_conditions":[1E0,4.35E0,6E0,1.6666667E-1,9E-1,3.08E-2,3.6968455E0,-3.5614565E-2,1.9023053E-2,4.4178467E-2,7.0812635E-2,-3.512618E-2,3.35669E-2,-5.8901496E-2,-9.205145E-3],"split_indices":[1,2,14,5,5,9,15,0,0,0,0,0,0,0,0],"split_type":[0,0,0,0,0,0,0,0,0,0,0,0,0,0,0],"sum_hessian":[1.3946805E4,3.9846448E3,9.962159E3,2.200566E3,1.7840787E3,2.0868655E3,7.8752944E3,2.269215E2,1.9736444E3,9.322834E2,8.5179535E2,2.6493567E2,1.8219298E3,2.3226152E3,5.552679E3],"tree_param":{"num_deleted":"0","num_feature":"20","num_nodes":"15","size_leaf_vector":"1"}},{"base_weights":[-0E0,4.9177563E-1,-1.9345744E-1,2.261175E-1,8.781976E-1,-3.2358798E-1,4.0857318E-1,-2.0623343E-2,2.1047974E-2,4.4402216E-2,7.034432E-2,-6.624072E-3,-4.9435355E-2,3.9632645E-2,-5.1893317E-3],"categories":[],"categories_nodes":[],"categories_segments":[],"categories_sizes":[],"default_left":[0,0,0,0,0,0,0,0,0,0,0,0,0,0,0],"id":33,"left_children":[1,3,5,7,9,11,13,-1,-1,-1,-1,-1,-1,-1,-1],"loss_changes":[1.3088855E3,3.964364E2,7.7404553E2,1.1571028E2,5.5750854E1,7.699484E2,1.6492801E2,0E0,0E0,0E0,0E0,0E0,0E0,0E0,0E0],"parents":[2147483647,0,0,1,1,2,2,3,3,4,4,5,5,6,6],"right_children":[2,4,6,8,10,12,14,-1,-1,-1,-1,-1,-1,-1,-1],"split_conditions":[1E0,6.8421054E-1,9E0,2.2222222E-1,9E-1,2.4E1,3.65E1,-2.0623343E-2,2.1047974E-2,4.4402216E-2,7.034432E-2,-6.624072E-3,-4.9435355E-2,3.9632645E-2,-5.1893317E-3],"split_indices":[1,5,0,5,5,14,14,0,0,0,0,0,0,0,0],"split_type":[0,0,0,0,0,0,0,0,0,0,0,0,0,0,0],"sum_hessian":[1.375178E4,3.8801213E3,9.871659E3,2.3049995E3,1.575122E3,8.120432E3,1.7512264E3,3.3516214E2,1.9698373E3,7.631725E2,8.1194946E2,5.3306035E3,2.7898289E3,1.2578567E3,4.933698E2],"tree_param":{"num_deleted":"0","num_feature":"20","num_nodes":"15","size_leaf_vector":"1"}},{"base_weights":[4.3809935E-3,4.7006962E-1,-1.7577542E-1,1.7550349E-1,8.067889E-1,-2.0803016E-2,-6.7703766E-1,3.8677924E-3,4.4288114E-2,3.987428E-2,6.93288E-2,-1.1093703E-2,3.7486676E-2,-4.7425102E-2,1.6035278E-1],"categories":[],"categories_nodes":[],"categories_segments":[],"categories_sizes":[],"default_left":[0,0,0,0,0,0,0,0,0,0,0,0,0,0,0],"id":34,"left_children":[1,3,5,7,9,11,13,-1,-1,-1,-1,-1,-1,-1,-1],"loss_changes":[1.1441417E3,3.7550873E2,7.624274E2,1.1680287E2,8.2816895E1,6.511431E2,3.0264734E2,0E0,0E0,0E0,0E0,0E0,0E0,0E0,0E0],"parents":[2147483647,0,0,1,1,2,2,3,3,4,4,5,5,6,6],"right_children":[2,4,6,8,10,12,14,-1,-1,-1,-1,-1,-1,-1,-1],"split_conditions":[1E0,4.2864585E0,3.5E1,1.9E1,8.8235295E-1,2.52E2,1.0208334E0,3.8677924E-3,4.4288114E-2,3.987428E-2,6.93288E-2,-1.1093703E-2,3.7486676E-2,-4.7425102E-2,1.6035278E-1],"split_indices":[1,2,14,0,5,19,8,0,0,0,0,0,0,0,0],"split_type":[0,0,0,0,0,0,0,0,0,0,0,0,0,0,0],"sum_hessian":[1.3625197E4,3.8011514E3,9.824046E3,2.0327162E3,1.7684352E3,7.5091484E3,2.314898E3,1.6502899E3,3.8242627E2,9.7531323E2,7.9312195E2,6.0106494E3,1.4984987E3,2.2877146E3,2.718345E1],"tree_param":{"num_deleted":"0","num_feature":"20","num_nodes":"15","size_leaf_vector":"1"}},{"base_weights":[-4.8257865E-4,4.2891508E-1,-1.6297796E-1,1.4284413E-1,7.81622E-1,4.4710702E-1,-2.9117835E-1,-3.172949E-2,1.6343486E-2,3.9072517E-2,7.0246205E-2,1.2113561E-2,5.5910174E-2,-5.439666E-2,-5.9245788E-3],"categories":[],"categories_nodes":[],"categories_segments":[],"categories_sizes":[],"default_left":[0,0,0,0,0,0,0,0,0,0,0,0,0,0,0],"id":35,"left_children":[1,3,5,7,9,11,13,-1,-1,-1,-1,-1,-1,-1,-1],"loss_changes":[9.341397E2,3.6906622E2,7.6039294E2,1.3309314E2,8.3398926E1,1.7584988E2,8.609575E2,0E0,0E0,0E0,0E0,0E0,0E0,0E0,0E0],"parents":[2147483647,0,0,1,1,2,2,3,3,4,4,5,5,6,6],"right_children":[2,4,6,8,10,12,14,-1,-1,-1,-1,-1,-1,-1,-1],"split_conditions":[1E0,4.3076925E0,5E0,3E0,4.909091E0,5.374248E-4,2.309401E0,-3.172949E-2,1.6343486E-2,3.9072517E-2,7.0246205E-2,1.2113561E-2,5.5910174E-2,-5.439666E-2,-5.9245788E-3],"split_indices":[1,2,14,2,2,16,15,0,0,0,0,0,0,0,0],"split_type":[0,0,0,0,0,0,0,0,0,0,0,0,0,0,0],"sum_hessian":[1.3385585E4,3.6707927E3,9.714792E3,2.0319338E3,1.638859E3,1.6834464E3,8.0313457E3,2.8843286E2,1.743501E3,9.904902E2,6.4836884E2,1.0200431E3,6.6340326E2,2.1978794E3,5.8334663E3],"tree_param":{"num_deleted":"0","num_feature":"20","num_nodes":"15","size_leaf_vector":"1"}},{"base_weights":[7.104312E-3,-2.660016E-1,2.4529043E-1,4.1166607E-1,-3.8526964E-1,1.4120641E-1,6.879462E-1,-4.5251176E-2,4.829607E-2,-4.106562E-2,1.05093485E-2,4.551546E-2,3.2870395E-3,3.3749137E-2,5.8782585E-2],"categories":[],"categories_nodes":[],"categories_segments":[],"categories_sizes":[],"default_left":[0,0,0,0,0,0,0,0,0,0,0,0,0,0,0],"id":36,"left_children":[1,3,5,7,9,11,13,-1,-1,-1,-1,-1,-1,-1,-1],"loss_changes":[8.660468E2,5.0164417E2,3.2627173E2,3.2775098E2,6.8137494E2,2.8791962E2,4.4703857E1,0E0,0E0,0E0,0E0,0E0,0E0,0E0,0E0],"parents":[2147483647,0,0,1,1,2,2,3,3,4,4,5,5,6,6],"right_children":[2,4,6,8,10,12,14,-1,-1,-1,-1,-1,-1,-1,-1],"split_conditions":[4E0,7E-1,1.7E1,3.6363637E-1,9.0935E1,7.8571427E-1,2.7E1,-4.5251176E-2,4.829607E-2,-4.106562E-2,1.05093485E-2,4.551546E-2,3.2870395E-3,3.3749137E-2,5.8782585E-2],"split_indices":[0,1,0,5,11,1,0,0,0,0,0,0,0,0,0],"split_type":[0,0,0,0,0,0,0,0,0,0,0,0,0,0,0],"sum_hessian":[1.3306457E4,6.1959326E3,7.110524E3,9.2416486E2,5.271768E3,5.763412E3,1.3471118E3,2.0673285E2,7.17432E2,3.6750474E3,1.5967205E3,8.1782684E2,4.9455854E3,7.3031805E2,6.1679376E2],"tree_param":{"num_deleted":"0","num_feature":"20","num_nodes":"15","size_leaf_vector":"1"}},{"base_weights":[-4.2230156E-3,4.9756777E-1,-1.1644201E-1,8.498649E-2,8.51952E-1,-2.909071E-1,2.6216766E-1,-1.0110143E-2,4.0394403E-2,7.1093164E-2,4.441683E-2,-2.715568E-3,-3.937071E-2,2.4908795E-3,3.8061004E-2],"categories":[],"categories_nodes":[],"categories_segments":[],"categories_sizes":[],"default_left":[0,0,0,0,0,0,0,0,0,0,0,0,0,0,0],"id":37,"left_children":[1,3,5,7,9,11,13,-1,-1,-1,-1,-1,-1,-1,-1],"loss_changes":[7.3379785E2,3.4658612E2,7.044233E2,1.3981131E2,4.639862E1,5.5622205E2,2.3632779E2,0E0,0E0,0E0,0E0,0E0,0E0,0E0,0E0],"parents":[2147483647,0,0,1,1,2,2,3,3,4,4,5,5,6,6],"right_children":[2,4,6,8,10,12,14,-1,-1,-1,-1,-1,-1,-1,-1],"split_conditions":[8.5714287E-1,5.25E-1,1.42E2,7E0,6.5384614E-1,1.9E1,4.1132454E-2,-1.0110143E-2,4.0394403E-2,7.1093164E-2,4.441683E-2,-2.715568E-3,-3.937071E-2,2.4908795E-3,3.8061004E-2],"split_indices":[1,5,19,0,1,14,13,0,0,0,0,0,0,0,0],"split_type":[0,0,0,0,0,0,0,0,0,0,0,0,0,0,0],"sum_hessian":[1.3032987E4,2.3773606E3,1.0655627E4,1.1024332E3,1.2749274E3,7.297441E3,3.3581858E3,7.5932806E2,3.4310516E2,5.530944E2,7.218329E2,4.0200422E3,3.277399E3,1.964575E3,1.3936108E3],"tree_param":{"num_deleted":"0","num_feature":"20","num_nodes":"15","size_leaf_vector":"1"}},{"base_weights":[3.101349E-3,-2.5601888E-1,2.2791037E-1,3.1255847E-1,-4.013614E-1,1.4209701E-1,7.7502024E-1,1.34132365E-2,7.06042E-2,-4.153255E-2,-1.274704E-2,3.3777263E-3,3.6694035E-2,5.9488945E-2,3.6647655E-2],"categories":[],"categories_nodes":[],"categories_segments":[],"categories_sizes":[],"default_left":[0,0,0,0,0,0,0,0,0,0,0,0,0,0,0],"id":38,"left_children":[1,3,5,7,9,11,13,-1,-1,-1,-1,-1,-1,-1,-1],"loss_changes":[7.575805E2,4.996471E2,3.2540762E2,9.922728E1,2.2678247E2,2.2589966E2,2.2236267E1,0E0,0E0,0E0,0E0,0E0,0E0,0E0,0E0],"parents":[2147483647,0,0,1,1,2,2,3,3,4,4,5,5,6,6],"right_children":[2,4,6,8,10,12,14,-1,-1,-1,-1,-1,-1,-1,-1],"split_conditions":[4E0,5E0,2.1E1,2.4E2,2.309401E0,8.865371E1,4.5237005E-1,1.34132365E-2,7.06042E-2,-4.153255E-2,-1.274704E-2,3.3777263E-3,3.6694035E-2,5.9488945E-2,3.6647655E-2],"split_indices":[0,14,0,19,15,11,10,0,0,0,0,0,0,0,0],"split_type":[0,0,0,0,0,0,0,0,0,0,0,0,0,0,0],"sum_hessian":[1.2998243E4,6.035236E3,6.963007E3,1.2258661E3,4.8093696E3,6.0252144E3,9.3779254E2,1.0769037E3,1.4896248E2,2.289852E3,2.5195178E3,4.9459824E3,1.0792316E3,5.8435156E2,3.53441E2],"tree_param":{"num_deleted":"0","num_feature":"20","num_nodes":"15","size_leaf_vector":"1"}},{"base_weights":[-3.6757784E-3,3.7685364E-1,-1.4473294E-1,1.963684E-1,9.613364E-1,1.2506009E-2,-5.819646E-1,-6.0529676E-3,2.4225567E-2,4.4738304E-2,6.864367E-2,-1.5410413E-2,2.0437445E-2,-4.100155E-2,1.5101938E-1],"categories":[],"categories_nodes":[],"categories_segments":[],"categories_sizes":[],"default_left":[0,0,0,0,0,0,0,0,0,0,0,0,0,0,0],"id":39,"left_children":[1,3,5,7,9,11,13,-1,-1,-1,-1,-1,-1,-1,-1],"loss_changes":[6.8886273E2,3.6371466E2,6.4498645E2,1.311423E2,1.3166626E1,5.04111E2,2.8208655E2,0E0,0E0,0E0,0E0,0E0,0E0,0E0,0E0],"parents":[2147483647,0,0,1,1,2,2,3,3,4,4,5,5,6,6],"right_children":[2,4,6,8,10,12,14,-1,-1,-1,-1,-1,-1,-1,-1],"split_conditions":[1E0,8.235294E-1,3.1E1,4.4444445E-1,9E-1,5.374248E-4,1.0208334E0,-6.0529676E-3,2.4225567E-2,4.4738304E-2,6.864367E-2,-1.5410413E-2,2.0437445E-2,-4.100155E-2,1.5101938E-1],"split_indices":[1,5,14,5,5,16,8,0,0,0,0,0,0,0,0],"split_type":[0,0,0,0,0,0,0,0,0,0,0,0,0,0,0],"sum_hessian":[1.2832003E4,3.4659287E3,9.366074E3,2.6538213E3,8.1210754E2,6.889093E3,2.4769814E3,9.84869E2,1.6689523E3,1.8788824E2,6.242193E2,3.7668467E3,3.122246E3,2.4469875E3,2.9994017E1],"tree_param":{"num_deleted":"0","num_feature":"20","num_nodes":"15","size_leaf_vector":"1"}},{"base_weights":[-2.268647E-3,3.7722465E-1,-1.4150174E-1,1.8220195E-1,8.9139986E-1,-4.06564E-1,7.843133E-2,7.2381576E-3,5.216483E-2,4.3501273E-2,6.899253E-2,-2.8637134E-2,1.4788993E-1,-8.384007E-3,2.322131E-2],"categories":[],"categories_nodes":[],"categories_segments":[],"categories_sizes":[],"default_left":[0,0,0,0,0,0,0,0,0,0,0,0,0,0,0],"id":40,"left_children":[1,3,5,7,9,11,13,-1,-1,-1,-1,-1,-1,-1,-1],"loss_changes":[6.674042E2,3.3778186E2,5.3968567E2,1.0713042E2,2.827179E1,3.0422925E2,2.8434622E2,0E0,0E0,0E0,0E0,0E0,0E0,0E0,0E0],"parents":[2147483647,0,0,1,1,2,2,3,3,4,4,5,5,6,6],"right_children":[2,4,6,8,10,12,14,-1,-1,-1,-1,-1,-1,-1,-1],"split_conditions":[1E0,7.777778E-1,3.390841E-2,3E1,9.285714E-1,1.0208334E0,6.5E1,7.2381576E-3,5.216483E-2,4.3501273E-2,6.899253E-2,-2.8637134E-2,1.4788993E-1,-8.384007E-3,2.322131E-2],"split_indices":[1,5,13,0,5,8,19,0,0,0,0,0,0,0,0],"split_type":[0,0,0,0,0,0,0,0,0,0,0,0,0,0,0],"sum_hessian":[1.2629724E4,3.3856062E3,9.244117E3,2.46023E3,9.253761E2,4.1933667E3,5.050751E3,2.2039866E3,2.5624356E2,3.8004657E2,5.453295E2,4.154219E3,3.9147205E1,2.881862E3,2.1688887E3],"tree_param":{"num_deleted":"0","num_feature":"20","num_nodes":"15","size_leaf_vector":"1"}},{"base_weights":[1.0743307E-2,4.2541924E-1,-9.533688E-2,9.4660304E-2,7.4787366E-1,3.7760156E-1,-2.1908677E-1,1.0464802E-2,-6.221178E-2,6.875523E-2,3.7366614E-2,-2.682685E-2,3.254014E-2,-5.1429212E-2,-2.4619403E-3],"categories":[],"categories_nodes":[],"categories_segments":[],"categories_sizes":[],"default_left":[0,0,0,0,0,0,0,0,0,0,0,0,0,0,0],"id":41,"left_children":[1,3,5,7,9,11,13,-1,-1,-1,-1,-1,-1,-1,-1],"loss_changes":[5.555858E2,2.730312E2,5.880899E2,8.406532E1,6.500531E1,1.8925885E2,8.099735E2,0E0,0E0,0E0,0E0,0E0,0E0,0E0,0E0],"parents":[2147483647,0,0,1,1,2,2,3,3,4,4,5,5,6,6],"right_children":[2,4,6,8,10,12,14,-1,-1,-1,-1,-1,-1,-1,-1],"split_conditions":[8.888889E-1,4.05E0,6E0,2.230672E0,3.7796447E-1,1.4125E-2,3.6968455E0,1.0464802E-2,-6.221178E-2,6.875523E-2,3.7366614E-2,-2.682685E-2,3.254014E-2,-5.1429212E-2,-2.4619403E-3],"split_indices":[1,2,14,7,3,9,15,0,0,0,0,0,0,0,0],"split_type":[0,0,0,0,0,0,0,0,0,0,0,0,0,0,0],"sum_hessian":[1.2612574E4,2.5695742E3,1.0043E4,1.2729624E3,1.2966118E3,2.078955E3,7.964045E3,1.2033601E3,6.960229E1,4.8597012E2,8.1064166E2,2.639323E2,1.8150228E3,1.9467274E3,6.0173174E3],"tree_param":{"num_deleted":"0","num_feature":"20","num_nodes":"15","size_leaf_vector":"1"}},{"base_weights":[1.1402602E-2,-1.2099925E-1,3.4467614E-1,-2.5594112E-1,2.922228E-1,2.2457598E-1,7.46553E-1,2.4509395E-2,-2.5296533E-2,1.3226727E-2,6.574694E-2,5.2105654E-2,8.19387E-3,5.8011614E-2,3.307352E-2],"categories":[],"categories_nodes":[],"categories_segments":[],"categories_sizes":[],"default_left":[0,0,0,0,0,0,0,0,0,0,0,0,0,0,0],"id":42,"left_children":[1,3,5,7,9,11,13,-1,-1,-1,-1,-1,-1,-1,-1],"loss_changes":[5.502328E2,4.9742267E2,1.6919662E2,5.375854E2,1.3943723E2,1.5372128E2,2.280832E1,0E0,0E0,0E0,0E0,0E0,0E0,0E0,0E0],"parents":[2147483647,0,0,1,1,2,2,3,3,4,4,5,5,6,6],"right_children":[2,4,6,8,10,12,14,-1,-1,-1,-1,-1,-1,-1,-1],"split_conditions":[8E0,9.0935E1,2.2E1,7.692308E-1,1.6360521E1,8.8E0,4.5787576E-1,2.4509395E-2,-2.5296533E-2,1.3226727E-2,6.574694E-2,5.2105654E-2,8.19387E-3,5.8011614E-2,3.307352E-2],"split_indices":[0,11,0,1,15,14,10,0,0,0,0,0,0,0,0],"split_type":[0,0,0,0,0,0,0,0,0,0,0,0,0,0,0],"sum_hessian":[1.2455279E4,8.912722E3,3.5425574E3,6.7222627E3,2.190459E3,2.7346113E3,8.079461E2,1.1310155E3,5.5912476E3,1.9436196E3,2.4683928E2,4.0691843E2,2.3276929E3,5.150643E2,2.9288187E2],"tree_param":{"num_deleted":"0","num_feature":"20","num_nodes":"15","size_leaf_vector":"1"}},{"base_weights":[-6.0711526E-3,-2.7058282E-1,1.418114E-1,1.1209354E-1,-4.9960065E-1,5.1842365E-2,5.38968E-1,-1.1660943E-2,3.328077E-2,-3.4585968E-2,1.8452747E-1,-3.141885E-3,3.5798736E-2,3.0780306E-2,8.2170695E-2],"categories":[],"categories_nodes":[],"categories_segments":[],"categories_sizes":[],"default_left":[0,0,0,0,0,0,0,0,0,0,0,0,0,0,0],"id":43,"left_children":[1,3,5,7,9,11,13,-1,-1,-1,-1,-1,-1,-1,-1],"loss_changes":[4.8195297E2,3.8810342E2,2.8123883E2,1.8823528E2,2.2460779E2,3.1513995E2,7.009558E1,0E0,0E0,0E0,0E0,0E0,0E0,0E0,0E0],"parents":[2147483647,0,0,1,1,2,2,3,3,4,4,5,5,6,6],"right_children":[2,4,6,8,10,12,14,-1,-1,-1,-1,-1,-1,-1,-1],"split_conditions":[3E0,7.571429E0,8.883875E1,6.249E-1,1.0208334E0,1.7E1,3.250128E1,-1.1660943E-2,3.328077E-2,-3.4585968E-2,1.8452747E-1,-3.141885E-3,3.5798736E-2,3.0780306E-2,8.2170695E-2],"split_indices":[4,14,11,9,8,4,15,0,0,0,0,0,0,0,0],"split_type":[0,0,0,0,0,0,0,0,0,0,0,0,0,0,0],"sum_hessian":[1.2308932E4,4.416145E3,7.8927866E3,1.6518677E3,2.7642773E3,6.441331E3,1.4514553E3,9.504675E2,7.014001E2,2.7475408E3,1.673652E1,5.3560557E3,1.0852756E3,1.3234285E3,1.2802682E2],"tree_param":{"num_deleted":"0","num_feature":"20","num_nodes":"15","size_leaf_vector":"1"}},{"base_weights":[8.69682E-4,-1.04356706E-1,3.8496095E-1,3.9979583E-1,-1.8908289E-1,2.8593388E-1,7.7954954E-1,-0E0,5.4774985E-2,1.0491606E-3,-3.0891217E-2,4.9127672E-2,1.0591079E-2,1.747465E-2,5.437182E-2],"categories":[],"categories_nodes":[],"categories_segments":[],"categories_sizes":[],"default_left":[0,0,0,0,0,0,0,0,0,0,0,0,0,0,0],"id":44,"left_children":[1,3,5,7,9,11,13,-1,-1,-1,-1,-1,-1,-1,-1],"loss_changes":[4.9443427E2,4.0973227E2,1.0052118E2,2.3793637E2,4.7042465E2,1.1979103E2,9.571167E0,0E0,0E0,0E0,0E0,0E0,0E0,0E0,0E0],"parents":[2147483647,0,0,1,1,2,2,3,3,4,4,5,5,6,6],"right_children":[2,4,6,8,10,12,14,-1,-1,-1,-1,-1,-1,-1,-1],"split_conditions":[1E1,7.8571427E-1,2.7E1,5.25E-1,1.9E1,1.2666667E1,3.5E0,-0E0,5.4774985E-2,1.0491606E-3,-3.0891217E-2,4.9127672E-2,1.0591079E-2,1.747465E-2,5.437182E-2],"split_indices":[0,1,0,5,14,14,2,0,0,0,0,0,0,0,0],"split_type":[0,0,0,0,0,0,0,0,0,0,0,0,0,0,0],"sum_hessian":[1.2216405E4,9.588636E3,2.6277703E3,1.375235E3,8.2134E3,2.108571E3,5.19199E2,7.133718E2,6.6186316E2,4.733343E3,3.4800576E3,4.46863E2,1.6617081E3,4.556324E1,4.7363577E2],"tree_param":{"num_deleted":"0","num_feature":"20","num_nodes":"15","size_leaf_vector":"1"}},{"base_weights":[8.705325E-5,-8.3259724E-2,4.729806E-1,3.5798004E-1,-1.6795248E-1,6.2467015E-1,2.1146767E-1,4.36871E-3,5.9762593E-2,-2.0360488E-2,1.6494613E-2,3.2440264E-2,5.3703964E-2,1.5997711E-3,4.246885E-2],"categories":[],"categories_nodes":[],"categories_segments":[],"categories_sizes":[],"default_left":[0,0,0,0,0,0,0,0,0,0,0,0,0,0,0],"id":45,"left_children":[1,3,5,7,9,11,13,-1,-1,-1,-1,-1,-1,-1,-1],"loss_changes":[4.7876874E2,3.853574E2,7.057086E1,2.634776E2,5.0862305E2,2.556482E1,5.3798874E1,0E0,0E0,0E0,0E0,0E0,0E0,0E0,0E0],"parents":[2147483647,0,0,1,1,2,2,3,3,4,4,5,5,6,6],"right_children":[2,4,6,8,10,12,14,-1,-1,-1,-1,-1,-1,-1,-1],"split_conditions":[1.3E1,8.333333E-1,4.5787576E-1,6.8421054E-1,9.0935E1,2.2E1,2.7E1,4.36871E-3,5.9762593E-2,-2.0360488E-2,1.6494613E-2,3.2440264E-2,5.3703964E-2,1.5997711E-3,4.246885E-2],"split_indices":[0,1,10,5,11,0,0,0,0,0,0,0,0,0,0],"split_type":[0,0,0,0,0,0,0,0,0,0,0,0,0,0,0],"sum_hessian":[1.2125993E4,1.0309196E4,1.8167965E3,1.6555532E3,8.653644E3,1.1432E3,6.7359656E2,1.0842946E3,5.712587E2,6.479234E3,2.1744092E3,6.8267535E2,4.605246E2,4.7489523E2,1.9870134E2],"tree_param":{"num_deleted":"0","num_feature":"20","num_nodes":"15","size_leaf_vector":"1"}},{"base_weights":[1.0048274E-3,-3.6373955E-1,9.7229436E-2,-1.3967001E-2,-7.894116E-1,8.039674E-2,1.8668878E0,-1.8363113E-2,1.7340783E-2,2.3957722E-2,-6.423343E-2,3.3710368E-2,1.1816922E-3,1.2857626E-1,2.783409E-2],"categories":[],"categories_nodes":[],"categories_segments":[],"categories_sizes":[],"default_left":[0,0,0,0,0,0,0,0,0,0,0,0,0,0,0],"id":46,"left_children":[1,3,5,7,9,11,13,-1,-1,-1,-1,-1,-1,-1,-1],"loss_changes":[4.2196686E2,3.723943E2,2.804642E2,1.0138722E2,2.413399E2,2.5307431E2,4.0429993E0,0E0,0E0,0E0,0E0,0E0,0E0,0E0,0E0],"parents":[2147483647,0,0,1,1,2,2,3,3,4,4,5,5,6,6],"right_children":[2,4,6,8,10,12,14,-1,-1,-1,-1,-1,-1,-1,-1],"split_conditions":[2E0,1.0333333E1,1.0208334E0,6.115E-1,5.357143E-2,6E0,7.996E-1,-1.8363113E-2,1.7340783E-2,2.3957722E-2,-6.423343E-2,3.3710368E-2,1.1816922E-3,1.2857626E-1,2.783409E-2],"split_indices":[0,14,8,9,1,14,9,0,0,0,0,0,0,0,0],"split_type":[0,0,0,0,0,0,0,0,0,0,0,0,0,0,0],"sum_hessian":[1.2025658E4,2.5051165E3,9.520541E3,1.3790646E3,1.1260519E3,9.435501E3,8.50408E1,7.0793463E2,6.7112994E2,1.5329124E2,9.727607E2,1.1903551E3,8.2451455E3,7.8386925E1,6.6538777E0],"tree_param":{"num_deleted":"0","num_feature":"20","num_nodes":"15","size_leaf_vector":"1"}},{"base_weights":[-1.5483893E-3,4.171934E-1,-9.049015E-2,1.0201423E-1,7.5597423E-1,1.6762314E-2,-5.314259E-1,-4.878013E-3,3.886207E-2,6.921679E-2,3.59783E-2,-2.424784E-2,9.570645E-3,-6.1972857E-2,-1.4353214E-2],"categories":[],"categories_nodes":[],"categories_segments":[],"categories_sizes":[],"default_left":[0,0,0,0,0,0,0,0,0,0,0,0,0,0,0],"id":47,"left_children":[1,3,5,7,9,11,13,-1,-1,-1,-1,-1,-1,-1,-1],"loss_changes":[4.4474207E2,2.2184518E2,4.671316E2,9.419466E1,5.770392E1,3.90659E2,2.4481268E2,0E0,0E0,0E0,0E0,0E0,0E0,0E0,0E0],"parents":[2147483647,0,0,1,1,2,2,3,3,4,4,5,5,6,6],"right_children":[2,4,6,8,10,12,14,-1,-1,-1,-1,-1,-1,-1,-1],"split_conditions":[8.5714287E-1,5.25E-1,4.3666668E1,8E0,6.666667E-1,2E0,6E0,-4.878013E-3,3.886207E-2,6.921679E-2,3.59783E-2,-2.424784E-2,9.570645E-3,-6.1972857E-2,-1.4353214E-2],"split_indices":[1,5,14,0,1,0,0,0,0,0,0,0,0,0,0],"split_type":[0,0,0,0,0,0,0,0,0,0,0,0,0,0,0],"sum_hessian":[1.1945941E4,2.0876814E3,9.85826E3,1.0861534E3,1.001528E3,7.929897E3,1.9283629E3,7.9807263E2,2.880808E2,4.1050702E2,5.91021E2,1.9802762E3,5.9496206E3,8.341044E2,1.0942585E3],"tree_param":{"num_deleted":"0","num_feature":"20","num_nodes":"15","size_leaf_vector":"1"}},{"base_weights":[5.857511E-3,-7.699296E-2,4.0787414E-1,3.918908E-1,-1.6854125E-1,2.843808E-1,7.5644684E-1,-1.4572406E-2,3.995969E-2,8.229404E-3,-2.0047942E-2,4.6172258E-2,1.2543033E-2,3.946858E-2,6.798162E-2],"categories":[],"categories_nodes":[],"categories_segments":[],"categories_sizes":[],"default_left":[0,0,0,0,0,0,0,0,0,0,0,0,0,0,0],"id":48,"left_children":[1,3,5,7,9,11,13,-1,-1,-1,-1,-1,-1,-1,-1],"loss_changes":[3.9401834E2,4.203723E2,8.47923E1,2.101212E2,3.2538834E2,5.710318E1,1.8144623E1,0E0,0E0,0E0,0E0,0E0,0E0,0E0,0E0],"parents":[2147483647,0,0,1,1,2,2,3,3,4,4,5,5,6,6],"right_children":[2,4,6,8,10,12,14,-1,-1,-1,-1,-1,-1,-1,-1],"split_conditions":[3.23E2,8.333333E-1,8.6705E1,3.6363637E-1,9E0,1.0333333E1,1.4142136E1,-1.4572406E-2,3.995969E-2,8.229404E-3,-2.0047942E-2,4.6172258E-2,1.2543033E-2,3.946858E-2,6.798162E-2],"split_indices":[19,1,11,5,14,14,15,0,0,0,0,0,0,0,0],"split_type":[0,0,0,0,0,0,0,0,0,0,0,0,0,0,0],"sum_hessian":[1.1808814E4,9.79069E3,2.0181235E3,1.594867E3,8.195824E3,1.498137E3,5.199866E2,4.1043118E2,1.1844357E3,2.5830498E3,5.6127744E3,2.7029858E2,1.2278384E3,3.3994583E2,1.8004076E2],"tree_param":{"num_deleted":"0","num_feature":"20","num_nodes":"15","size_leaf_vector":"1"}},{"base_weights":[-9.647358E-4,-8.214484E-2,3.991582E-1,3.5912654E-1,-1.4998265E-1,5.9418046E-1,1.967749E-1,-1.988926E-2,4.015195E-2,-1.0260786E-3,-3.4525655E-2,6.032282E-2,3.437191E-2,4.4964273E-2,-1.1281832E-2],"categories":[],"categories_nodes":[],"categories_segments":[],"categories_sizes":[],"default_left":[0,0,0,0,0,0,0,0,0,0,0,0,0,0,0],"id":49,"left_children":[1,3,5,7,9,11,13,-1,-1,-1,-1,-1,-1,-1,-1],"loss_changes":[3.8178955E2,2.928386E2,7.669507E1,2.1541148E2,4.248824E2,1.9812103E1,1.7599394E2,0E0,0E0,0E0,0E0,0E0,0E0,0E0,0E0],"parents":[2147483647,0,0,1,1,2,2,3,3,4,4,5,5,6,6],"right_children":[2,4,6,8,10,12,14,-1,-1,-1,-1,-1,-1,-1,-1],"split_conditions":[1.2E1,7.8571427E-1,3.65E1,3.6363637E-1,3.15E1,7.3333335E0,9.166667E-1,-1.988926E-2,4.015195E-2,-1.0260786E-3,-3.4525655E-2,6.032282E-2,3.437191E-2,4.4964273E-2,-1.1281832E-2],"split_indices":[0,1,14,5,14,14,1,0,0,0,0,0,0,0,0],"split_type":[0,0,0,0,0,0,0,0,0,0,0,0,0,0,0],"sum_hessian":[1.1759765E4,9.781622E3,1.9781427E3,1.2985255E3,8.483097E3,1.0002194E3,9.7792334E2,3.5396628E2,9.4455927E2,6.2415283E3,2.2415686E3,1.7534781E2,8.248716E2,4.2221426E2,5.5570905E2],"tree_param":{"num_deleted":"0","num_feature":"20","num_nodes":"15","size_leaf_vector":"1"}},{"base_weights":[8.339514E-3,-1.1705154E-1,2.7590743E-1,4.0388277E-1,-1.8711537E-1,1.4969625E-1,5.712743E-1,9.322029E-3,6.302025E-2,1.2611285E-3,-2.3642922E-2,4.5368182E-3,4.40085E-2,2.9103156E-2,6.2327527E-2],"categories":[],"categories_nodes":[],"categories_segments":[],"categories_sizes":[],"default_left":[0,0,0,0,0,0,0,0,0,0,0,0,0,0,0],"id":50,"left_children":[1,3,5,7,9,11,13,-1,-1,-1,-1,-1,-1,-1,-1],"loss_changes":[3.9189606E2,2.8999304E2,1.3768408E2,1.3410857E2,2.4773999E2,1.08519394E2,5.0581116E1,0E0,0E0,0E0,0E0,0E0,0E0,0E0,0E0],"parents":[2147483647,0,0,1,1,2,2,3,3,4,4,5,5,6,6],"right_children":[2,4,6,8,10,12,14,-1,-1,-1,-1,-1,-1,-1,-1],"split_conditions":[1.37E2,7.5E-1,8.5151924E1,4.5119047E0,1.3666667E1,2.6E1,2.1213203E1,9.322029E-3,6.302025E-2,1.2611285E-3,-2.3642922E-2,4.5368182E-3,4.40085E-2,2.9103156E-2,6.2327527E-2],"split_indices":[19,1,11,2,14,0,15,0,0,0,0,0,0,0,0],"split_type":[0,0,0,0,0,0,0,0,0,0,0,0,0,0,0],"sum_hessian":[1.1666837E4,7.9419473E3,3.7248896E3,9.370772E2,7.00487E3,2.6169756E3,1.107914E3,6.3941486E2,2.9766235E2,3.1739526E3,3.8309175E3,2.2686306E3,3.4834512E2,8.2976324E2,2.7815073E2],"tree_param":{"num_deleted":"0","num_feature":"20","num_nodes":"15","size_leaf_vector":"1"}},{"base_weights":[-2.865894E-4,-2.5143373E-1,1.3396E-1,-0E0,-4.979571E-1,8.7300545E-1,9.596996E-2,-5.3585055E-3,5.1469974E-2,1.434402E-2,-4.3903198E-2,6.299945E-2,-2.8439593E-2,-1.4152686E-2,1.3091707E-2],"categories":[],"categories_nodes":[],"categories_segments":[],"categories_sizes":[],"default_left":[0,0,0,0,0,0,0,0,0,0,0,0,0,0,0],"id":51,"left_children":[1,3,5,7,9,11,13,-1,-1,-1,-1,-1,-1,-1,-1],"loss_changes":[3.913644E2,2.5072375E2,2.1054253E2,1.27221695E2,2.4537189E2,4.125302E1,2.287098E2,0E0,0E0,0E0,0E0,0E0,0E0,0E0,0E0],"parents":[2147483647,0,0,1,1,2,2,3,3,4,4,5,5,6,6],"right_children":[2,4,6,8,10,12,14,-1,-1,-1,-1,-1,-1,-1,-1],"split_conditions":[3E0,1.1E1,6.666667E-1,2.9927185E-3,5.185185E-1,1.730672E0,3.857143E0,-5.3585055E-3,5.1469974E-2,1.434402E-2,-4.3903198E-2,6.299945E-2,-2.8439593E-2,-1.4152686E-2,1.3091707E-2],"split_indices":[0,14,1,16,1,7,2,0,0,0,0,0,0,0,0],"split_type":[0,0,0,0,0,0,0,0,0,0,0,0,0,0,0],"sum_hessian":[1.1595484E4,4.0415586E3,7.5539263E3,2.0028037E3,2.0387549E3,3.6350665E2,7.1904194E3,1.8170564E3,1.8574734E2,3.8443408E2,1.6543208E3,3.440855E2,1.9421135E1,1.7789451E3,5.411474E3],"tree_param":{"num_deleted":"0","num_feature":"20","num_nodes":"15","size_leaf_vector":"1"}},{"base_weights":[2.345604E-4,-1.4747669E-1,2.3158084E-1,-2.7550292E-1,1.9095664E-1,7.2878385E-1,1.6090031E-1,1.0085093E-2,-2.5427729E-2,5.708028E-3,5.7629656E-2,7.673884E-3,5.83916E-2,2.0328728E-2,-7.7571366E-3],"categories":[],"categories_nodes":[],"categories_segments":[],"categories_sizes":[],"default_left":[0,0,0,0,0,0,0,0,0,0,0,0,0,0,0],"id":52,"left_children":[1,3,5,7,9,11,13,-1,-1,-1,-1,-1,-1,-1,-1],"loss_changes":[3.9580692E2,3.0636005E2,1.570316E2,2.4157053E2,1.3650668E2,5.1549164E1,1.625937E2,0E0,0E0,0E0,0E0,0E0,0E0,0E0,0E0],"parents":[2147483647,0,0,1,1,2,2,3,3,4,4,5,5,6,6],"right_children":[2,4,6,8,10,12,14,-1,-1,-1,-1,-1,-1,-1,-1],"split_conditions":[6E0,9.0935E1,8.333333E-1,8.0851066E-1,1.3740451E1,3.3333333E0,3.95E1,1.0085093E-2,-2.5427729E-2,5.708028E-3,5.7629656E-2,7.673884E-3,5.83916E-2,2.0328728E-2,-7.7571366E-3],"split_indices":[0,11,1,1,15,2,14,0,0,0,0,0,0,0,0],"split_type":[0,0,0,0,0,0,0,0,0,0,0,0,0,0,0],"sum_hessian":[1.1571727E4,7.05965E3,4.5120767E3,5.1254927E3,1.9341573E3,5.5480493E2,3.9572715E3,1.0424047E3,4.0830881E3,1.6826707E3,2.5148663E2,1.1564279E2,4.3916214E2,2.5924001E3,1.3648715E3],"tree_param":{"num_deleted":"0","num_feature":"20","num_nodes":"15","size_leaf_vector":"1"}},{"base_weights":[4.994593E-3,-2.1294169E-1,1.2055392E-1,1.1020858E-1,-4.3513563E-1,8.3571035E-1,8.618819E-2,-2.4523372E-2,1.628551E-2,1.1746959E-2,-3.699834E-2,-5.369531E-3,6.0253322E-2,1.2216937E-2,-1.37288E-2],"categories":[],"categories_nodes":[],"categories_segments":[],"categories_sizes":[],"default_left":[0,0,0,0,0,0,0,0,0,0,0,0,0,0,0],"id":53,"left_children":[1,3,5,7,9,11,13,-1,-1,-1,-1,-1,-1,-1,-1],"loss_changes":[2.8906955E2,2.8603375E2,1.8298544E2,1.0670601E2,1.8220737E2,2.5606201E1,2.087011E2,0E0,0E0,0E0,0E0,0E0,0E0,0E0,0E0],"parents":[2147483647,0,0,1,1,2,2,3,3,4,4,5,5,6,6],"right_children":[2,4,6,8,10,12,14,-1,-1,-1,-1,-1,-1,-1,-1],"split_conditions":[3E0,7.571429E0,6.666667E-1,2.6133335E-1,5.185185E-1,2.6666667E0,4.85E1,-2.4523372E-2,1.628551E-2,1.1746959E-2,-3.699834E-2,-5.369531E-3,6.0253322E-2,1.2216937E-2,-1.37288E-2],"split_indices":[0,14,1,9,1,2,14,0,0,0,0,0,0,0,0],"split_type":[0,0,0,0,0,0,0,0,0,0,0,0,0,0,0],"sum_hessian":[1.1475505E4,3.9711406E3,7.5043643E3,1.6162391E3,2.3549014E3,3.3821976E2,7.1661445E3,3.5321835E2,1.2630209E3,3.9767612E2,1.9572252E3,2.4830313E1,3.1338943E2,5.367727E3,1.7984178E3],"tree_param":{"num_deleted":"0","num_feature":"20","num_nodes":"15","size_leaf_vector":"1"}},{"base_weights":[4.8276343E-4,-6.129855E-2,3.869102E-1,-7.5193316E-2,1.2276818E-1,8.142385E-1,2.8854212E-1,1.5693776E-2,-1.0674339E-2,5.6136154E-2,8.570031E-3,-1.9348443E-2,2.4109205E-2],"categories":[],"categories_nodes":[],"categories_segments":[],"categories_sizes":[],"default_left":[0,0,0,0,0,0,0,0,0,0,0,0,0],"id":54,"left_children":[1,3,5,7,-1,9,11,-1,-1,-1,-1,-1,-1],"loss_changes":[2.7112744E2,2.589249E2,6.3420303E1,2.6284302E2,0E0,5.378784E0,5.7668976E1,0E0,0E0,0E0,0E0,0E0,0E0],"parents":[2147483647,0,0,1,1,2,2,3,3,5,5,6,6],"right_children":[2,4,6,8,-1,10,12,-1,-1,-1,-1,-1,-1],"split_conditions":[4.1940208E-3,1.0208334E0,7.571429E0,9.0909094E-1,1.2276818E-1,7.6085E-1,6.5574384E0,1.5693776E-2,-1.0674339E-2,5.6136154E-2,8.570031E-3,-1.9348443E-2,2.4109205E-2],"split_indices":[16,8,14,1,0,9,15,0,0,0,0,0,0],"split_type":[0,0,0,0,0,0,0,0,0,0,0,0,0],"sum_hessian":[1.133032E4,9.768196E3,1.5621238E3,9.7023545E3,6.5842125E1,2.8456473E2,1.2775591E3,2.096524E3,7.60583E3,2.6748993E2,1.7074799E1,1.455154E2,1.1320437E3],"tree_param":{"num_deleted":"0","num_feature":"20","num_nodes":"13","size_leaf_vector":"1"}},{"base_weights":[1.0866461E-2,-9.628551E-2,2.7164108E-1,-1.5276574E-1,4.8263302E-1,1.9653358E-1,6.810482E-1,1.523873E-2,-1.487856E-2,2.0236125E-2,9.596727E-2,3.5619758E-2,5.439362E-3,6.123884E-2,3.7506733E-2],"categories":[],"categories_nodes":[],"categories_segments":[],"categories_sizes":[],"default_left":[0,0,0,0,0,0,0,0,0,0,0,0,0,0,0],"id":55,"left_children":[1,3,5,7,9,11,13,-1,-1,-1,-1,-1,-1,-1,-1],"loss_changes":[3.186983E2,2.6383054E2,1.00463455E2,2.0532848E2,1.1841193E2,1.0923668E2,1.0174194E1,0E0,0E0,0E0,0E0,0E0,0E0,0E0,0E0],"parents":[2147483647,0,0,1,1,2,2,3,3,4,4,5,5,6,6],"right_children":[2,4,6,8,10,12,14,-1,-1,-1,-1,-1,-1,-1,-1],"split_conditions":[8E0,2.7027028E0,2.6E1,5E0,1.5370426E1,1.4636364E1,2.65E1,1.523873E-2,-1.487856E-2,2.0236125E-2,9.596727E-2,3.5619758E-2,5.439362E-3,6.123884E-2,3.7506733E-2],"split_indices":[0,12,0,14,15,14,14,0,0,0,0,0,0,0,0],"split_type":[0,0,0,0,0,0,0,0,0,0,0,0,0,0,0],"sum_hessian":[1.1389577E4,8.070505E3,3.3190723E3,7.3578115E3,7.1269336E2,2.8121074E3,5.069649E2,1.1670673E3,6.190744E3,6.0871185E2,1.0398153E2,6.954305E2,2.116677E3,1.4675214E2,3.6021277E2],"tree_param":{"num_deleted":"0","num_feature":"20","num_nodes":"15","size_leaf_vector":"1"}},{"base_weights":[3.1216773E-3,-5.8193292E-2,4.1068944E-1,-1.6534261E-1,2.1200047E-1,5.476287E-1,1.8089058E-1,1.3327056E-2,-1.8850848E-2,3.0081251E-3,3.1434666E-2,2.5968935E-2,4.8531927E-2,4.400544E-2,2.9188038E-3],"categories":[],"categories_nodes":[],"categories_segments":[],"categories_sizes":[],"default_left":[0,0,0,0,0,0,0,0,0,0,0,0,0,0,0],"id":56,"left_children":[1,3,5,7,9,11,13,-1,-1,-1,-1,-1,-1,-1,-1],"loss_changes":[2.8224802E2,2.8372498E2,4.5113907E1,3.103819E2,1.2145528E2,2.3977692E1,3.615624E1,0E0,0E0,0E0,0E0,0E0,0E0,0E0,0E0],"parents":[2147483647,0,0,1,1,2,2,3,3,4,4,5,5,6,6],"right_children":[2,4,6,8,10,12,14,-1,-1,-1,-1,-1,-1,-1,-1],"split_conditions":[1.4E1,8.802864E1,4.5237005E-1,8.947368E-1,5.9E1,2.2E1,8.5714287E-1,1.3327056E-2,-1.8850848E-2,3.0081251E-3,3.1434666E-2,2.5968935E-2,4.8531927E-2,4.400544E-2,2.9188038E-3],"split_indices":[0,11,10,1,19,0,1,0,0,0,0,0,0,0,0],"split_type":[0,0,0,0,0,0,0,0,0,0,0,0,0,0,0],"sum_hessian":[1.1267651E4,9.7940625E3,1.4735881E3,7.0176626E3,2.7764001E3,9.163394E2,5.572488E2,1.7274974E3,5.290165E3,1.7093445E3,1.0670557E3,5.1336414E2,4.0297525E2,1.1694203E2,4.4030676E2],"tree_param":{"num_deleted":"0","num_feature":"20","num_nodes":"15","size_leaf_vector":"1"}},{"base_weights":[3.5116973E-3,5.898251E-2,-4.2172262E-1,4.0949377E-1,-1.0384636E-2,-4.4358078E-1,1.4999223E-1,1.6923292E-2,6.74982E-2,6.3468027E-3,-2.3681192E-2,-5.6961194E-2,-2.1044558E-2],"categories":[],"categories_nodes":[],"categories_segments":[],"categories_sizes":[],"default_left":[0,0,0,0,0,0,0,0,0,0,0,0,0],"id":57,"left_children":[1,3,5,7,9,11,-1,-1,-1,-1,-1,-1,-1],"loss_changes":[2.6355658E2,2.4140408E2,7.717015E1,1.511817E2,3.0740524E2,6.4423584E1,0E0,0E0,0E0,0E0,0E0,0E0,0E0],"parents":[2147483647,0,0,1,1,2,2,3,3,4,4,5,5],"right_children":[2,4,6,8,10,12,-1,-1,-1,-1,-1,-1,-1],"split_conditions":[1.230672E0,8.75E-1,1.0208334E0,4.866667E0,3.5E1,2E0,1.4999223E-1,1.6923292E-2,6.74982E-2,6.3468027E-3,-2.3681192E-2,-5.6961194E-2,-2.1044558E-2],"split_indices":[7,1,8,2,14,2,0,0,0,0,0,0,0],"split_type":[0,0,0,0,0,0,0,0,0,0,0,0,0],"sum_hessian":[1.1186751E4,9.90159E3,1.2851619E3,1.6360549E3,8.265534E3,1.2784406E3,6.7212825E0,1.3151779E3,3.2087708E2,6.32888E3,1.9366544E3,2.855042E2,9.9293634E2],"tree_param":{"num_deleted":"0","num_feature":"20","num_nodes":"13","size_leaf_vector":"1"}},{"base_weights":[1.3813264E-2,-1.9498256E-1,1.2188586E-1,2.0379582E-1,-3.876713E-1,8.175776E-1,8.963886E-2,8.898508E-3,5.508322E-2,1.1602493E-2,-3.2395437E-2,5.9306048E-2,-1.8957125E-2,2.2740625E-2,-6.529299E-4],"categories":[],"categories_nodes":[],"categories_segments":[],"categories_sizes":[],"default_left":[0,0,0,0,0,0,0,0,0,0,0,0,0,0,0],"id":58,"left_children":[1,3,5,7,9,11,13,-1,-1,-1,-1,-1,-1,-1,-1],"loss_changes":[2.5279802E2,2.9394373E2,1.6424115E2,5.2369507E1,1.5052643E2,3.0852722E1,1.7976926E2,0E0,0E0,0E0,0E0,0E0,0E0,0E0,0E0],"parents":[2147483647,0,0,1,1,2,2,3,3,4,4,5,5,6,6],"right_children":[2,4,6,8,10,12,14,-1,-1,-1,-1,-1,-1,-1,-1],"split_conditions":[3E0,5.5E0,6.666667E-1,2.6238975E-3,5.185185E-1,1.730672E0,1.2666667E1,8.898508E-3,5.508322E-2,1.1602493E-2,-3.2395437E-2,5.9306048E-2,-1.8957125E-2,2.2740625E-2,-6.529299E-4],"split_indices":[0,14,1,16,1,7,14,0,0,0,0,0,0,0,0],"split_type":[0,0,0,0,0,0,0,0,0,0,0,0,0,0,0],"sum_hessian":[1.1199795E4,3.8144749E3,7.38532E3,1.2402837E3,2.5741912E3,3.2121503E2,7.0641045E3,1.1240769E3,1.1620679E2,3.957218E2,2.1784692E3,3.0111697E2,2.0098064E1,1.9851648E3,5.07894E3],"tree_param":{"num_deleted":"0","num_feature":"20","num_nodes":"15","size_leaf_vector":"1"}},{"base_weights":[-2.5483985E-3,-1.5827999E-2,1.1802655E-1,-1.4858325E-1,1.5562843E-1,-5.6507323E-2,-7.947924E-3,6.8323915E-3,5.815119E-2],"categories":[],"categories_nodes":[],"categories_segments":[],"categories_sizes":[],"default_left":[0,0,0,0,0,0,0,0,0],"id":59,"left_children":[1,3,-1,5,7,-1,-1,-1,-1],"loss_changes":[2.6192792E2,2.5127953E2,0E0,1.223828E2,1.8027066E2,0E0,0E0,0E0,0E0],"parents":[2147483647,0,0,1,1,3,3,4,4],"right_children":[2,4,-1,6,8,-1,-1,-1,-1],"split_conditions":[1.0208334E0,6.5E1,1.1802655E-1,2E0,2.7777777E0,-5.6507323E-2,-7.947924E-3,6.8323915E-3,5.815119E-2],"split_indices":[8,19,0,2,12,0,0,0,0],"split_type":[0,0,0,0,0,0,0,0,0],"sum_hessian":[1.110973E4,1.1032407E4,7.732405E1,6.2227744E3,4.8096323E3,2.3222336E2,5.990551E3,4.49298E3,3.166525E2],"tree_param":{"num_deleted":"0","num_feature":"20","num_nodes":"9","size_leaf_vector":"1"}},{"base_weights":[4.268111E-3,-6.859629E-2,3.199207E-1,-1.509523E-1,2.3045745E-1,6.631286E-1,2.3081072E-1,-1.0879821E-2,1.2539196E-1,3.6563976E-3,3.1791613E-2,6.307751E-2,3.8142666E-2,4.1681264E-2,5.8190157E-3],"categories":[],"categories_nodes":[],"categories_segments":[],"categories_sizes":[],"default_left":[0,0,0,0,0,0,0,0,0,0,0,0,0,0,0],"id":60,"left_children":[1,3,5,7,9,11,13,-1,-1,-1,-1,-1,-1,-1,-1],"loss_changes":[2.5436438E2,2.2093407E2,6.1648804E1,1.9902852E2,8.422988E1,6.3494415E0,9.345385E1,0E0,0E0,0E0,0E0,0E0,0E0,0E0,0E0],"parents":[2147483647,0,0,1,1,2,2,3,3,4,4,5,5,6,6],"right_children":[2,4,6,8,10,12,14,-1,-1,-1,-1,-1,-1,-1,-1],"split_conditions":[1.1E1,5.940594E-2,1.4636364E1,1.0208334E0,5.1E1,2.828427E0,9.0909094E-1,-1.0879821E-2,1.2539196E-1,3.6563976E-3,3.1791613E-2,6.307751E-2,3.8142666E-2,4.1681264E-2,5.8190157E-3],"split_indices":[0,13,14,8,19,15,1,0,0,0,0,0,0,0,0],"split_type":[0,0,0,0,0,0,0,0,0,0,0,0,0,0,0],"sum_hessian":[1.1037001E4,8.965911E3,2.0710894E3,7.035016E3,1.9308954E3,4.1871844E2,1.652371E3,6.991842E3,4.3174385E1,1.1437756E3,7.871197E2,8.222146E1,3.3649698E2,4.279463E2,1.2244247E3],"tree_param":{"num_deleted":"0","num_feature":"20","num_nodes":"15","size_leaf_vector":"1"}},{"base_weights":[1.1064288E-2,-2.7430645E-1,8.1785105E-2,-4.167721E-3,-7.2747964E-1,5.372344E-3,3.0125567E-1,-2.157823E-2,9.147209E-3,1.8034358E-2,-6.0291536E-2,6.3057795E-2,-1.4171776E-3,1.472236E-2,4.572926E-2],"categories":[],"categories_nodes":[],"categories_segments":[],"categories_sizes":[],"default_left":[0,0,0,0,0,0,0,0,0,0,0,0,0,0,0],"id":61,"left_children":[1,3,5,7,9,11,13,-1,-1,-1,-1,-1,-1,-1,-1],"loss_changes":[2.2234775E2,2.6669366E2,1.4787503E2,6.381106E1,1.5341061E2,1.6883275E2,6.79516E1,0E0,0E0,0E0,0E0,0E0,0E0,0E0,0E0],"parents":[2147483647,0,0,1,1,2,2,3,3,4,4,5,5,6,6],"right_children":[2,4,6,8,10,12,14,-1,-1,-1,-1,-1,-1,-1,-1],"split_conditions":[2E0,1.1166667E1,4.8780486E-2,7.563159E1,5.357143E-2,5E-1,3.93E2,-2.157823E-2,9.147209E-3,1.8034358E-2,-6.0291536E-2,6.3057795E-2,-1.4171776E-3,1.472236E-2,4.572926E-2],"split_indices":[0,14,13,11,1,1,19,0,0,0,0,0,0,0,0],"split_type":[0,0,0,0,0,0,0,0,0,0,0,0,0,0,0],"sum_hessian":[1.1022527E4,2.1830881E3,8.839438E3,1.3720413E3,8.11047E2,6.564139E3,2.2752993E3,4.2222476E2,9.4981647E2,1.2563602E2,6.85411E2,1.7822235E2,6.385917E3,1.9042896E3,3.7100977E2],"tree_param":{"num_deleted":"0","num_feature":"20","num_nodes":"15","size_leaf_vector":"1"}},{"base_weights":[7.385329E-3,-2.9249015E-1,7.918757E-2,-3.7829127E-2,-7.312214E-1,-3.5801686E-2,2.530176E-1,1.526468E-2,-1.5104536E-2,1.0256693E-2,-5.964232E-2,6.2587075E-2,-4.2783027E-3,9.8203365E-3,3.1387653E-2],"categories":[],"categories_nodes":[],"categories_segments":[],"categories_sizes":[],"default_left":[0,0,0,0,0,0,0,0,0,0,0,0,0,0,0],"id":62,"left_children":[1,3,5,7,9,11,13,-1,-1,-1,-1,-1,-1,-1,-1],"loss_changes":[2.3432442E2,2.3361275E2,1.7612863E2,6.883461E1,1.191445E2,1.5008487E2,8.020784E1,0E0,0E0,0E0,0E0,0E0,0E0,0E0,0E0],"parents":[2147483647,0,0,1,1,2,2,3,3,4,4,5,5,6,6],"right_children":[2,4,6,8,10,12,14,-1,-1,-1,-1,-1,-1,-1,-1],"split_conditions":[2E0,1.1166667E1,8.189166E1,3.5E0,5.357143E-2,5E-1,1.72E2,1.526468E-2,-1.5104536E-2,1.0256693E-2,-5.964232E-2,6.2587075E-2,-4.2783027E-3,9.8203365E-3,3.1387653E-2],"split_indices":[0,14,11,14,1,1,19,0,0,0,0,0,0,0,0],"split_type":[0,0,0,0,0,0,0,0,0,0,0,0,0,0,0],"sum_hessian":[1.0888592E4,2.0975652E3,8.791027E3,1.3317661E3,7.65799E2,5.2880327E3,3.5029946E3,5.4954755E2,7.822185E2,1.2338983E2,6.424092E2,1.466846E2,5.1413477E3,2.3938794E3,1.1091154E3],"tree_param":{"num_deleted":"0","num_feature":"20","num_nodes":"15","size_leaf_vector":"1"}},{"base_weights":[-9.880602E-3,-5.5380974E-2,3.7879786E-1,2.4925663E-1,-1.1322446E-1,2.907546E-1,8.639284E-1,-2.6687719E-2,2.3045478E-2,-2.7567228E-2,-1.3525205E-3,1.0827726E-2,4.5535155E-2,6.019527E-2,1.8007457E-2],"categories":[],"categories_nodes":[],"categories_segments":[],"categories_sizes":[],"default_left":[0,0,0,0,0,0,0,0,0,0,0,0,0,0,0],"id":63,"left_children":[1,3,5,7,9,11,13,-1,-1,-1,-1,-1,-1,-1,-1],"loss_changes":[1.9144495E2,1.7112422E2,4.5897995E1,1.0148592E2,2.3004736E2,4.7342484E1,2.253456E0,0E0,0E0,0E0,0E0,0E0,0E0,0E0,0E0],"parents":[2147483647,0,0,1,1,2,2,3,3,4,4,5,5,6,6],"right_children":[2,4,6,8,10,12,14,-1,-1,-1,-1,-1,-1,-1,-1],"split_conditions":[1.6E1,5E0,4.3E1,1.4125E-2,3.6968455E0,8.370785E1,7.30672E-1,-2.6687719E-2,2.3045478E-2,-2.7567228E-2,-1.3525205E-3,1.0827726E-2,4.5535155E-2,6.019527E-2,1.8007457E-2],"split_indices":[0,14,0,9,15,11,7,0,0,0,0,0,0,0,0],"split_type":[0,0,0,0,0,0,0,0,0,0,0,0,0,0,0],"sum_hessian":[1.0842238E4,9.712069E3,1.1301691E3,1.5440332E3,8.168036E3,9.640593E2,1.6610971E2,2.0132622E2,1.342707E3,1.9007172E3,6.2673193E3,7.383681E2,2.256912E2,1.4958997E2,1.6519735E1],"tree_param":{"num_deleted":"0","num_feature":"20","num_nodes":"15","size_leaf_vector":"1"}},{"base_weights":[3.457951E-3,-3.9410764E-1,5.7306033E-2,-6.5608394E-1,-2.7600172E-1,4.9354714E-1,4.5850254E-3,-2.9534752E-2,-6.1536156E-2,-4.359631E-3,-3.650288E-2,1.7818322E-2,6.726072E-2,4.073425E-3,-3.3411812E-2],"categories":[],"categories_nodes":[],"categories_segments":[],"categories_sizes":[],"default_left":[0,0,0,0,0,0,0,0,0,0,0,0,0,0,0],"id":64,"left_children":[1,3,5,7,9,11,13,-1,-1,-1,-1,-1,-1,-1,-1],"loss_changes":[2.3229637E2,3.8070053E1,2.1959952E2,1.9332474E1,5.1466156E1,1.1819379E2,2.4904063E2,0E0,0E0,0E0,0E0,0E0,0E0,0E0,0E0],"parents":[2147483647,0,0,1,1,2,2,3,3,4,4,5,5,6,6],"right_children":[2,4,6,8,10,12,14,-1,-1,-1,-1,-1,-1,-1,-1],"split_conditions":[3.1666667E0,3.0752468E0,8E-1,1.65E1,4.3666668E1,7.777778E-1,8.029E-1,-2.9534752E-2,-6.1536156E-2,-4.359631E-3,-3.650288E-2,1.7818322E-2,6.726072E-2,4.073425E-3,-3.3411812E-2],"split_indices":[2,15,1,14,14,5,9,0,0,0,0,0,0,0,0],"split_type":[0,0,0,0,0,0,0,0,0,0,0,0,0,0,0],"sum_hessian":[1.0864789E4,1.2901503E3,9.574639E3,3.9195355E2,8.9819666E2,1.0261531E3,8.548485E3,2.317244E2,1.6022916E2,5.164117E2,3.8178503E2,7.2565125E2,3.005019E2,7.6939604E3,8.545251E2],"tree_param":{"num_deleted":"0","num_feature":"20","num_nodes":"15","size_leaf_vector":"1"}},{"base_weights":[3.6072799E-3,-2.9103592E-1,6.7916036E-2,-1.921033E-1,-7.1457803E-1,5.33716E-1,1.4960341E-2,-1.8424904E-2,1.3899796E-2,-1.630445E-2,-5.3829364E-2,2.0513829E-2,6.7025036E-2,4.5623914E-3,-2.989038E-2],"categories":[],"categories_nodes":[],"categories_segments":[],"categories_sizes":[],"default_left":[0,0,0,0,0,0,0,0,0,0,0,0,0,0,0],"id":65,"left_children":[1,3,5,7,9,11,13,-1,-1,-1,-1,-1,-1,-1,-1],"loss_changes":[2.0387834E2,7.897081E1,2.1749268E2,5.5324684E1,1.4805084E1,9.369672E1,2.0105753E2,0E0,0E0,0E0,0E0,0E0,0E0,0E0,0E0],"parents":[2147483647,0,0,1,1,2,2,3,3,4,4,5,5,6,6],"right_children":[2,4,6,8,10,12,14,-1,-1,-1,-1,-1,-1,-1,-1],"split_conditions":[3.75E-1,2.230672E0,7.8571427E-1,5.2408077E-2,1.8181819E-1,7.777778E-1,7.996E-1,-1.8424904E-2,1.3899796E-2,-1.630445E-2,-5.3829364E-2,2.0513829E-2,6.7025036E-2,4.5623914E-3,-2.989038E-2],"split_indices":[5,7,1,13,6,5,9,0,0,0,0,0,0,0,0],"split_type":[0,0,0,0,0,0,0,0,0,0,0,0,0,0,0],"sum_hessian":[1.0768351E4,1.9230132E3,8.845338E3,1.5659491E3,3.5706418E2,8.968118E2,7.948526E3,1.2914207E3,2.7452838E2,6.81097E1,2.8895447E2,6.192504E2,2.775614E2,7.1292812E3,8.1924426E2],"tree_param":{"num_deleted":"0","num_feature":"20","num_nodes":"15","size_leaf_vector":"1"}},{"base_weights":[3.0316124E-3,-7.6378887E-3,1.0392553E-1,-2.7272183E-1,5.913005E-2,4.0819366E-3,-2.506753E-2,2.704243E-2,-4.114107E-4],"categories":[],"categories_nodes":[],"categories_segments":[],"categories_sizes":[],"default_left":[0,0,0,0,0,0,0,0,0],"id":66,"left_children":[1,3,-1,5,7,-1,-1,-1,-1],"loss_changes":[1.8243878E2,1.8938753E2,0E0,7.765477E1,1.9602414E2,0E0,0E0,0E0,0E0],"parents":[2147483647,0,0,1,1,3,3,4,4],"right_children":[2,4,-1,6,8,-1,-1,-1,-1],"split_conditions":[1.0208334E0,4.1666666E-1,1.0392553E-1,1.15E1,8.888889E-1,4.0819366E-3,-2.506753E-2,2.704243E-2,-4.114107E-4],"split_indices":[8,5,0,14,1,0,0,0,0],"split_type":[0,0,0,0,0,0,0,0,0],"sum_hessian":[1.0746218E4,1.067659E4,6.962785E1,2.1499272E3,8.526663E3,5.183961E2,1.6315311E3,1.3401975E3,7.1864653E3],"tree_param":{"num_deleted":"0","num_feature":"20","num_nodes":"9","size_leaf_vector":"1"}},{"base_weights":[-9.034929E-3,-1.004215E-1,2.128822E-1,4.7108553E-2,-3.004344E-1,6.815875E-1,1.4918385E-1,-1.24384435E-2,9.344643E-3,1.6405231E-3,-3.1455215E-2,1.0037964E-2,5.535383E-2,4.2130787E-2,4.5718364E-3],"categories":[],"categories_nodes":[],"categories_segments":[],"categories_sizes":[],"default_left":[0,0,0,0,0,0,0,0,0,0,0,0,0,0,0],"id":67,"left_children":[1,3,5,7,9,11,13,-1,-1,-1,-1,-1,-1,-1,-1],"loss_changes":[2.1699663E2,2.2432108E2,9.1590454E1,9.7188065E1,1.8544754E2,2.8875763E1,1.0647559E2,0E0,0E0,0E0,0E0,0E0,0E0,0E0,0E0],"parents":[2147483647,0,0,1,1,2,2,3,3,4,4,5,5,6,6],"right_children":[2,4,6,8,10,12,14,-1,-1,-1,-1,-1,-1,-1,-1],"split_conditions":[8E0,1.9E1,8.333333E-1,3.294E-1,8.636364E-1,3.4166667E0,9E0,-1.24384435E-2,9.344643E-3,1.6405231E-3,-3.1455215E-2,1.0037964E-2,5.535383E-2,4.2130787E-2,4.5718364E-3],"split_indices":[0,14,1,9,1,2,14,0,0,0,0,0,0,0,0],"split_type":[0,0,0,0,0,0,0,0,0,0,0,0,0,0,0],"sum_hessian":[1.0699818E4,7.5846763E3,3.1151416E3,4.362713E3,3.2219634E3,3.6575485E2,2.7493867E3,1.243519E3,3.119194E3,1.1300258E3,2.0919375E3,8.734528E1,2.7840958E2,3.800678E2,2.369319E3],"tree_param":{"num_deleted":"0","num_feature":"20","num_nodes":"15","size_leaf_vector":"1"}},{"base_weights":[-4.857189E-3,-1.6325157E-2,1.555803E0,-5.9344884E-2,3.6097345E-1,1.0758515E-1,1.983288E-2,2.2332242E-3,-1.576576E-2,1.856183E-2,5.2971415E-2],"categories":[],"categories_nodes":[],"categories_segments":[],"categories_sizes":[],"default_left":[0,0,0,0,0,0,0,0,0,0,0],"id":68,"left_children":[1,3,5,7,9,-1,-1,-1,-1,-1,-1],"loss_changes":[1.873439E2,1.7022527E2,2.5991364E0,1.581861E2,3.5441162E1,0E0,0E0,0E0,0E0,0E0,0E0],"parents":[2147483647,0,0,1,1,2,2,3,3,4,4],"right_children":[2,4,6,8,10,-1,-1,-1,-1,-1,-1],"split_conditions":[1.0208334E0,1.6E1,5.882353E-2,2.9E1,4.3E1,1.0758515E-1,1.983288E-2,2.2332242E-3,-1.576576E-2,1.856183E-2,5.2971415E-2],"split_indices":[8,0,13,14,0,0,0,0,0,0,0],"split_type":[0,0,0,0,0,0,0,0,0,0,0],"sum_hessian":[1.0576945E4,1.050436E4,7.258537E1,9.435356E3,1.0690039E3,6.644572E1,6.1396575E0,6.208138E3,3.2272183E3,9.1327924E2,1.5572473E2],"tree_param":{"num_deleted":"0","num_feature":"20","num_nodes":"11","size_leaf_vector":"1"}},{"base_weights":[6.9838054E-3,-4.400975E-2,3.15602E-1,3.998185E-1,-7.767035E-2,4.3766975E-1,3.830149E-2,-5.131531E-2,4.018079E-2,-2.321405E-3,-3.7617438E-2,2.2924908E-2,7.48188E-2,2.572367E-2,-1.8111888E-2],"categories":[],"categories_nodes":[],"categories_segments":[],"categories_sizes":[],"default_left":[0,0,0,0,0,0,0,0,0,0,0,0,0,0,0],"id":69,"left_children":[1,3,5,7,9,11,13,-1,-1,-1,-1,-1,-1,-1,-1],"loss_changes":[1.6765353E2,1.359018E2,5.0430374E1,1.5907681E2,1.7653497E2,6.2212204E1,5.214219E1,0E0,0E0,0E0,0E0,0E0,0E0,0E0,0E0],"parents":[2147483647,0,0,1,1,2,2,3,3,4,4,5,5,6,6],"right_children":[2,4,6,8,10,12,14,-1,-1,-1,-1,-1,-1,-1,-1],"split_conditions":[3.85E2,6.666667E-1,3.6E1,1E-1,8.20825E-1,2.7577164E1,9.444444E-1,-5.131531E-2,4.018079E-2,-2.321405E-3,-3.7617438E-2,2.2924908E-2,7.48188E-2,2.572367E-2,-1.8111888E-2],"split_indices":[19,1,14,5,9,15,1,0,0,0,0,0,0,0,0],"split_type":[0,0,0,0,0,0,0,0,0,0,0,0,0,0,0],"sum_hessian":[1.0622246E4,9.114929E3,1.5073174E3,6.367898E2,8.478139E3,1.0416438E3,4.6567352E2,9.343609E1,5.433537E2,7.8105464E3,6.6759247E2,9.2865356E2,1.1299026E2,2.2090222E2,2.4477132E2],"tree_param":{"num_deleted":"0","num_feature":"20","num_nodes":"15","size_leaf_vector":"1"}},{"base_weights":[3.2905448E-4,-4.779642E-2,3.3700982E-1,6.3501257E-1,-6.957627E-2,2.7244836E-1,5.9393726E-2,-3.744952E-2,6.624755E-2,-8.95663E-3,1.2575572E-2,3.0644318E-2,1.093744E-2],"categories":[],"categories_nodes":[],"categories_segments":[],"categories_sizes":[],"default_left":[0,0,0,0,0,0,0,0,0,0,0,0,0],"id":70,"left_children":[1,3,5,7,9,11,-1,-1,-1,-1,-1,-1,-1],"loss_changes":[1.7071965E2,1.3610895E2,4.536023E1,1.2799273E2,1.5331543E2,2.3211235E1,0E0,0E0,0E0,0E0,0E0,0E0,0E0],"parents":[2147483647,0,0,1,1,2,2,3,3,4,4,5,5],"right_children":[2,4,6,8,10,12,-1,-1,-1,-1,-1,-1,-1],"split_conditions":[4.55E2,5E-1,9.794625E1,1.6666667E-1,9.169805E1,1.6E1,5.9393726E-2,-3.744952E-2,6.624755E-2,-8.95663E-3,1.2575572E-2,3.0644318E-2,1.093744E-2],"split_indices":[19,1,11,5,11,14,0,0,0,0,0,0,0],"split_type":[0,0,0,0,0,0,0,0,0,0,0,0,0],"sum_hessian":[1.0504265E4,9.1898E3,1.3144653E3,2.7884323E2,8.910956E3,1.1863914E3,1.2807393E2,6.407559E1,2.1476762E2,7.1105884E3,1.8003678E3,4.1508914E2,7.7130225E2],"tree_param":{"num_deleted":"0","num_feature":"20","num_nodes":"13","size_leaf_vector":"1"}},{"base_weights":[6.460123E-3,-2.6470238E-1,6.477953E-2,5.044834E-2,-4.1458902E-1,6.716944E-2,4.483601E-2,-3.5892412E-2,1.1604253E-2,-6.343972E-2,-2.0328337E-2,5.2622324E-3,-3.1897668E-2],"categories":[],"categories_nodes":[],"categories_segments":[],"categories_sizes":[],"default_left":[0,0,0,0,0,0,0,0,0,0,0,0,0],"id":71,"left_children":[1,3,5,7,9,-1,11,-1,-1,-1,-1,-1,-1],"loss_changes":[1.6609634E2,8.834653E1,1.6296793E2,4.448702E1,7.070468E1,0E0,1.5598961E2,0E0,0E0,0E0,0E0,0E0,0E0],"parents":[2147483647,0,0,1,1,2,2,3,3,4,4,6,6],"right_children":[2,4,6,8,10,-1,12,-1,-1,-1,-1,-1,-1],"split_conditions":[3.75E-1,1.5E1,5E-1,2E0,2E0,6.716944E-2,8.499E-1,-3.5892412E-2,1.1604253E-2,-6.343972E-2,-2.0328337E-2,5.2622324E-3,-3.1897668E-2],"split_indices":[5,14,1,2,0,0,9,0,0,0,0,0,0],"split_type":[0,0,0,0,0,0,0,0,0,0,0,0,0],"sum_hessian":[1.0512678E4,1.8542438E3,8.658435E3,5.9548456E2,1.2587593E3,1.7224437E2,8.486189E3,9.96374E1,4.9584717E2,1.984647E2,1.0602946E3,7.965766E3,5.204238E2],"tree_param":{"num_deleted":"0","num_feature":"20","num_nodes":"13","size_leaf_vector":"1"}},{"base_weights":[-5.6578714E-4,-1.2152438E-2,9.700003E-2,-5.8174837E-2,2.9612413E-1,4.403784E-2,-5.351121E-3,1.2955764E-2,3.7031822E-2],"categories":[],"categories_nodes":[],"categories_segments":[],"categories_sizes":[],"default_left":[0,0,0,0,0,0,0,0,0],"id":72,"left_children":[1,3,-1,5,7,-1,-1,-1,-1],"loss_changes":[1.7738396E2,1.480003E2,0E0,1.5049649E2,3.4360107E1,0E0,0E0,0E0,0E0],"parents":[2147483647,0,0,1,1,3,3,4,4],"right_children":[2,4,-1,6,8,-1,-1,-1,-1],"split_conditions":[1.0208334E0,4.42E2,9.700003E-2,5E-1,4.9250748E-2,4.403784E-2,-5.351121E-3,1.2955764E-2,3.7031822E-2],"split_indices":[8,19,0,1,13,0,0,0,0],"split_type":[0,0,0,0,0,0,0,0,0],"sum_hessian":[1.0524098E4,1.0446428E4,7.767002E1,9.09601E3,1.3504187E3,2.7322458E2,8.822785E3,9.892704E2,3.6114838E2],"tree_param":{"num_deleted":"0","num_feature":"20","num_nodes":"9","size_leaf_vector":"1"}},{"base_weights":[1.3540269E-2,-3.1395756E-2,3.2198992E-1,-6.6875316E-2,4.6730182E-1,7.2113276E-1,2.522318E-1,-5.2033854E-3,9.337904E-2,1.6479446E-2,1.2131554E-1,5.3429287E-2,-2.656527E-2,3.0163419E-2,1.3420599E-3],"categories":[],"categories_nodes":[],"categories_segments":[],"categories_sizes":[],"default_left":[0,0,0,0,0,0,0,0,0,0,0,0,0,0,0],"id":73,"left_children":[1,3,5,7,9,11,13,-1,-1,-1,-1,-1,-1,-1,-1],"loss_changes":[1.4515909E2,1.6080856E2,3.5060776E1,1.4936012E2,1.7532602E2,2.0952538E1,5.3550545E1,0E0,0E0,0E0,0E0,0E0,0E0,0E0,0E0],"parents":[2147483647,0,0,1,1,2,2,3,3,4,4,5,5,6,6],"right_children":[2,4,6,8,10,12,14,-1,-1,-1,-1,-1,-1,-1,-1],"split_conditions":[1.4E1,3.125E0,8.666667E-1,1.0208334E0,1.979899E1,1.3973386E0,3.6E1,-5.2033854E-3,9.337904E-2,1.6479446E-2,1.2131554E-1,5.3429287E-2,-2.656527E-2,3.0163419E-2,1.3420599E-3],"split_indices":[4,12,1,8,15,7,14,0,0,0,0,0,0,0,0],"split_type":[0,0,0,0,0,0,0,0,0,0,0,0,0,0,0],"sum_hessian":[1.0437478E4,9.109311E3,1.3281663E3,8.509896E3,5.994146E2,1.894309E2,1.1387355E3,8.446234E3,6.3661957E1,5.219755E2,7.743907E1,1.7773946E2,1.1691429E1,5.997002E2,5.390352E2],"tree_param":{"num_deleted":"0","num_feature":"20","num_nodes":"15","size_leaf_vector":"1"}},{"base_weights":[6.7787226E-3,-2.8172957E-3,1.3256674E0,-7.798175E-2,1.6193283E-1,9.581708E-2,2.467186E-2,1.3856195E-2,-1.1384145E-2,3.342336E-3,3.75008E-2],"categories":[],"categories_nodes":[],"categories_segments":[],"categories_sizes":[],"default_left":[0,0,0,0,0,0,0,0,0,0,0],"id":74,"left_children":[1,3,5,7,9,-1,-1,-1,-1,-1,-1],"loss_changes":[1.3472327E2,1.290495E2,4.6625824E0,1.9507623E2,1.4651443E2,0E0,0E0,0E0,0E0,0E0,0E0],"parents":[2147483647,0,0,1,1,2,2,3,3,4,4],"right_children":[2,4,6,8,10,-1,-1,-1,-1,-1,-1],"split_conditions":[1.0208334E0,8.578333E1,8.530696E1,9E-1,1.6593172E1,9.581708E-2,2.467186E-2,1.3856195E-2,-1.1384145E-2,3.342336E-3,3.75008E-2],"split_indices":[8,11,11,1,15,0,0,0,0,0,0],"split_type":[0,0,0,0,0,0,0,0,0,0,0],"sum_hessian":[1.0496085E4,1.0422956E4,7.3129395E1,7.164579E3,3.2583765E3,6.15645E1,1.1564897E1,1.7655815E3,5.3989976E3,2.5635696E3,6.948068E2],"tree_param":{"num_deleted":"0","num_feature":"20","num_nodes":"11","size_leaf_vector":"1"}},{"base_weights":[2.070064E-2,-1.9651335E-3,5.96295E-1,6.373466E-2,-2.2047658E-1,3.92747E-1,7.530191E-1,-1.7261178E-4,3.696908E-2,4.738521E-3,-3.254038E-2,4.0350217E-2,1.42688835E-2,5.0923616E-2,-0E0],"categories":[],"categories_nodes":[],"categories_segments":[],"categories_sizes":[],"default_left":[0,0,0,0,0,0,0,0,0,0,0,0,0,0,0],"id":75,"left_children":[1,3,5,7,9,11,13,-1,-1,-1,-1,-1,-1,-1,-1],"loss_changes":[1.3738431E2,1.4486833E2,1.0034714E1,2.5573007E2,1.8660104E2,5.51038E0,1.9594498E0,0E0,0E0,0E0,0E0,0E0,0E0,0E0,0E0],"parents":[2147483647,0,0,1,1,2,2,3,3,4,4,5,5,6,6],"right_children":[2,4,6,8,10,12,14,-1,-1,-1,-1,-1,-1,-1,-1],"split_conditions":[2.7E1,4.3666668E1,3.6E1,2.4748737E1,9.0909094E-1,4.0108827E-1,3E-1,-1.7261178E-4,3.696908E-2,4.738521E-3,-3.254038E-2,4.0350217E-2,1.42688835E-2,5.0923616E-2,-0E0],"split_indices":[0,14,0,15,1,10,6,0,0,0,0,0,0,0,0],"split_type":[0,0,0,0,0,0,0,0,0,0,0,0,0,0,0],"sum_hessian":[1.0463672E4,1.0068546E4,3.9512677E2,7.7382466E3,2.330299E3,1.8144307E2,2.1368372E2,6.82663E3,9.116167E2,1.12327E3,1.2070289E3,7.346392E1,1.0797916E2,2.0669669E2,6.9870343E0],"tree_param":{"num_deleted":"0","num_feature":"20","num_nodes":"15","size_leaf_vector":"1"}},{"base_weights":[-4.3125637E-3,2.6211372E-1,-5.115512E-2,1.1862638E-1,5.7061213E-1,-3.7968785E-1,2.1406682E-3,-2.6049968E-2,1.271644E-2,-4.3113884E-2,3.9357908E-2,-6.4843562E-3,-4.27461E-2,-1.6215652E-3,3.491685E-2],"categories":[],"categories_nodes":[],"categories_segments":[],"categories_sizes":[],"default_left":[0,0,0,0,0,0,0,0,0,0,0,0,0,0,0],"id":76,"left_children":[1,3,5,7,9,11,13,-1,-1,-1,-1,-1,-1,-1,-1],"loss_changes":[1.2854253E2,6.693E1,1.5431897E2,4.021923E1,1.6595001E1,9.145044E1,1.0708196E2,0E0,0E0,0E0,0E0,0E0,0E0,0E0,0E0],"parents":[2147483647,0,0,1,1,2,2,3,3,4,4,5,5,6,6],"right_children":[2,4,6,8,10,12,14,-1,-1,-1,-1,-1,-1,-1,-1],"split_conditions":[5E0,6.428022E-4,2E0,3.5775E1,3E0,1.1166667E1,2.7027028E0,-2.6049968E-2,1.271644E-2,-4.3113884E-2,3.9357908E-2,-6.4843562E-3,-4.27461E-2,-1.6215652E-3,3.491685E-2],"split_indices":[14,16,0,11,2,14,12,0,0,0,0,0,0,0,0],"split_type":[0,0,0,0,0,0,0,0,0,0,0,0,0,0,0],"sum_hessian":[1.0315297E4,1.5354484E3,8.779849E3,1.0546051E3,4.8084323E2,1.2258898E3,7.553959E3,1.2852513E2,9.2608E2,6.8796678E0,4.7396356E2,6.0283765E2,6.230522E2,7.1904253E3,3.6353336E2],"tree_param":{"num_deleted":"0","num_feature":"20","num_nodes":"15","size_leaf_vector":"1"}},{"base_weights":[4.177423E-3,-1.2959833E-1,1.0799947E-1,5.2261803E-2,-3.2697442E-1,7.084427E-1,7.40014E-2,-7.471412E-4,3.9571308E-2,-4.1596223E-2,-1.438574E-5,-9.3025835E-3,5.321332E-2,1.1117896E-2,-7.5225583E-3],"categories":[],"categories_nodes":[],"categories_segments":[],"categories_sizes":[],"default_left":[0,0,0,0,0,0,0,0,0,0,0,0,0,0,0],"id":77,"left_children":[1,3,5,7,9,11,13,-1,-1,-1,-1,-1,-1,-1,-1],"loss_changes":[1.436457E2,1.6249023E2,1.1774032E2,8.257263E1,2.1402028E2,2.7058151E1,9.819777E1,0E0,0E0,0E0,0E0,0E0,0E0,0E0,0E0],"parents":[2147483647,0,0,1,1,2,2,3,3,4,4,5,5,6,6],"right_children":[2,4,6,8,10,12,14,-1,-1,-1,-1,-1,-1,-1,-1],"split_conditions":[4E0,1.15E1,7.1428573E-1,2.9084166E-3,1.151376E1,2.6666667E0,4.6315494E-1,-7.471412E-4,3.9571308E-2,-4.1596223E-2,-1.438574E-5,-9.3025835E-3,5.321332E-2,1.1117896E-2,-7.5225583E-3],"split_indices":[0,14,1,16,15,2,10,0,0,0,0,0,0,0,0],"split_type":[0,0,0,0,0,0,0,0,0,0,0,0,0,0,0],"sum_hessian":[1.0337099E4,4.5107495E3,5.826349E3,2.3454563E3,2.1652935E3,3.0605164E2,5.5202974E3,2.1023547E3,2.4310162E2,1.1191448E3,1.0461487E3,2.9952164E1,2.760995E2,3.679497E3,1.8408002E3],"tree_param":{"num_deleted":"0","num_feature":"20","num_nodes":"15","size_leaf_vector":"1"}},{"base_weights":[1.0142364E-2,2.035057E-1,-5.5178523E-2,1.5351458E-1,6.5206695E-1,-3.9927405E-1,7.057671E-2,6.7639444E-3,3.779452E-2,-0E0,4.517197E-2,-5.149572E-3,-3.520752E-2,8.756997E-4,3.634776E-2],"categories":[],"categories_nodes":[],"categories_segments":[],"categories_sizes":[],"default_left":[0,0,0,0,0,0,0,0,0,0,0,0,0,0,0],"id":78,"left_children":[1,3,5,7,9,11,13,-1,-1,-1,-1,-1,-1,-1,-1],"loss_changes":[1.3046434E2,5.702823E1,3.3392374E2,4.9233166E1,6.318016E0,8.798831E1,1.5443391E2,0E0,0E0,0E0,0E0,0E0,0E0,0E0,0E0],"parents":[2147483647,0,0,1,1,2,2,3,3,4,4,5,5,6,6],"right_children":[2,4,6,8,10,12,14,-1,-1,-1,-1,-1,-1,-1,-1],"split_conditions":[8E0,9E0,9.192389E0,2.9084166E-3,3.459E1,1.0333333E1,1.1494253E0,6.7639444E-3,3.779452E-2,-0E0,4.517197E-2,-5.149572E-3,-3.520752E-2,8.756997E-4,3.634776E-2],"split_indices":[14,0,15,16,11,14,12,0,0,0,0,0,0,0,0],"split_type":[0,0,0,0,0,0,0,0,0,0,0,0,0,0,0],"sum_hessian":[1.0305896E4,2.6056807E3,7.700216E3,2.351705E3,2.539756E2,2.0617014E3,5.6385146E3,2.1034602E3,2.4824498E2,1.0244899E1,2.4373071E2,6.119559E2,1.4497454E3,5.0432065E3,5.9530804E2],"tree_param":{"num_deleted":"0","num_feature":"20","num_nodes":"15","size_leaf_vector":"1"}},{"base_weights":[1.4518866E-2,-3.0011447E-2,2.6820096E-1,-2.4067126E-1,5.0522473E-2,-3.297283E-1,3.980039E-1,-7.2802855E-3,-3.9178863E-2,4.9026795E-2,1.5498585E-3,-3.1376433E-2,2.558413E-2,1.9192321E-2,6.4470775E-2],"categories":[],"categories_nodes":[],"categories_segments":[],"categories_sizes":[],"default_left":[0,0,0,0,0,0,0,0,0,0,0,0,0,0,0],"id":79,"left_children":[1,3,5,7,9,11,13,-1,-1,-1,-1,-1,-1,-1,-1],"loss_changes":[1.168929E2,1.4916571E2,1.2053179E2,1.10675064E2,1.1767209E2,2.9622513E1,7.6216995E1,0E0,0E0,0E0,0E0,0E0,0E0,0E0,0E0],"parents":[2147483647,0,0,1,1,2,2,3,3,4,4,5,5,6,6],"right_children":[2,4,6,8,10,12,14,-1,-1,-1,-1,-1,-1,-1,-1],"split_conditions":[9.546321E1,3E0,2.534E-1,2.8333334E1,6.666667E-1,5.496207E-1,1.2020815E1,-7.2802855E-3,-3.9178863E-2,4.9026795E-2,1.5498585E-3,-3.1376433E-2,2.558413E-2,1.9192321E-2,6.4470775E-2],"split_indices":[11,0,9,14,1,10,15,0,0,0,0,0,0,0,0],"split_type":[0,0,0,0,0,0,0,0,0,0,0,0,0,0,0],"sum_hessian":[1.0312186E4,8.770527E3,1.5416586E3,2.4282822E3,6.3422446E3,2.7205435E2,1.2696041E3,1.779605E3,6.486771E2,2.3279976E2,6.109445E3,2.2879758E2,4.3256767E1,1.0778777E3,1.9172655E2],"tree_param":{"num_deleted":"0","num_feature":"20","num_nodes":"15","size_leaf_vector":"1"}},{"base_weights":[-6.8051517E-3,-3.3145875E-1,3.4736563E-2,-5.2176017E-1,-1.2409381E-1,5.804229E-1,7.0007327E-3,-4.5498107E-2,-2.0536683E-2,-1.2866455E-2,4.361987E-2,1.0904576E-2,6.600654E-2,-5.2611674E-3,1.1558621E-2],"categories":[],"categories_nodes":[],"categories_segments":[],"categories_sizes":[],"default_left":[0,0,0,0,0,0,0,0,0,0,0,0,0,0,0],"id":80,"left_children":[1,3,5,7,9,11,13,-1,-1,-1,-1,-1,-1,-1,-1],"loss_changes":[1.3879369E2,4.494893E1,1.3680853E2,1.91389E1,3.1376945E1,7.3972824E1,1.26411644E2,0E0,0E0,0E0,0E0,0E0,0E0,0E0,0E0],"parents":[2147483647,0,0,1,1,2,2,3,3,4,4,5,5,6,6],"right_children":[2,4,6,8,10,12,14,-1,-1,-1,-1,-1,-1,-1,-1],"split_conditions":[3.1666667E0,3.267974E-2,6.666667E-1,2.2222222E-1,2.7777777E0,5.25E-1,8.530696E1,-4.5498107E-2,-2.0536683E-2,-1.2866455E-2,4.361987E-2,1.0904576E-2,6.600654E-2,-5.2611674E-3,